{"learner":{"attributes":{"best_iteration":"272","best_score":"24928.336446485235"},"feature_names":["MSSubClass","MSZoning","LotFrontage","LotArea","Street","LotShape","LandContour","Utilities","LotConfig","LandSlope","Neighborhood","Condition1","Condition2","BldgType","HouseStyle","OverallQual","OverallCond","YearBuilt","YearRemodAdd","RoofStyle","RoofMatl","Exterior1st","Exterior2nd","MasVnrType","MasVnrArea","ExterQual","ExterCond","Foundation","BsmtQual","BsmtCond","BsmtExposure","BsmtFinType1","BsmtFinSF1","BsmtFinType2","BsmtFinSF2","BsmtUnfSF","TotalBsmtSF","Heating","HeatingQC","CentralAir","Electrical","1stFlrSF","2ndFlrSF","LowQualFinSF","GrLivArea","BsmtFullBath","BsmtHalfBath","FullBath","HalfBath","BedroomAbvGr","KitchenAbvGr","KitchenQual","TotRmsAbvGrd","Functional","Fireplaces","FireplaceQu","GarageType","GarageYrBlt","GarageFinish","GarageCars","GarageArea","GarageQual","GarageCond","PavedDrive","WoodDeckSF","OpenPorchSF","EnclosedPorch","3SsnPorch","ScreenPorch","PoolArea","MiscVal","MoSold","YrSold","SaleType","SaleCondition"],"feature_types":["int","int","float","int","int","int","int","int","int","int","int","int","int","int","int","int","int","int","int","int","int","int","int","int","float","int","int","int","int","int","int","int","int","int","int","int","int","int","int","int","int","int","int","int","int","int","int","int","int","int","int","int","int","int","int","int","int","float","int","int","int","int","int","int","int","int","int","int","int","int","int","int","int","int","int"],"gradient_booster":{"model":{"gbtree_model_param":{"num_parallel_tree":"1","num_trees":"283"},"iteration_indptr":[0,1,2,3,4,5,6,7,8,9,10,11,12,13,14,15,16,17,18,19,20,21,22,23,24,25,26,27,28,29,30,31,32,33,34,35,36,37,38,39,40,41,42,43,44,45,46,47,48,49,50,51,52,53,54,55,56,57,58,59,60,61,62,63,64,65,66,67,68,69,70,71,72,73,74,75,76,77,78,79,80,81,82,83,84,85,86,87,88,89,90,91,92,93,94,95,96,97,98,99,100,101,102,103,104,105,106,107,108,109,110,111,112,113,114,115,116,117,118,119,120,121,122,123,124,125,126,127,128,129,130,131,132,133,134,135,136,137,138,139,140,141,142,143,144,145,146,147,148,149,150,151,152,153,154,155,156,157,158,159,160,161,162,163,164,165,166,167,168,169,170,171,172,173,174,175,176,177,178,179,180,181,182,183,184,185,186,187,188,189,190,191,192,193,194,195,196,197,198,199,200,201,202,203,204,205,206,207,208,209,210,211,212,213,214,215,216,217,218,219,220,221,222,223,224,225,226,227,228,229,230,231,232,233,234,235,236,237,238,239,240,241,242,243,244,245,246,247,248,249,250,251,252,253,254,255,256,257,258,259,260,261,262,263,264,265,266,267,268,269,270,271,272,273,274,275,276,277,278,279,280,281,282,283],"tree_info":[0,0,0,0,0,0,0,0,0,0,0,0,0,0,0,0,0,0,0,0,0,0,0,0,0,0,0,0,0,0,0,0,0,0,0,0,0,0,0,0,0,0,0,0,0,0,0,0,0,0,0,0,0,0,0,0,0,0,0,0,0,0,0,0,0,0,0,0,0,0,0,0,0,0,0,0,0,0,0,0,0,0,0,0,0,0,0,0,0,0,0,0,0,0,0,0,0,0,0,0,0,0,0,0,0,0,0,0,0,0,0,0,0,0,0,0,0,0,0,0,0,0,0,0,0,0,0,0,0,0,0,0,0,0,0,0,0,0,0,0,0,0,0,0,0,0,0,0,0,0,0,0,0,0,0,0,0,0,0,0,0,0,0,0,0,0,0,0,0,0,0,0,0,0,0,0,0,0,0,0,0,0,0,0,0,0,0,0,0,0,0,0,0,0,0,0,0,0,0,0,0,0,0,0,0,0,0,0,0,0,0,0,0,0,0,0,0,0,0,0,0,0,0,0,0,0,0,0,0,0,0,0,0,0,0,0,0,0,0,0,0,0,0,0,0,0,0,0,0,0,0,0,0,0,0,0,0,0,0,0,0,0,0,0,0,0,0,0,0,0,0,0,0,0,0,0,0,0,0,0,0,0,0],"trees":[{"base_weights":[1.3221888E3,-1.6166025E4,1.252359E5,-4.754661E4,1.5792572E4,6.881301E4,1.8656286E5,-5.6374355E4,-1.1009857E4,4.418981E4,-7.5002466E3,-3.3592316E4,8.915235E4,1.3510873E5,2.522769E5,-3.7960046E3,-2.3018425E3,-1.5098851E3,4.457258E2,7.6356415E2,3.132197E3,-1.6933368E3,1.8286655E2,-2.6839236E3,6.2338123E1,3.0316406E3,6.9827046E3,1.658442E3,7.2098555E3,8.271133E1,1.3179683E4],"categories":[],"categories_nodes":[],"categories_segments":[],"categories_sizes":[],"default_left":[0,0,0,0,0,0,0,0,0,0,0,0,0,0,0,0,0,0,0,0,0,0,0,0,0,0,0,0,0,0,0],"id":0,"left_children":[1,3,5,7,9,11,13,15,17,19,21,23,25,27,29,-1,-1,-1,-1,-1,-1,-1,-1,-1,-1,-1,-1,-1,-1,-1,-1],"loss_changes":[2.0325313E12,8.251178E11,3.8855036E11,1.3323226E11,2.7020373E11,1.3213191E11,1.5188414E11,6.3990923E10,3.161827E10,9.7237926E10,6.6315747E10,7.7645363E9,6.6427257E10,2.5790579E10,6.479741E10,0E0,0E0,0E0,0E0,0E0,0E0,0E0,0E0,0E0,0E0,0E0,0E0,0E0,0E0,0E0,0E0],"parents":[2147483647,0,0,1,1,2,2,3,3,4,4,5,5,6,6,7,7,8,8,9,9,10,10,11,11,12,12,13,13,14,14],"right_children":[2,4,6,8,10,12,14,16,18,20,22,24,26,28,30,-1,-1,-1,-1,-1,-1,-1,-1,-1,-1,-1,-1,-1,-1,-1,-1],"split_conditions":[3E0,1.414E3,2.019E3,1.152E3,3E0,1.998E3,1.588E3,2.88E2,1.978E3,1.021E3,2E0,1E0,7.38E2,1.992E3,1E0,-3.7960046E3,-2.3018425E3,-1.5098851E3,4.457258E2,7.6356415E2,3.132197E3,-1.6933368E3,1.8286655E2,-2.6839236E3,6.2338123E1,3.0316406E3,6.9827046E3,1.658442E3,7.2098555E3,8.271133E1,1.3179683E4],"split_indices":[59,44,44,36,25,17,36,60,17,36,59,24,32,18,6,0,0,0,0,0,0,0,0,0,0,0,0,0,0,0,0],"split_type":[0,0,0,0,0,0,0,0,0,0,0,0,0,0,0,0,0,0,0,0,0,0,0,0,0,0,0,0,0,0,0],"sum_hessian":[9.36E2,8.21E2,1.15E2,4.14E2,4.07E2,6.1E1,5.4E1,3.33E2,8.1E1,1.83E2,2.24E2,1E1,5.1E1,3.2E1,2.2E1,1.13E2,2.2E2,4.1E1,4E1,7.2E1,1.11E2,6.6E1,1.58E2,6E0,4E0,3.4E1,1.7E1,3E0,2.9E1,1E0,2.1E1],"tree_param":{"num_deleted":"0","num_feature":"75","num_nodes":"31","size_leaf_vector":"1"}},{"base_weights":[-9.36177E2,5.3494062E4,-3.4893645E4,2.474657E4,1.217048E5,-5.0110863E4,-4.515532E3,1.2647212E3,5.6856035E4,9.735989E4,1.9981219E5,-6.0787188E4,-3.0587818E4,-9.257076E3,9.239759E4,-1.54938E3,1.0266127E3,1.228453E3,4.2090234E3,3.867983E3,7.419482E3,1.0417972E4,8.0643364E1,-3.65392E3,-2.4989827E3,-2.069303E3,-1.1914271E3,-9.331683E1,-2.422005E3,1.74564E3,5.7660596E3],"categories":[],"categories_nodes":[],"categories_segments":[],"categories_sizes":[],"default_left":[0,0,0,0,0,0,0,0,0,0,0,0,0,0,0,0,0,0,0,0,0,0,0,0,0,0,0,0,0,0,0],"id":1,"left_children":[1,3,5,7,9,11,13,15,17,19,21,23,25,27,29,-1,-1,-1,-1,-1,-1,-1,-1,-1,-1,-1,-1,-1,-1,-1,-1],"loss_changes":[1.7078596E12,6.9310336E11,2.6280552E11,1.8917951E11,1.8020565E11,7.713731E10,8.862325E10,9.136395E10,9.144743E10,7.221038E10,4.032122E10,2.875995E10,8.940241E9,5.2904837E10,7.833633E9,0E0,0E0,0E0,0E0,0E0,0E0,0E0,0E0,0E0,0E0,0E0,0E0,0E0,0E0,0E0,0E0],"parents":[2147483647,0,0,1,1,2,2,3,3,4,4,5,5,6,6,7,7,8,8,9,9,10,10,11,11,12,12,13,13,14,14],"right_children":[2,4,6,8,10,12,14,16,18,20,22,24,26,28,30,-1,-1,-1,-1,-1,-1,-1,-1,-1,-1,-1,-1,-1,-1,-1,-1],"split_conditions":[3E0,6.66E2,1.484E3,1.644E3,1.838E3,1.01E3,2.62E3,1.092E3,1.053E3,2.291E3,1.3E2,2.99E2,3.88E2,2E0,1.985E3,-1.54938E3,1.0266127E3,1.228453E3,4.2090234E3,3.867983E3,7.419482E3,1.0417972E4,8.0643364E1,-3.65392E3,-2.4989827E3,-2.069303E3,-1.1914271E3,-9.331683E1,-2.422005E3,1.74564E3,5.7660596E3],"split_indices":[25,60,44,44,36,36,44,41,36,44,2,60,60,50,18,0,0,0,0,0,0,0,0,0,0,0,0,0,0,0,0],"split_type":[0,0,0,0,0,0,0,0,0,0,0,0,0,0,0,0,0,0,0,0,0,0,0,0,0,0,0,0,0,0,0],"sum_hessian":[9.22E2,3.54E2,5.68E2,2.5E2,1.04E2,3.78E2,1.9E2,1.45E2,1.05E2,8.1E1,2.3E1,2.43E2,1.35E2,1.82E2,8E0,5.4E1,9.1E1,4.9E1,5.6E1,6E1,2.1E1,2.2E1,1E0,1.11E2,1.32E2,5E1,8.5E1,1.54E2,2.8E1,3E0,5E0],"tree_param":{"num_deleted":"0","num_feature":"75","num_nodes":"31","size_leaf_vector":"1"}},{"base_weights":[-1.052221E1,-2.053988E4,1.0592104E5,-3.5251652E4,2.185916E4,8.2088484E4,1.6525027E5,-4.9698543E4,-1.7308383E4,1.4841429E4,7.038962E4,5.8727348E4,1.179568E5,1.788238E5,2.904135E4,-2.915549E3,-1.4737628E3,-2.4172578E3,-4.0329962E2,1.0736816E3,-9.075543E2,2.8726953E2,4.1214604E3,2.0637024E2,3.4034985E3,4.734879E3,7.329554E3,5.8554507E3,9.834116E3,2.7786008E3,-3.5848828E2],"categories":[],"categories_nodes":[],"categories_segments":[],"categories_sizes":[],"default_left":[0,0,0,0,0,0,0,0,0,0,0,0,0,0,0,0,0,0,0,0,0,0,0,0,0,0,0,0,0,0,0],"id":2,"left_children":[1,3,5,7,9,11,13,15,17,19,21,23,25,27,29,-1,-1,-1,-1,-1,-1,-1,-1,-1,-1,-1,-1,-1,-1,-1,-1],"loss_changes":[2.0094302E12,4.8356462E11,1.9852991E11,1.4819387E11,6.7070067E10,8.440657E10,7.245778E10,5.3667824E10,7.3618375E10,3.890087E10,1.8983674E10,3.44063E10,1.4090633E10,1.884776E10,5.201963E9,0E0,0E0,0E0,0E0,0E0,0E0,0E0,0E0,0E0,0E0,0E0,0E0,0E0,0E0,0E0,0E0],"parents":[2147483647,0,0,1,1,2,2,3,3,4,4,5,5,6,6,7,7,8,8,9,9,10,10,11,11,12,12,13,13,14,14],"right_children":[2,4,6,8,10,12,14,16,18,20,22,24,26,28,30,-1,-1,-1,-1,-1,-1,-1,-1,-1,-1,-1,-1,-1,-1,-1,-1],"split_conditions":[8E0,7E0,9E0,6E0,9.58E2,7.89E2,1.15E2,1.041E3,3.08E2,4E0,8.089E3,6.858E3,1.33E3,1.1317E4,3E1,-2.915549E3,-1.4737628E3,-2.4172578E3,-4.0329962E2,1.0736816E3,-9.075543E2,2.8726953E2,4.1214604E3,2.0637024E2,3.4034985E3,4.734879E3,7.329554E3,5.8554507E3,9.834116E3,2.7786008E3,-3.5848828E2],"split_indices":[15,15,15,15,32,32,2,36,60,56,3,3,32,3,0,0,0,0,0,0,0,0,0,0,0,0,0,0,0,0,0],"split_type":[0,0,0,0,0,0,0,0,0,0,0,0,0,0,0,0,0,0,0,0,0,0,0,0,0,0,0,0,0,0,0],"sum_hessian":[9.22E2,7.73E2,1.49E2,5.74E2,1.99E2,1.08E2,4.1E1,3.17E2,2.57E2,1.75E2,2.4E1,6.7E1,4.1E1,3.7E1,4E0,2.21E2,9.6E1,5.8E1,1.99E2,1.46E2,2.9E1,4E0,2E1,1E1,5.7E1,2.5E1,1.6E1,1E1,2.7E1,2E0,2E0],"tree_param":{"num_deleted":"0","num_feature":"75","num_nodes":"31","size_leaf_vector":"1"}},{"base_weights":[-6.503196E2,-2.0448979E4,1.0656317E5,-4.101737E4,8.420751E3,7.727104E4,1.7337723E5,-6.2974594E4,-2.8844748E4,-8.215129E3,3.1294352E4,6.2062438E4,1.4204306E5,5.713915E4,1.8681445E5,-4.202937E3,-2.7545862E3,-2.1462747E3,-7.9145514E2,-1.3457543E3,1.5672784E2,1.0789436E3,3.3099243E3,1.5726866E2,3.4032446E3,5.462734E3,9.132196E3,3.6713079E3,-6.0739764E2,8.106621E3,1.6111291E4],"categories":[],"categories_nodes":[],"categories_segments":[],"categories_sizes":[],"default_left":[0,0,0,0,0,0,0,0,0,0,0,0,0,0,0,0,0,0,0,0,0,0,0,0,0,0,0,0,0,0,0],"id":3,"left_children":[1,3,5,7,9,11,13,15,17,19,21,23,25,27,29,-1,-1,-1,-1,-1,-1,-1,-1,-1,-1,-1,-1,-1,-1,-1,-1],"loss_changes":[2.0017469E12,4.7301322E11,2.7430053E11,1.2246732E11,1.2659055E11,9.3634036E10,5.8049823E10,2.2792634E10,5.448481E10,4.1046426E10,4.604697E10,3.0199513E10,5.338792E9,7.662856E9,7.810371E10,0E0,0E0,0E0,0E0,0E0,0E0,0E0,0E0,0E0,0E0,0E0,0E0,0E0,0E0,0E0,0E0],"parents":[2147483647,0,0,1,1,2,2,3,3,4,4,5,5,6,6,7,7,8,8,9,9,10,10,11,11,12,12,13,13,14,14],"right_children":[2,4,6,8,10,12,14,16,18,20,22,24,26,28,30,-1,-1,-1,-1,-1,-1,-1,-1,-1,-1,-1,-1,-1,-1,-1,-1],"split_conditions":[8E0,1.47E3,9E0,1.956E3,7E0,2.447E3,8E0,1E0,1.146E3,6E0,2.094E3,1.99E3,1.461E3,1.24E2,2.81E3,-4.202937E3,-2.7545862E3,-2.1462747E3,-7.9145514E2,-1.3457543E3,1.5672784E2,1.0789436E3,3.3099243E3,1.5726866E2,3.4032446E3,5.462734E3,9.132196E3,3.6713079E3,-6.0739764E2,8.106621E3,1.6111291E4],"split_indices":[15,44,15,17,15,44,10,39,44,15,44,18,36,2,44,0,0,0,0,0,0,0,0,0,0,0,0,0,0,0,0],"split_type":[0,0,0,0,0,0,0,0,0,0,0,0,0,0,0,0,0,0,0,0,0,0,0,0,0,0,0,0,0,0,0],"sum_hessian":[9.41E2,7.95E2,1.46E2,4.64E2,3.31E2,1.03E2,4.3E1,1.64E2,3E2,1.92E2,1.39E2,8.5E1,1.8E1,5E0,3.8E1,4.2E1,1.22E2,1.43E2,1.57E2,7.2E1,1.2E2,1.1E2,2.9E1,8E0,7.7E1,1.2E1,6E0,4E0,1E0,3.4E1,4E0],"tree_param":{"num_deleted":"0","num_feature":"75","num_nodes":"31","size_leaf_vector":"1"}},{"base_weights":[2.9139075E2,-1.8380799E4,1.0156007E5,-3.2123053E4,2.013337E4,7.18577E4,1.6530844E5,-5.0219387E4,-1.7893129E4,1.3627946E4,6.4646766E4,5.972349E4,1.318296E5,5.9426086E4,1.7705808E5,-3.6443953E3,-2.1996135E3,-1.6937822E3,-1.7860461E2,9.761308E2,-7.7622046E2,1.752143E3,4.813221E3,1.7769135E3,3.7575066E3,3.2965012E3,7.7895156E3,3.5244556E3,1.0277422E2,7.1817236E3,1.1443545E4],"categories":[],"categories_nodes":[],"categories_segments":[],"categories_sizes":[],"default_left":[0,0,0,0,0,0,0,0,0,0,0,0,0,0,0,0,0,0,0,0,0,0,0,0,0,0,0,0,0,0,0],"id":4,"left_children":[1,3,5,7,9,11,13,15,17,19,21,23,25,27,29,-1,-1,-1,-1,-1,-1,-1,-1,-1,-1,-1,-1,-1,-1,-1,-1],"loss_changes":[1.7490657E12,4.1400772E11,2.6078216E11,1.4742697E11,5.877216E10,6.4897843E10,4.5461668E10,3.250684E10,7.403812E10,3.1406754E10,2.0962787E10,2.904254E10,1.4992769E10,3.6632637E9,3.639699E10,0E0,0E0,0E0,0E0,0E0,0E0,0E0,0E0,0E0,0E0,0E0,0E0,0E0,0E0,0E0,0E0],"parents":[2147483647,0,0,1,1,2,2,3,3,4,4,5,5,6,6,7,7,8,8,9,9,10,10,11,11,12,12,13,13,14,14],"right_children":[2,4,6,8,10,12,14,16,18,20,22,24,26,28,30,-1,-1,-1,-1,-1,-1,-1,-1,-1,-1,-1,-1,-1,-1,-1,-1],"split_conditions":[8E0,7E0,9E0,2E0,9.19E2,2.38E2,8E0,5E0,6E0,4E0,2E0,5.83E2,1.995E3,1.24E2,1.926E3,-3.6443953E3,-2.1996135E3,-1.6937822E3,-1.7860461E2,9.761308E2,-7.7622046E2,1.752143E3,4.813221E3,1.7769135E3,3.7575066E3,3.2965012E3,7.7895156E3,3.5244556E3,1.0277422E2,7.1817236E3,1.1443545E4],"split_indices":[15,15,15,59,32,64,10,15,15,56,23,60,18,2,36,0,0,0,0,0,0,0,0,0,0,0,0,0,0,0,0],"split_type":[0,0,0,0,0,0,0,0,0,0,0,0,0,0,0,0,0,0,0,0,0,0,0,0,0,0,0,0,0,0,0],"sum_hessian":[9.23E2,7.8E2,1.43E2,5.75E2,2.05E2,9.9E1,4.4E1,2.52E2,3.23E2,1.8E2,2.5E1,8.4E1,1.5E1,5E0,3.9E1,5.2E1,2E2,1.52E2,1.71E2,1.5E2,3E1,1.4E1,1.1E1,3.4E1,5E1,5E0,1E1,4E0,1E0,2.6E1,1.3E1],"tree_param":{"num_deleted":"0","num_feature":"75","num_nodes":"31","size_leaf_vector":"1"}},{"base_weights":[-8.6758966E2,-1.7478682E4,9.357776E4,-3.1293176E4,2.060764E4,7.141134E4,1.5993667E5,-4.4190047E4,-1.1789953E4,1.4161151E4,5.7433867E4,5.7442668E4,1.2404006E5,1.3374697E5,1.4516278E4,-2.5424922E3,-9.1468146E2,-1.7402557E3,-1.5870467E2,4.5931567E2,2.7496494E3,1.5357533E3,3.9601257E3,2.2613826E3,4.32077E3,6.4007085E3,1.01459766E3,6.9499116E3,-5.947824E2],"categories":[],"categories_nodes":[],"categories_segments":[],"categories_sizes":[],"default_left":[0,0,0,0,0,0,0,0,0,0,0,0,0,0,0,0,0,0,0,0,0,0,0,0,0,0,0,0,0],"id":5,"left_children":[1,3,5,7,9,11,13,15,17,19,21,23,25,27,-1,-1,-1,-1,-1,-1,-1,-1,-1,-1,-1,-1,-1,-1,-1],"loss_changes":[1.4998783E12,4.2839933E11,1.98923E11,1.4964274E11,5.0702434E10,7.3006514E10,8.06895E10,6.098459E10,4.728212E10,3.7277323E10,1.617952E10,2.7235025E10,6.473056E9,2.5362563E10,0E0,0E0,0E0,0E0,0E0,0E0,0E0,0E0,0E0,0E0,0E0,0E0,0E0,0E0,0E0],"parents":[2147483647,0,0,1,1,2,2,3,3,4,4,5,5,6,6,7,7,8,8,9,9,10,10,11,11,12,12,13,13],"right_children":[2,4,6,8,10,12,14,16,18,20,22,24,26,28,-1,-1,-1,-1,-1,-1,-1,-1,-1,-1,-1,-1,-1,-1,-1],"split_conditions":[8E0,7E0,1.219E3,1E0,9.19E2,9E0,3E0,1.974E3,3.54E2,1.001E3,7.1E1,9.41E2,1.12E2,1.3E2,1.4516278E4,-2.5424922E3,-9.1468146E2,-1.7402557E3,-1.5870467E2,4.5931567E2,2.7496494E3,1.5357533E3,3.9601257E3,2.2613826E3,4.32077E3,6.4007085E3,1.01459766E3,6.9499116E3,-5.947824E2],"split_indices":[15,15,32,54,32,15,47,17,60,42,2,42,2,2,0,0,0,0,0,0,0,0,0,0,0,0,0,0,0],"split_type":[0,0,0,0,0,0,0,0,0,0,0,0,0,0,0,0,0,0,0,0,0,0,0,0,0,0,0,0,0],"sum_hessian":[9.54E2,8.12E2,1.42E2,5.96E2,2.16E2,1.08E2,3.4E1,3.58E2,2.38E2,1.85E2,3.1E1,8.7E1,2.1E1,3E1,4E0,2.84E2,7.4E1,6.4E1,1.74E2,1.66E2,1.9E1,1.5E1,1.6E1,6.3E1,2.4E1,2E1,1E0,2.9E1,1E0],"tree_param":{"num_deleted":"0","num_feature":"75","num_nodes":"29","size_leaf_vector":"1"}},{"base_weights":[4.659483E1,-1.7311707E4,9.152922E4,-3.551047E4,9.380839E3,5.09821E4,1.2354297E5,-4.4321965E4,-1.5010922E4,-6.557915E3,3.0102541E4,-2.0937361E4,5.7119758E4,1.0652892E5,2.0565375E5,-2.8599626E3,-1.5625885E3,-1.1936046E3,7.969244E1,6.575528E2,-9.75826E2,8.5637787E2,3.2528916E3,-4.4006467E2,-1.5069833E3,1.2087606E3,3.4514126E3,4.3146055E3,7.8153555E3,-2.6270236E2,1.1183362E4],"categories":[],"categories_nodes":[],"categories_segments":[],"categories_sizes":[],"default_left":[0,0,0,0,0,0,0,0,0,0,0,0,0,0,0,0,0,0,0,0,0,0,0,0,0,0,0,0,0,0,0],"id":6,"left_children":[1,3,5,7,9,11,13,15,17,19,21,23,25,27,29,-1,-1,-1,-1,-1,-1,-1,-1,-1,-1,-1,-1,-1,-1,-1,-1],"loss_changes":[1.4736447E12,3.7923468E11,1.8581514E11,8.314775E10,1.0489557E11,3.0770872E10,9.264903E10,5.274442E10,2.0784464E10,4.62288E10,6.147484E10,4.04811E8,2.2655042E10,5.7026544E10,5.0564497E10,0E0,0E0,0E0,0E0,0E0,0E0,0E0,0E0,0E0,0E0,0E0,0E0,0E0,0E0,0E0,0E0],"parents":[2147483647,0,0,1,1,2,2,3,3,4,4,5,5,6,6,7,7,8,8,9,9,10,10,11,11,12,12,13,13,14,14],"right_children":[2,4,6,8,10,12,14,16,18,20,22,24,26,28,30,-1,-1,-1,-1,-1,-1,-1,-1,-1,-1,-1,-1,-1,-1,-1,-1],"split_conditions":[8E0,1.484E3,3E0,1.974E3,7E0,7.77E2,2.601E3,8.66E2,1.16E3,2E0,2.035E3,4E0,1.555E3,1.838E3,1E0,-2.8599626E3,-1.5625885E3,-1.1936046E3,7.969244E1,6.575528E2,-9.75826E2,8.5637787E2,3.2528916E3,-4.4006467E2,-1.5069833E3,1.2087606E3,3.4514126E3,4.3146055E3,7.8153555E3,-2.6270236E2,1.1183362E4],"split_indices":[15,44,59,17,15,36,44,36,36,5,44,1,44,36,6,0,0,0,0,0,0,0,0,0,0,0,0,0,0,0,0],"split_type":[0,0,0,0,0,0,0,0,0,0,0,0,0,0,0,0,0,0,0,0,0,0,0,0,0,0,0,0,0,0,0],"sum_hessian":[9.26E2,7.79E2,1.47E2,4.63E2,3.16E2,6.6E1,8.1E1,3.23E2,1.4E2,1.79E2,1.37E2,5E0,6.1E1,6.9E1,1.2E1,1.61E2,1.62E2,9.1E1,4.9E1,7.1E1,1.08E2,1.01E2,3.6E1,3E0,2E0,1.7E1,4.4E1,5.1E1,1.8E1,1E0,1.1E1],"tree_param":{"num_deleted":"0","num_feature":"75","num_nodes":"31","size_leaf_vector":"1"}},{"base_weights":[1.1339608E3,-1.5496151E4,8.481027E4,-2.79622E4,1.921958E4,6.9864234E4,1.5063986E5,-1.4591368E4,-4.4259637E4,1.4285585E4,8.657025E4,4.960032E4,1.0534912E5,1.636465E5,-6.1488855E2,-1.6685826E3,-2.3422972E2,-3.2414434E3,-1.8170146E3,1.1692377E3,-3.5425592E2,1.3375985E3,4.7155317E3,2.7939062E2,2.8790125E3,3.121048E3,6.018433E3,4.871867E3,1.0285204E4],"categories":[],"categories_nodes":[],"categories_segments":[],"categories_sizes":[],"default_left":[0,0,0,0,0,0,0,0,0,0,0,0,0,0,0,0,0,0,0,0,0,0,0,0,0,0,0,0,0],"id":7,"left_children":[1,3,5,7,9,11,13,15,17,19,21,23,25,27,-1,-1,-1,-1,-1,-1,-1,-1,-1,-1,-1,-1,-1,-1,-1],"loss_changes":[1.3093679E12,3.402603E11,1.4296272E11,1.2530634E11,6.7883336E10,8.753368E10,6.1352116E10,5.919426E10,3.999675E10,3.808453E10,3.9592346E9,2.9180445E10,2.2145466E10,5.2356317E10,0E0,0E0,0E0,0E0,0E0,0E0,0E0,0E0,0E0,0E0,0E0,0E0,0E0,0E0,0E0],"parents":[2147483647,0,0,1,1,2,2,3,3,4,4,5,5,6,6,7,7,8,8,9,9,10,10,11,11,12,12,13,13],"right_children":[2,4,6,8,10,12,14,16,18,20,22,24,26,28,-1,-1,-1,-1,-1,-1,-1,-1,-1,-1,-1,-1,-1,-1,-1],"split_conditions":[8E0,7E0,1E1,4E0,1.74E4,1.686E3,1.2E2,2E0,5E0,7E1,7.92E2,9.69E2,1.1184E4,1.465E3,-6.1488855E2,-1.6685826E3,-2.3422972E2,-3.2414434E3,-1.8170146E3,1.1692377E3,-3.5425592E2,1.3375985E3,4.7155317E3,2.7939062E2,2.8790125E3,3.121048E3,6.018433E3,4.871867E3,1.0285204E4],"split_indices":[15,15,52,56,3,41,2,59,15,0,36,36,3,41,0,0,0,0,0,0,0,0,0,0,0,0,0,0,0],"split_type":[0,0,0,0,0,0,0,0,0,0,0,0,0,0,0,0,0,0,0,0,0,0,0,0,0,0,0,0,0],"sum_hessian":[9.39E2,7.84E2,1.55E2,5.77E2,2.07E2,1.28E2,2.7E1,3.18E2,2.59E2,1.94E2,1.3E1,8.3E1,4.5E1,2.5E1,2E0,1.09E2,2.09E2,7E1,1.89E2,1.36E2,5.8E1,2E0,1.1E1,1.3E1,7E1,1.3E1,3.2E1,1.1E1,1.4E1],"tree_param":{"num_deleted":"0","num_feature":"75","num_nodes":"29","size_leaf_vector":"1"}},{"base_weights":[1.8611858E3,-1.436525E4,8.350811E4,-3.240489E4,7.7473335E3,6.1341207E4,1.4115936E5,-4.555284E4,-2.0945332E4,-2.351359E4,1.6831709E4,4.92417E4,1.06546164E5,2.5722203E4,1.5606378E5,-2.7515537E3,-1.8046315E3,-6.0807367E2,-1.7490543E3,-1.7655604E3,-3.4302646E2,3.8172958E2,2.1072742E3,1.7901553E3,4.4881304E3,2.1726655E3,6.082894E3,2.3749595E3,-5.943922E2,6.510988E3,1.3394398E4],"categories":[],"categories_nodes":[],"categories_segments":[],"categories_sizes":[],"default_left":[0,0,0,0,0,0,0,0,0,0,0,0,0,0,0,0,0,0,0,0,0,0,0,0,0,0,0,0,0,0,0],"id":8,"left_children":[1,3,5,7,9,11,13,15,17,19,21,23,25,27,29,-1,-1,-1,-1,-1,-1,-1,-1,-1,-1,-1,-1,-1,-1,-1,-1],"loss_changes":[1.23065E12,3.0940096E11,1.8814527E11,6.3381864E10,9.9506864E10,5.6559698E10,6.8247683E10,1.5767667E10,2.7930829E10,1.5278596E10,6.2770766E10,4.6339736E10,1.664272E10,5.478864E9,7.204523E10,0E0,0E0,0E0,0E0,0E0,0E0,0E0,0E0,0E0,0E0,0E0,0E0,0E0,0E0,0E0,0E0],"parents":[2147483647,0,0,1,1,2,2,3,3,4,4,5,5,6,6,7,7,8,8,9,9,10,10,11,11,12,12,13,13,14,14],"right_children":[2,4,6,8,10,12,14,16,18,20,22,24,26,28,30,-1,-1,-1,-1,-1,-1,-1,-1,-1,-1,-1,-1,-1,-1,-1,-1],"split_conditions":[8E0,1.464E3,9E0,2E0,6E0,1.186E3,8E0,3.34E2,4E0,2.97E2,1.98E3,2.372E3,1.647E3,1.24E2,2.81E3,-2.7515537E3,-1.8046315E3,-6.0807367E2,-1.7490543E3,-1.7655604E3,-3.4302646E2,3.8172958E2,2.1072742E3,1.7901553E3,4.4881304E3,2.1726655E3,6.082894E3,2.3749595E3,-5.943922E2,6.510988E3,1.3394398E4],"split_indices":[15,44,15,59,15,32,10,32,56,32,44,44,44,2,44,0,0,0,0,0,0,0,0,0,0,0,0,0,0,0,0],"split_type":[0,0,0,0,0,0,0,0,0,0,0,0,0,0,0,0,0,0,0,0,0,0,0,0,0,0,0,0,0,0,0],"sum_hessian":[9.27E2,7.74E2,1.53E2,4.26E2,3.48E2,1.12E2,4.1E1,1.97E2,2.29E2,7.8E1,2.7E2,9E1,2.2E1,5E0,3.6E1,9.6E1,1.01E2,1.42E2,8.7E1,4.5E1,3.3E1,1.99E2,7.1E1,6.9E1,2.1E1,5E0,1.7E1,3E0,2E0,3.1E1,5E0],"tree_param":{"num_deleted":"0","num_feature":"75","num_nodes":"31","size_leaf_vector":"1"}},{"base_weights":[-6.2439746E2,-1.5358554E4,8.280298E4,-3.300461E4,5.238386E3,4.7966816E4,1.16456234E5,-4.411897E4,-1.5805831E4,-7.8032744E3,2.267729E4,2.7921635E4,7.703739E4,1.0528789E5,1.3720601E4,-3.0297886E3,-1.8935096E3,-1.1756196E3,1.1674778E2,1.1043527E3,-7.3951953E2,9.2435956E2,3.5708923E3,-4.8730313E2,1.7758317E3,3.238036E3,6.027898E3,3.4020688E3,6.5142163E3],"categories":[],"categories_nodes":[],"categories_segments":[],"categories_sizes":[],"default_left":[0,0,0,0,0,0,0,0,0,0,0,0,0,0,0,0,0,0,0,0,0,0,0,0,0,0,0,0,0],"id":9,"left_children":[1,3,5,7,9,11,13,15,17,19,21,23,25,27,-1,-1,-1,-1,-1,-1,-1,-1,-1,-1,-1,-1,-1,-1,-1],"loss_changes":[1.1383113E12,2.8621177E11,1.5737068E11,8.035169E10,8.296229E10,3.863973E10,9.4595056E10,2.4165941E10,2.3541817E10,4.3975737E10,3.0539194E10,1.2647846E10,7.152648E9,5.351434E10,0E0,0E0,0E0,0E0,0E0,0E0,0E0,0E0,0E0,0E0,0E0,0E0,0E0,0E0,0E0],"parents":[2147483647,0,0,1,1,2,2,3,3,4,4,5,5,6,6,7,7,8,8,9,9,10,10,11,11,12,12,13,13],"right_children":[2,4,6,8,10,12,14,16,18,20,22,24,26,28,-1,-1,-1,-1,-1,-1,-1,-1,-1,-1,-1,-1,-1,-1,-1],"split_conditions":[8E0,1.422E3,1.912E3,9.99E2,7E0,9.43E2,1.589E3,5E0,1.99E3,7E0,1.74E4,9.69E2,2.007E3,1.456E3,1.3720601E4,-3.0297886E3,-1.8935096E3,-1.1756196E3,1.1674778E2,1.1043527E3,-7.3951953E2,9.2435956E2,3.5708923E3,-4.8730313E2,1.7758317E3,3.238036E3,6.027898E3,3.4020688E3,6.5142163E3],"split_indices":[15,44,44,36,15,32,42,15,57,10,3,36,17,41,0,0,0,0,0,0,0,0,0,0,0,0,0,0,0],"split_type":[0,0,0,0,0,0,0,0,0,0,0,0,0,0,0,0,0,0,0,0,0,0,0,0,0,0,0,0,0],"sum_hessian":[9.24E2,7.86E2,1.38E2,4.23E2,3.63E2,6.9E1,6.9E1,2.56E2,1.67E2,2.08E2,1.55E2,4.2E1,2.7E1,6.6E1,3E0,6.8E1,1.88E2,1.17E2,5E1,3.9E1,1.69E2,1.44E2,1.1E1,7E0,3.5E1,2.3E1,4E0,2.8E1,3.8E1],"tree_param":{"num_deleted":"0","num_feature":"75","num_nodes":"29","size_leaf_vector":"1"}},{"base_weights":[-1.601531E2,-1.4747615E4,7.6449234E4,-3.0791836E4,7.279384E3,5.4620062E4,1.3180067E5,-4.129397E4,-1.6103435E4,-6.9110205E3,2.3606264E4,3.828332E4,8.225227E4,1.9587629E4,1.430971E5,-3.2124265E3,-1.8300345E3,-1.0748951E3,1.0580509E2,-6.1228955E2,9.562661E2,1.5155616E3,-4.7756088E2,9.473693E2,2.55916E3,4.404818E3,-9.595091E2,2.4240222E3,-7.917198E2,5.9762393E3,1.2444766E4],"categories":[],"categories_nodes":[],"categories_segments":[],"categories_sizes":[],"default_left":[0,0,0,0,0,0,0,0,0,0,0,0,0,0,0,0,0,0,0,0,0,0,0,0,0,0,0,0,0,0,0],"id":10,"left_children":[1,3,5,7,9,11,13,15,17,19,21,23,25,27,29,-1,-1,-1,-1,-1,-1,-1,-1,-1,-1,-1,-1,-1,-1,-1,-1],"loss_changes":[1.05496445E12,2.8047514E11,1.7525074E11,7.014017E10,7.777763E10,4.6507327E10,5.043657E10,2.6412941E10,1.9014435E10,2.5235829E10,3.497141E10,1.6739828E10,2.5404097E10,5.884868E9,6.501938E10,0E0,0E0,0E0,0E0,0E0,0E0,0E0,0E0,0E0,0E0,0E0,0E0,0E0,0E0,0E0,0E0],"parents":[2147483647,0,0,1,1,2,2,3,3,4,4,5,5,6,6,7,7,8,8,9,9,10,10,11,11,12,12,13,13,14,14],"right_children":[2,4,6,8,10,12,14,16,18,20,22,24,26,28,30,-1,-1,-1,-1,-1,-1,-1,-1,-1,-1,-1,-1,-1,-1,-1,-1],"split_conditions":[8E0,1.464E3,9E0,9.78E2,5.08E2,2.035E3,8E0,1E0,1.997E3,1.97E3,8E1,1.417E3,5.3E1,3E1,2.81E3,-3.2124265E3,-1.8300345E3,-1.0748951E3,1.0580509E2,-6.1228955E2,9.562661E2,1.5155616E3,-4.7756088E2,9.473693E2,2.55916E3,4.404818E3,-9.595091E2,2.4240222E3,-7.917198E2,5.9762393E3,1.2444766E4],"split_indices":[15,44,15,36,60,44,10,39,57,44,0,36,43,0,44,0,0,0,0,0,0,0,0,0,0,0,0,0,0,0,0],"split_type":[0,0,0,0,0,0,0,0,0,0,0,0,0,0,0,0,0,0,0,0,0,0,0,0,0,0,0,0,0,0,0],"sum_hessian":[9.42E2,7.92E2,1.5E2,4.58E2,3.34E2,1.09E2,4.1E1,2.66E2,1.92E2,1.79E2,1.55E2,7E1,3.9E1,4E0,3.7E1,4.3E1,2.23E2,1.48E2,4.4E1,1.49E2,3E1,1.29E2,2.6E1,2.9E1,4.1E1,3.7E1,2E0,2E0,2E0,3.2E1,5E0],"tree_param":{"num_deleted":"0","num_feature":"75","num_nodes":"31","size_leaf_vector":"1"}},{"base_weights":[-1.0911017E3,-1.3634552E4,6.786113E4,-3.345823E4,9.865318E2,1.0048555E5,4.3852676E4,-4.2096344E4,-2.1642186E4,-8.500544E3,3.0483156E4,7.613435E4,1.3797917E5,3.1398475E4,9.035732E4,-3.214799E3,-1.8918092E3,5.051518E1,-1.3508055E3,-1.4984415E3,-1.0383886E2,6.073529E2,2.3810027E3,1.3943022E3,4.215474E3,7.2626196E3,-3.6896524E2,-1.3138561E3,1.7738756E3,2.2110208E3,5.575144E3],"categories":[],"categories_nodes":[],"categories_segments":[],"categories_sizes":[],"default_left":[0,0,0,0,0,0,0,0,0,0,0,0,0,0,0,0,0,0,0,0,0,0,0,0,0,0,0,0,0,0,0],"id":11,"left_children":[1,3,5,7,9,11,13,15,17,19,21,23,25,27,29,-1,-1,-1,-1,-1,-1,-1,-1,-1,-1,-1,-1,-1,-1,-1,-1],"loss_changes":[7.923077E11,2.2466182E11,1.0603338E11,3.2669401E10,1.2534612E11,4.3362877E10,4.5234717E10,1.5441789E10,1.7191612E10,4.668832E10,3.3671954E10,1.2637503E10,2.4330797E10,1.6694735E10,1.1654332E10,0E0,0E0,0E0,0E0,0E0,0E0,0E0,0E0,0E0,0E0,0E0,0E0,0E0,0E0,0E0,0E0],"parents":[2147483647,0,0,1,1,2,2,3,3,4,4,5,5,6,6,7,7,8,8,9,9,10,10,11,11,12,12,13,13,14,14],"right_children":[2,4,6,8,10,12,14,16,18,20,22,24,26,28,30,-1,-1,-1,-1,-1,-1,-1,-1,-1,-1,-1,-1,-1,-1,-1,-1],"split_conditions":[8E0,6E0,1E0,1.052E3,1.829E3,2E3,2.447E3,8.16E2,2E0,3.84E2,1.026E3,1.563E3,2.1286E4,7.77E2,1.362E3,-3.214799E3,-1.8918092E3,5.051518E1,-1.3508055E3,-1.4984415E3,-1.0383886E2,6.073529E2,2.3810027E3,1.3943022E3,4.215474E3,7.2626196E3,-3.6896524E2,-1.3138561E3,1.7738756E3,2.2110208E3,5.575144E3],"split_indices":[15,15,28,41,44,44,44,44,30,60,36,36,3,36,41,0,0,0,0,0,0,0,0,0,0,0,0,0,0,0,0],"split_type":[0,0,0,0,0,0,0,0,0,0,0,0,0,0,0,0,0,0,0,0,0,0,0,0,0,0,0,0,0,0,0],"sum_hessian":[9.14E2,7.74E2,1.4E2,3.28E2,4.46E2,5.8E1,8.2E1,1.88E2,1.4E2,3.38E2,1.08E2,3.7E1,2.1E1,6.6E1,1.6E1,2.8E1,1.6E2,2.7E1,1.13E2,7.7E1,2.61E2,5.3E1,5.5E1,6E0,3.1E1,2E1,1E0,4E0,6.2E1,6E0,1E1],"tree_param":{"num_deleted":"0","num_feature":"75","num_nodes":"31","size_leaf_vector":"1"}},{"base_weights":[8.834688E2,-1.0286708E4,7.507169E4,-2.7457277E4,7.16295E3,5.7820305E4,1.5164302E5,-3.1923602E4,-3.9825684E3,1.4379098E4,-1.907698E4,6.760588E4,-1.4373701E4,1.2218018E5,1.2684039E4,-2.6872957E3,-1.4241287E3,-5.070222E2,1.8414117E3,7.8146416E1,1.2593011E3,-1.1481874E3,1.893472E3,2.8461714E3,5.6727266E3,7.181181E2,-2.052819E3,-3.5974103E2,6.4883696E3],"categories":[],"categories_nodes":[],"categories_segments":[],"categories_sizes":[],"default_left":[0,0,0,0,0,0,0,0,0,0,0,0,0,0,0,0,0,0,0,0,0,0,0,0,0,0,0,0,0],"id":12,"left_children":[1,3,5,7,9,11,13,15,17,19,21,23,25,27,-1,-1,-1,-1,-1,-1,-1,-1,-1,-1,-1,-1,-1,-1,-1],"loss_changes":[7.789173E11,2.4498664E11,1.5371023E11,4.3069276E10,7.71509E10,7.303063E10,3.5144335E10,2.4450728E10,1.7211079E10,4.4143202E10,2.0347316E10,3.762163E10,1.0557482E10,1.9583992E10,0E0,0E0,0E0,0E0,0E0,0E0,0E0,0E0,0E0,0E0,0E0,0E0,0E0,0E0,0E0],"parents":[2147483647,0,0,1,1,2,2,3,3,4,4,5,5,6,6,7,7,8,8,9,9,10,10,11,11,12,12,13,13],"right_children":[2,4,6,8,10,12,14,16,18,20,22,24,26,28,-1,-1,-1,-1,-1,-1,-1,-1,-1,-1,-1,-1,-1,-1,-1],"split_conditions":[3E0,2E0,1.33E3,1.238E3,4E0,3E0,1.589E3,2.05E2,1.975E3,4.99E2,1.129E3,1E1,6E0,1E0,1.2684039E4,-2.6872957E3,-1.4241287E3,-5.070222E2,1.8414117E3,7.8146416E1,1.2593011E3,-1.1481874E3,1.893472E3,2.8461714E3,5.6727266E3,7.181181E2,-2.052819E3,-3.5974103E2,6.4883696E3],"split_indices":[59,47,32,41,56,51,42,60,17,60,42,52,31,6,0,0,0,0,0,0,0,0,0,0,0,0,0,0,0],"split_type":[0,0,0,0,0,0,0,0,0,0,0,0,0,0,0,0,0,0,0,0,0,0,0,0,0,0,0,0,0],"sum_hessian":[9.38E2,8.16E2,1.22E2,4.11E2,4.05E2,1.01E2,2.1E1,3.45E2,6.6E1,3.18E2,8.7E1,8.9E1,1.2E1,1.8E1,3E0,4.5E1,3E2,5.8E1,8E0,1.46E2,1.72E2,8.2E1,5E0,7.4E1,1.5E1,6E0,6E0,1E0,1.7E1],"tree_param":{"num_deleted":"0","num_feature":"75","num_nodes":"29","size_leaf_vector":"1"}},{"base_weights":[-1.3544309E3,-2.1749623E4,3.4025297E4,-3.1387322E4,-7.9373022E3,2.1060756E4,8.5383086E4,-5.2333027E4,-2.6987379E4,-1.2221846E4,2.5398367E4,1.1524599E4,6.0247434E4,7.670658E4,1.2390256E4,-2.6906187E3,8.367238E2,-1.4666053E3,6.516379E1,-1.2660819E3,-2.7480527E2,-9.1412463E2,1.784455E3,-3.4782922E2,8.571462E2,2.811224E2,3.29102E3,2.0550808E3,4.7397627E3],"categories":[],"categories_nodes":[],"categories_segments":[],"categories_sizes":[],"default_left":[0,0,0,0,0,0,0,0,0,0,0,0,0,0,0,0,0,0,0,0,0,0,0,0,0,0,0,0,0],"id":13,"left_children":[1,3,5,7,9,11,13,15,17,19,21,23,25,27,-1,-1,-1,-1,-1,-1,-1,-1,-1,-1,-1,-1,-1,-1,-1],"loss_changes":[6.689197E11,7.8024835E10,2.2391813E11,3.0475026E10,3.5017654E10,1.0094944E11,7.68211E10,6.9288264E9,1.9142377E10,1.8891684E10,1.3238706E10,2.296258E10,1.5764374E10,3.8610797E10,0E0,0E0,0E0,0E0,0E0,0E0,0E0,0E0,0E0,0E0,0E0,0E0,0E0,0E0,0E0],"parents":[2147483647,0,0,1,1,2,2,3,3,4,4,5,5,6,6,7,7,8,8,9,9,10,10,11,11,12,12,13,13],"right_children":[2,4,6,8,10,12,14,16,18,20,22,24,26,28,-1,-1,-1,-1,-1,-1,-1,-1,-1,-1,-1,-1,-1,-1,-1],"split_conditions":[7E0,1E0,1.686E3,1E0,1.987E3,2.094E3,1.589E3,2.48E2,7.56E2,3.75E2,6.1E1,1.993E3,1.007E3,1.1839E4,1.2390256E4,-2.6906187E3,8.367238E2,-1.4666053E3,6.516379E1,-1.2660819E3,-2.7480527E2,-9.1412463E2,1.784455E3,-3.4782922E2,8.571462E2,2.811224E2,3.29102E3,2.0550808E3,4.7397627E3],"split_indices":[15,54,41,39,44,44,42,66,42,60,2,17,41,3,0,0,0,0,0,0,0,0,0,0,0,0,0,0,0],"split_type":[0,0,0,0,0,0,0,0,0,0,0,0,0,0,0,0,0,0,0,0,0,0,0,0,0,0,0,0,0],"sum_hessian":[9.25E2,5.87E2,3.38E2,3.45E2,2.42E2,2.71E2,6.7E1,5.8E1,2.87E2,2.15E2,2.7E1,2.19E2,5.2E1,6.5E1,2E0,5.7E1,1E0,2.65E2,2.2E1,7.2E1,1.43E2,5E0,2.2E1,5.1E1,1.68E2,5E0,4.7E1,2.3E1,4.2E1],"tree_param":{"num_deleted":"0","num_feature":"75","num_nodes":"29","size_leaf_vector":"1"}},{"base_weights":[7.1032446E2,-1.1092307E4,6.4114047E4,-2.6197643E4,6.1126436E3,4.5573996E4,1.1898324E5,-4.478607E4,-2.0309783E4,1.8229535E4,-7.4403784E3,3.4635453E4,7.637132E4,2.8049896E4,1.3623492E5,-3.0088982E3,-1.8774872E3,-1.2333688E3,-3.0835297E2,2.6608713E2,1.8802963E3,-9.24546E1,-1.60096E3,1.2657991E3,3.3441335E3,1.7636901E3,4.552332E3,2.1983037E3,-3.9135156E2,5.5256616E3,1.103514E4],"categories":[],"categories_nodes":[],"categories_segments":[],"categories_sizes":[],"default_left":[0,0,0,0,0,0,0,0,0,0,0,0,0,0,0,0,0,0,0,0,0,0,0,0,0,0,0,0,0,0,0],"id":14,"left_children":[1,3,5,7,9,11,13,15,17,19,21,23,25,27,29,-1,-1,-1,-1,-1,-1,-1,-1,-1,-1,-1,-1,-1,-1,-1,-1],"loss_changes":[6.914204E11,2.0261175E11,1.420827E11,4.4510544E10,6.0076114E10,3.4411414E10,5.265372E10,8.767029E9,1.9384025E10,4.807041E10,2.3715703E10,2.325056E10,1.3675774E10,4.34129E9,4.0789082E10,0E0,0E0,0E0,0E0,0E0,0E0,0E0,0E0,0E0,0E0,0E0,0E0,0E0,0E0,0E0,0E0],"parents":[2147483647,0,0,1,1,2,2,3,3,4,4,5,5,6,6,7,7,8,8,9,9,10,10,11,11,12,12,13,13,14,14],"right_children":[2,4,6,8,10,12,14,16,18,20,22,24,26,28,30,-1,-1,-1,-1,-1,-1,-1,-1,-1,-1,-1,-1,-1,-1,-1,-1],"split_conditions":[8E0,1.414E3,9E0,1.948E3,3E0,1.11E3,3E0,1.8E2,1.986E3,1.824E3,2E0,2.447E3,1.647E3,1.09E2,2.728E3,-3.0088982E3,-1.8774872E3,-1.2333688E3,-3.0835297E2,2.6608713E2,1.8802963E3,-9.24546E1,-1.60096E3,1.2657991E3,3.3441335E3,1.7636901E3,4.552332E3,2.1983037E3,-3.9135156E2,5.5256616E3,1.103514E4],"split_indices":[15,44,15,17,51,32,59,60,17,44,50,44,44,2,44,0,0,0,0,0,0,0,0,0,0,0,0,0,0,0,0],"split_type":[0,0,0,0,0,0,0,0,0,0,0,0,0,0,0,0,0,0,0,0,0,0,0,0,0,0,0,0,0,0,0],"sum_hessian":[9.22E2,7.78E2,1.44E2,4.14E2,3.64E2,1.09E2,3.5E1,9.8E1,3.16E2,1.92E2,1.72E2,8.2E1,2.7E1,6E0,2.9E1,2.9E1,6.9E1,2.41E2,7.5E1,1.16E2,7.6E1,1.41E2,3.1E1,6.5E1,1.7E1,8E0,1.9E1,4E0,2E0,2.4E1,5E0],"tree_param":{"num_deleted":"0","num_feature":"75","num_nodes":"31","size_leaf_vector":"1"}},{"base_weights":[1.2934441E3,-1.0354142E4,6.1285324E4,-2.722107E4,1.5485522E3,4.4894855E4,1.1684946E5,-3.4253617E4,-1.4315697E4,-7.821867E3,2.1553744E4,7.156236E4,2.6492977E4,5.901865E4,1.4571088E5,-2.331403E3,-1.3977552E3,-3.164743E1,-9.540695E2,-8.8828577E2,1.2466066E2,-7.986283E1,1.5729501E3,4.283603E3,2.0396698E3,-2.0743582E2,1.8019739E3,5.0102554E2,3.3508223E3,7.9996626E3,9.623646E1],"categories":[],"categories_nodes":[],"categories_segments":[],"categories_sizes":[],"default_left":[0,0,0,0,0,0,0,0,0,0,0,0,0,0,0,0,0,0,0,0,0,0,0,0,0,0,0,0,0,0,0],"id":15,"left_children":[1,3,5,7,9,11,13,15,17,19,21,23,25,27,29,-1,-1,-1,-1,-1,-1,-1,-1,-1,-1,-1,-1,-1,-1,-1,-1],"loss_changes":[6.5327694E11,1.5723872E11,1.331839E11,2.8915122E10,8.639884E10,5.6501223E10,4.8149037E10,1.4986084E10,7.5520246E9,3.225177E10,3.375978E10,1.734389E10,2.1211021E10,4.422861E9,4.4871418E10,0E0,0E0,0E0,0E0,0E0,0E0,0E0,0E0,0E0,0E0,0E0,0E0,0E0,0E0,0E0,0E0],"parents":[2147483647,0,0,1,1,2,2,3,3,4,4,5,5,6,6,7,7,8,8,9,9,10,10,11,11,12,12,13,13,14,14],"right_children":[2,4,6,8,10,12,14,16,18,20,22,24,26,28,30,-1,-1,-1,-1,-1,-1,-1,-1,-1,-1,-1,-1,-1,-1,-1,-1],"split_conditions":[8E0,6E0,2.392E3,1.01E3,1.72E3,1E0,1.456E3,5E0,3E0,1.981E3,1.982E3,6.78E2,7.795E3,1.3E1,3E0,-2.331403E3,-1.3977552E3,-3.164743E1,-9.540695E2,-8.8828577E2,1.2466066E2,-7.986283E1,1.5729501E3,4.283603E3,2.0396698E3,-2.0743582E2,1.8019739E3,5.0102554E2,3.3508223E3,7.9996626E3,9.623646E1],"split_indices":[15,15,44,36,44,28,41,15,30,17,18,35,3,10,11,0,0,0,0,0,0,0,0,0,0,0,0,0,0,0,0],"split_type":[0,0,0,0,0,0,0,0,0,0,0,0,0,0,0,0,0,0,0,0,0,0,0,0,0,0,0,0,0,0,0],"sum_hessian":[9.33E2,7.82E2,1.51E2,3.23E2,4.59E2,1.18E2,3.3E1,2.08E2,1.15E2,3.13E2,1.46E2,4.7E1,7.1E1,1.2E1,2.1E1,6.8E1,1.4E2,3E1,8.5E1,1.59E2,1.54E2,4.4E1,1.02E2,3.1E1,1.6E1,1.7E1,5.4E1,2E0,1E1,1.9E1,2E0],"tree_param":{"num_deleted":"0","num_feature":"75","num_nodes":"31","size_leaf_vector":"1"}},{"base_weights":[3.6612985E2,-1.863057E4,3.2136361E4,-3.0958338E4,-8.421809E3,2.0915342E4,7.925377E4,-4.5209797E4,-2.3572781E4,-1.7603553E4,3.4627527E3,1.1568749E4,5.8095125E4,4.816333E4,1.0089507E5,-2.3842188E3,-7.251738E2,-1.0187861E3,-1.688677E3,-1.5390784E3,-4.7227203E2,1.2746178E3,-3.3690342E1,2.8753354E2,1.7685756E3,1.7887284E3,3.8821367E3,2.7045876E3,-1.2061367E2,3.3174988E3,6.7796206E3],"categories":[],"categories_nodes":[],"categories_segments":[],"categories_sizes":[],"default_left":[0,0,0,0,0,0,0,0,0,0,0,0,0,0,0,0,0,0,0,0,0,0,0,0,0,0,0,0,0,0,0],"id":16,"left_children":[1,3,5,7,9,11,13,15,17,19,21,23,25,27,29,-1,-1,-1,-1,-1,-1,-1,-1,-1,-1,-1,-1,-1,-1,-1,-1],"loss_changes":[5.5644946E11,7.235545E10,1.8074576E11,2.640583E10,3.465231E10,9.66291E10,3.954783E10,5.995102E9,4.9863967E9,1.8953126E10,1.2683796E10,3.0956018E10,2.1655929E10,8.825659E9,3.655113E10,0E0,0E0,0E0,0E0,0E0,0E0,0E0,0E0,0E0,0E0,0E0,0E0,0E0,0E0,0E0,0E0],"parents":[2147483647,0,0,1,1,2,2,3,3,4,4,5,5,6,6,7,7,8,8,9,9,10,10,11,11,12,12,13,13,14,14],"right_children":[2,4,6,8,10,12,14,16,18,20,22,24,26,28,30,-1,-1,-1,-1,-1,-1,-1,-1,-1,-1,-1,-1,-1,-1,-1,-1],"split_conditions":[7E0,1.224E3,2.217E3,7.99E2,4.28E2,9.29E2,3E0,7E0,5.99E2,1.966E3,7E0,6.66E2,1.632E3,1.2E1,1.465E3,-2.3842188E3,-7.251738E2,-1.0187861E3,-1.688677E3,-1.5390784E3,-4.7227203E2,1.2746178E3,-3.3690342E1,2.8753354E2,1.7685756E3,1.7887284E3,3.8821367E3,2.7045876E3,-1.2061367E2,3.3174988E3,6.7796206E3],"split_indices":[15,44,44,36,32,32,59,14,35,18,10,60,41,52,41,0,0,0,0,0,0,0,0,0,0,0,0,0,0,0,0],"split_type":[0,0,0,0,0,0,0,0,0,0,0,0,0,0,0,0,0,0,0,0,0,0,0,0,0,0,0,0,0,0,0],"sum_hessian":[9.2E2,5.76E2,3.44E2,2.6E2,3.16E2,2.79E2,6.5E1,8.7E1,1.73E2,1.78E2,1.38E2,2.24E2,5.5E1,2.8E1,3.7E1,8E1,7E0,1.34E2,3.9E1,6.7E1,1.11E2,2.1E1,1.17E2,1.81E2,4.3E1,2.7E1,2.8E1,2.5E1,3E0,2E1,1.7E1],"tree_param":{"num_deleted":"0","num_feature":"75","num_nodes":"31","size_leaf_vector":"1"}},{"base_weights":[1.1754088E1,-1.8292807E4,3.0203725E4,-2.450408E4,-2.2073403E3,1.9748516E4,7.542027E4,-3.256662E4,-1.5103106E4,1.8028465E4,-7.5652314E3,1.0395415E4,5.2393594E4,6.5060934E4,1.0856748E4,-2.2826782E3,-1.3774772E3,-5.158795E2,-1.4672201E3,3.8099533E2,1.8237914E3,-5.881715E2,7.1928766E2,7.135346E2,-7.943658E2,2.9261658E3,-2.5023091E2,-1.3493265E3,3.4289478E3],"categories":[],"categories_nodes":[],"categories_segments":[],"categories_sizes":[],"default_left":[0,0,0,0,0,0,0,0,0,0,0,0,0,0,0,0,0,0,0,0,0,0,0,0,0,0,0,0,0],"id":17,"left_children":[1,3,5,7,9,11,13,15,17,19,21,23,25,27,-1,-1,-1,-1,-1,-1,-1,-1,-1,-1,-1,-1,-1,-1,-1],"loss_changes":[5.0954384E11,5.7294963E10,1.6302703E11,3.0887576E10,1.759221E10,8.616984E10,8.129757E10,1.3318357E10,1.2850561E10,6.250414E9,1.1965014E10,2.2838057E10,2.2458466E10,2.1927887E10,0E0,0E0,0E0,0E0,0E0,0E0,0E0,0E0,0E0,0E0,0E0,0E0,0E0,0E0,0E0],"parents":[2147483647,0,0,1,1,2,2,3,3,4,4,5,5,6,6,7,7,8,8,9,9,10,10,11,11,12,12,13,13],"right_children":[2,4,6,8,10,12,14,16,18,20,22,24,26,28,-1,-1,-1,-1,-1,-1,-1,-1,-1,-1,-1,-1,-1,-1,-1],"split_conditions":[7E0,1.0708E4,1.686E3,1.974E3,7E0,2.094E3,1.589E3,7.25E2,4E0,1.208E3,1.924E3,4E0,1.9E1,1E0,1.0856748E4,-2.2826782E3,-1.3774772E3,-5.158795E2,-1.4672201E3,3.8099533E2,1.8237914E3,-5.881715E2,7.1928766E2,7.135346E2,-7.943658E2,2.9261658E3,-2.5023091E2,-1.3493265E3,3.4289478E3],"split_indices":[15,3,41,18,10,44,42,36,1,36,44,56,66,6,0,0,0,0,0,0,0,0,0,0,0,0,0,0,0],"split_type":[0,0,0,0,0,0,0,0,0,0,0,0,0,0,0,0,0,0,0,0,0,0,0,0,0,0,0,0,0],"sum_hessian":[9.2E2,5.73E2,3.47E2,4.13E2,1.6E2,2.83E2,6.4E1,2.21E2,1.92E2,3.3E1,1.27E2,2.21E2,6.2E1,6.1E1,3E0,5.9E1,1.62E2,1.45E2,4.7E1,2.2E1,1.1E1,1.07E2,2E1,1.93E2,2.8E1,5.6E1,6E0,2E0,5.9E1],"tree_param":{"num_deleted":"0","num_feature":"75","num_nodes":"29","size_leaf_vector":"1"}},{"base_weights":[2.5420058E2,-9.419567E3,5.3291383E4,-2.0655787E4,7.2365815E3,4.853015E4,1.044962E4,-3.283272E4,-1.4007881E4,1.6829642E3,3.2390348E4,7.123827E4,3.1529938E4,-2.3469138E3,-1.3935144E3,-1.1102964E3,-3.1173315E2,-7.043415E2,5.463509E2,2.234983E3,7.177036E2,3.7558625E3,-9.233848E1,1.1161066E3,3.2982415E3],"categories":[],"categories_nodes":[],"categories_segments":[],"categories_sizes":[],"default_left":[0,0,0,0,0,0,0,0,0,0,0,0,0,0,0,0,0,0,0,0,0,0,0,0,0],"id":18,"left_children":[1,3,5,7,9,11,-1,13,15,17,19,21,23,-1,-1,-1,-1,-1,-1,-1,-1,-1,-1,-1,-1],"loss_changes":[4.8227418E11,1.4893543E11,9.735029E10,3.799186E10,4.478739E10,5.257193E10,0E0,1.0381459E10,1.9552637E10,3.8639006E10,1.2235194E10,1.7148445E10,2.484432E10,0E0,0E0,0E0,0E0,0E0,0E0,0E0,0E0,0E0,0E0,0E0,0E0],"parents":[2147483647,0,0,1,1,2,2,3,3,4,4,5,5,7,7,8,8,9,9,10,10,11,11,12,12],"right_children":[2,4,6,8,10,12,-1,14,16,18,20,22,24,-1,-1,-1,-1,-1,-1,-1,-1,-1,-1,-1,-1],"split_conditions":[8E0,1.484E3,1.589E3,1.956E3,1.386E4,1E0,1.044962E4,1E0,1.146E3,1.968E3,3E0,1.15E2,2.447E3,-2.3469138E3,-1.3935144E3,-1.1102964E3,-3.1173315E2,-7.043415E2,5.463509E2,2.234983E3,7.177036E2,3.7558625E3,-9.233848E1,1.1161066E3,3.2982415E3],"split_indices":[15,44,42,17,3,28,0,39,44,17,51,2,44,0,0,0,0,0,0,0,0,0,0,0,0],"split_type":[0,0,0,0,0,0,0,0,0,0,0,0,0,0,0,0,0,0,0,0,0,0,0,0,0],"sum_hessian":[9.38E2,7.94E2,1.44E2,4.74E2,3.2E2,1.41E2,3E0,1.66E2,3.08E2,2.63E2,5.7E1,5.9E1,8.2E1,4.1E1,1.25E2,1.49E2,1.59E2,9.7E1,1.66E2,3.3E1,2.4E1,5.6E1,3E0,6.6E1,1.6E1],"tree_param":{"num_deleted":"0","num_feature":"75","num_nodes":"25","size_leaf_vector":"1"}},{"base_weights":[6.3638293E2,-7.7062466E3,5.529917E4,-2.0663707E4,6.168029E3,4.451911E4,1.3604972E5,-3.5724582E4,-1.460047E4,1.6072586E4,-7.5789375E3,3.4738066E4,9.98116E4,3.085391E4,1.619346E5,-2.1336355E3,-1.2641357E3,-1.0597382E3,-2.9324274E2,4.2419467E2,1.7427711E3,-9.4445703E2,1.7087772E2,2.1164678E3,-2.6947516E2,1.592786E3,5.6521646E3,2.644244E3,-8.8097504E2,8.573296E3,1.6655336E3],"categories":[],"categories_nodes":[],"categories_segments":[],"categories_sizes":[],"default_left":[0,0,0,0,0,0,0,0,0,0,0,0,0,0,0,0,0,0,0,0,0,0,0,0,0,0,0,0,0,0,0],"id":19,"left_children":[1,3,5,7,9,11,13,15,17,19,21,23,25,27,29,-1,-1,-1,-1,-1,-1,-1,-1,-1,-1,-1,-1,-1,-1,-1,-1],"loss_changes":[4.2362326E11,1.4502638E11,1.0101421E11,3.755788E10,5.3223285E10,5.6022745E10,3.3125417E10,7.554728E9,1.7099645E10,3.206022E10,2.0461652E10,2.9167034E10,1.0785669E10,5.20347E9,7.7738803E9,0E0,0E0,0E0,0E0,0E0,0E0,0E0,0E0,0E0,0E0,0E0,0E0,0E0,0E0,0E0,0E0],"parents":[2147483647,0,0,1,1,2,2,3,3,4,4,5,5,6,6,7,7,8,8,9,9,10,10,11,11,12,12,13,13,14,14],"right_children":[2,4,6,8,10,12,14,16,18,20,22,24,26,28,30,-1,-1,-1,-1,-1,-1,-1,-1,-1,-1,-1,-1,-1,-1,-1,-1],"split_conditions":[3E0,1.414E3,2.696E3,1.951E3,3E0,1.926E3,6E0,1.113E3,1.165E3,6.95E2,2.62E2,7E1,4.6E1,8.8E1,3E0,-2.1336355E3,-1.2641357E3,-1.0597382E3,-2.9324274E2,4.2419467E2,1.7427711E3,-9.4445703E2,1.7087772E2,2.1164678E3,-2.6947516E2,1.592786E3,5.6521646E3,2.644244E3,-8.8097504E2,8.573296E3,1.6655336E3],"split_indices":[59,44,44,17,51,36,22,44,44,32,32,0,65,2,25,0,0,0,0,0,0,0,0,0,0,0,0,0,0,0,0],"split_type":[0,0,0,0,0,0,0,0,0,0,0,0,0,0,0,0,0,0,0,0,0,0,0,0,0,0,0,0,0,0,0],"sum_hessian":[9.27E2,8.05E2,1.22E2,4.16E2,3.89E2,1.09E2,1.3E1,1.18E2,2.98E2,2.26E2,1.63E2,9.4E1,1.5E1,3E0,1E1,6.9E1,4.9E1,1.69E2,1.29E2,1.62E2,6.4E1,8E1,8.3E1,7.9E1,1.5E1,3E0,1.2E1,2E0,1E0,9E0,1E0],"tree_param":{"num_deleted":"0","num_feature":"75","num_nodes":"31","size_leaf_vector":"1"}},{"base_weights":[4.433827E2,-8.790384E3,4.923876E4,-2.0771828E4,3.7344746E3,3.673787E4,1.0284132E5,-3.2114578E4,-1.4595944E4,7.373518E3,-2.7510373E4,1.5289261E4,5.3613008E4,4.8556664E4,1.351104E5,-2.2924897E3,-1.3261505E3,-2.1366562E3,-6.251657E2,1.4137726E2,1.7029547E3,-1.551716E3,6.4223456E2,-1.6655739E3,9.8341925E2,1.9203108E3,4.3271265E3,5.7526605E2,2.5439517E3,-8.589508E2,7.2851094E3],"categories":[],"categories_nodes":[],"categories_segments":[],"categories_sizes":[],"default_left":[0,0,0,0,0,0,0,0,0,0,0,0,0,0,0,0,0,0,0,0,0,0,0,0,0,0,0,0,0,0,0],"id":20,"left_children":[1,3,5,7,9,11,13,15,17,19,21,23,25,27,29,-1,-1,-1,-1,-1,-1,-1,-1,-1,-1,-1,-1,-1,-1,-1,-1],"loss_changes":[4.275686E11,1.1983017E11,9.740386E10,2.8112257E10,4.466008E10,4.4061884E10,4.248758E10,9.766519E9,1.5127966E10,4.248418E10,6.2291907E9,1.2573586E10,3.1228133E10,4.471808E8,2.9924295E10,0E0,0E0,0E0,0E0,0E0,0E0,0E0,0E0,0E0,0E0,0E0,0E0,0E0,0E0,0E0,0E0],"parents":[2147483647,0,0,1,1,2,2,3,3,4,4,5,5,6,6,7,7,8,8,9,9,10,10,11,11,12,12,13,13,14,14],"right_children":[2,4,6,8,10,12,14,16,18,20,22,24,26,28,30,-1,-1,-1,-1,-1,-1,-1,-1,-1,-1,-1,-1,-1,-1,-1,-1],"split_conditions":[8E0,2E0,1E1,8.94E2,2E0,1E0,1.465E3,6.44E2,5E0,9.18E2,1.129E3,7.12E2,5E0,1E0,1E0,-2.2924897E3,-1.3261505E3,-2.1366562E3,-6.251657E2,1.4137726E2,1.7029547E3,-1.551716E3,6.4223456E2,-1.6655739E3,9.8341925E2,1.9203108E3,4.3271265E3,5.7526605E2,2.5439517E3,-8.589508E2,7.2851094E3],"split_indices":[15,47,52,41,50,45,41,36,16,42,42,36,74,8,6,0,0,0,0,0,0,0,0,0,0,0,0,0,0,0,0],"split_type":[0,0,0,0,0,0,0,0,0,0,0,0,0,0,0,0,0,0,0,0,0,0,0,0,0,0,0,0,0,0,0],"sum_hessian":[9.47E2,7.97E2,1.5E2,4.07E2,3.9E2,1.23E2,2.7E1,1.42E2,2.65E2,3.5E2,4E1,5.5E1,6.8E1,1.1E1,1.6E1,3.9E1,1.03E2,1.7E1,2.48E2,3E2,5E1,3.7E1,3E0,4E0,5.1E1,4.8E1,2E1,1E0,1E1,1E0,1.5E1],"tree_param":{"num_deleted":"0","num_feature":"75","num_nodes":"31","size_leaf_vector":"1"}},{"base_weights":[3.4472943E2,2.2384457E4,-1.3962365E4,8.834202E3,5.3124113E4,-2.19964E4,-3.5168953E3,2.8588696E3,3.6310543E4,4.1945383E4,1.0622176E5,-2.4728797E4,-1.5349447E3,-5.72328E3,4.053614E4,-7.6009076E2,4.393278E2,6.751008E2,2.2443286E3,1.3193257E3,3.089699E3,-1.2870023E3,6.16304E3,-2.032099E3,-1.0938303E3,-2.3059883E2,1.0155635E3,7.6408417E2,-4.7100522E2,7.851113E2,2.3534712E3],"categories":[],"categories_nodes":[],"categories_segments":[],"categories_sizes":[],"default_left":[0,0,0,0,0,0,0,0,0,0,0,0,0,0,0,0,0,0,0,0,0,0,0,0,0,0,0,0,0,0,0],"id":21,"left_children":[1,3,5,7,9,11,13,15,17,19,21,23,25,27,29,-1,-1,-1,-1,-1,-1,-1,-1,-1,-1,-1,-1,-1,-1,-1,-1],"loss_changes":[2.9640222E11,1.5364683E11,4.7756624E10,4.2254705E10,6.2617256E10,1.796468E10,2.4434287E10,2.293694E10,8.391844E9,2.7707523E10,4.5894304E10,1.200092E10,2.7153137E9,1.8625053E10,1.2078674E9,0E0,0E0,0E0,0E0,0E0,0E0,0E0,0E0,0E0,0E0,0E0,0E0,0E0,0E0,0E0,0E0],"parents":[2147483647,0,0,1,1,2,2,3,3,4,4,5,5,6,6,7,7,8,8,9,9,10,10,11,11,12,12,13,13,14,14],"right_children":[2,4,6,8,10,12,14,16,18,20,22,24,26,28,30,-1,-1,-1,-1,-1,-1,-1,-1,-1,-1,-1,-1,-1,-1,-1,-1],"split_conditions":[3E0,6.66E2,9.638E3,8.36E2,1E1,1.986E3,1.112E3,6.24E3,7.314E3,7.46E2,1E0,1E0,7.97E2,7E0,9E0,-7.6009076E2,4.393278E2,6.751008E2,2.2443286E3,1.3193257E3,3.089699E3,-1.2870023E3,6.16304E3,-2.032099E3,-1.0938303E3,-2.3059883E2,1.0155635E3,7.6408417E2,-4.7100522E2,7.851113E2,2.3534712E3],"split_indices":[25,60,3,32,52,17,42,3,3,32,6,39,42,10,52,0,0,0,0,0,0,0,0,0,0,0,0,0,0,0,0],"split_type":[0,0,0,0,0,0,0,0,0,0,0,0,0,0,0,0,0,0,0,0,0,0,0,0,0,0,0,0,0,0,0],"sum_hessian":[9.38E2,3.69E2,5.69E2,2.57E2,1.12E2,3.21E2,2.48E2,2.12E2,4.5E1,9.4E1,1.8E1,2.83E2,3.8E1,2.37E2,1.1E1,5.2E1,1.6E2,1.3E1,3.2E1,5.4E1,4E1,2E0,1.6E1,4.1E1,2.42E2,3.4E1,4E0,3.5E1,2.02E2,3E0,8E0],"tree_param":{"num_deleted":"0","num_feature":"75","num_nodes":"31","size_leaf_vector":"1"}},{"base_weights":[-2.5837714E2,-1.4500048E4,2.3423764E4,-2.2129834E4,-3.221644E3,6.446153E4,1.3915357E4,-4.0413152E4,-1.8124861E4,-8.344257E3,1.3209952E4,2.8483062E4,8.0985734E4,6.946736E3,3.5846344E4,-2.078206E3,7.1612384E2,-1.1085999E3,-3.7637595E2,-8.255966E2,-5.5531128E1,1.1202207E2,2.0246852E3,1.6676318E3,-6.7375653E2,3.0628562E3,5.4358022E3,-6.4788007E2,5.7028217E2,1.4596932E3,3.5755671E3],"categories":[],"categories_nodes":[],"categories_segments":[],"categories_sizes":[],"default_left":[0,0,0,0,0,0,0,0,0,0,0,0,0,0,0,0,0,0,0,0,0,0,0,0,0,0,0,0,0,0,0],"id":22,"left_children":[1,3,5,7,9,11,13,15,17,19,21,23,25,27,29,-1,-1,-1,-1,-1,-1,-1,-1,-1,-1,-1,-1,-1,-1,-1,-1],"loss_changes":[3.1164288E11,4.9580597E10,1.34503694E11,2.4456659E10,1.9806642E10,3.6336796E10,4.3001516E10,4.438237E9,1.2013543E10,1.0557335E10,1.6669484E10,4.9444393E9,1.74119E10,1.9318137E10,1.4046036E10,0E0,0E0,0E0,0E0,0E0,0E0,0E0,0E0,0E0,0E0,0E0,0E0,0E0,0E0,0E0,0E0],"parents":[2147483647,0,0,1,1,2,2,3,3,4,4,5,5,6,6,7,7,8,8,9,9,10,10,11,11,12,12,13,13,14,14],"right_children":[2,4,6,8,10,12,14,16,18,20,22,24,26,28,30,-1,-1,-1,-1,-1,-1,-1,-1,-1,-1,-1,-1,-1,-1,-1,-1],"split_conditions":[7E0,1E0,1E0,1E0,7E0,3E0,2.035E3,2.59E2,1.981E3,4.04E2,1.216E4,1.46E2,2.196E3,7.92E2,1.11E3,-2.078206E3,7.1612384E2,-1.1085999E3,-3.7637595E2,-8.255966E2,-5.5531128E1,1.1202207E2,2.0246852E3,1.6676318E3,-6.7375653E2,3.0628562E3,5.4358022E3,-6.4788007E2,5.7028217E2,1.4596932E3,3.5755671E3],"split_indices":[15,54,28,39,16,59,44,66,57,32,3,65,44,36,32,0,0,0,0,0,0,0,0,0,0,0,0,0,0,0,0],"split_type":[0,0,0,0,0,0,0,0,0,0,0,0,0,0,0,0,0,0,0,0,0,0,0,0,0,0,0,0,0,0,0],"sum_hessian":[9.22E2,5.76E2,3.46E2,3.43E2,2.33E2,6.4E1,2.82E2,6E1,2.83E2,1.78E2,5.5E1,2.1E1,4.3E1,2.15E2,6.7E1,5.9E1,1E0,2.04E2,7.9E1,8.3E1,9.5E1,4E1,1.5E1,1.9E1,2E0,2.7E1,1.6E1,3.9E1,1.76E2,5.8E1,9E0],"tree_param":{"num_deleted":"0","num_feature":"75","num_nodes":"31","size_leaf_vector":"1"}},{"base_weights":[3.7568356E2,-1.3293811E4,2.253125E4,-2.2906336E4,-5.7548403E3,1.3626787E4,5.2513504E4,-3.711818E4,-1.871231E4,-1.3527887E4,2.585028E3,7.280559E3,3.9108336E4,5.644782E4,-7.3848696E3,-2.0136478E3,-6.183355E2,-9.78862E2,9.640683E2,-1.1852092E3,-3.069779E2,-1.5695576E2,9.9895197E2,5.3168176E2,-6.3768445E2,-1.2689977E3,2.0983396E3,2.5030188E3,5.7041636E3,8.139151E2,-1.1643016E3],"categories":[],"categories_nodes":[],"categories_segments":[],"categories_sizes":[],"default_left":[0,0,0,0,0,0,0,0,0,0,0,0,0,0,0,0,0,0,0,0,0,0,0,0,0,0,0,0,0,0,0],"id":23,"left_children":[1,3,5,7,9,11,13,15,17,19,21,23,25,27,29,-1,-1,-1,-1,-1,-1,-1,-1,-1,-1,-1,-1,-1,-1,-1,-1],"loss_changes":[2.889207E11,4.2624614E10,9.64636E10,1.4743101E10,2.1557264E10,4.531797E10,1.9976602E10,4.0309064E9,7.0155715E9,1.2786426E10,1.6092812E10,1.5384646E10,1.1387978E10,2.3004103E10,2.6366884E9,0E0,0E0,0E0,0E0,0E0,0E0,0E0,0E0,0E0,0E0,0E0,0E0,0E0,0E0,0E0,0E0],"parents":[2147483647,0,0,1,1,2,2,3,3,4,4,5,5,6,6,7,7,8,8,9,9,10,10,11,11,12,12,13,13,14,14],"right_children":[2,4,6,8,10,12,14,16,18,20,22,24,26,28,30,-1,-1,-1,-1,-1,-1,-1,-1,-1,-1,-1,-1,-1,-1,-1,-1],"split_conditions":[7E0,2E0,9.43E2,5E0,1E0,1.001E3,1.2E2,6.41E2,1E0,1.964E3,7E0,4E0,5.1E1,1E1,3E1,-2.0136478E3,-6.183355E2,-9.78862E2,9.640683E2,-1.1852092E3,-3.069779E2,-1.5695576E2,9.9895197E2,5.3168176E2,-6.3768445E2,-1.2689977E3,2.0983396E3,2.5030188E3,5.7041636E3,8.139151E2,-1.1643016E3],"split_indices":[15,59,32,15,54,42,2,32,9,17,16,56,2,15,0,0,0,0,0,0,0,0,0,0,0,0,0,0,0,0,0],"split_type":[0,0,0,0,0,0,0,0,0,0,0,0,0,0,0,0,0,0,0,0,0,0,0,0,0,0,0,0,0,0,0],"sum_hessian":[9.52E2,5.89E2,3.63E2,2.58E2,3.31E2,2.81E2,8.2E1,5.7E1,2.01E2,1.71E2,1.6E2,2.26E2,5.5E1,7.7E1,5E0,5E1,7E0,1.97E2,4E0,7.1E1,1E2,1.21E2,3.9E1,1.94E2,3.2E1,2E0,5.3E1,7.1E1,6E0,2E0,3E0],"tree_param":{"num_deleted":"0","num_feature":"75","num_nodes":"31","size_leaf_vector":"1"}},{"base_weights":[7.1240683E0,-7.0690806E3,3.669161E4,-1.989022E4,1.1554106E3,2.0490805E4,5.26228E4,-2.5858588E4,-1.019375E4,-3.2209492E3,1.7050686E4,1.145202E4,4.5678746E4,2.7730332E4,6.428126E4,-7.376391E2,-1.5757793E3,-1.5137054E3,-4.6160245E2,1.6655486E2,-6.7128455E2,-3.9922256E2,1.2129001E3,1.7807855E3,2.1870964E2,3.2604011E3,1.8360461E3,1.1263887E3,3.9448572E3,3.4544863E3,-4.745305E2],"categories":[],"categories_nodes":[],"categories_segments":[],"categories_sizes":[],"default_left":[0,0,0,0,0,0,0,0,0,0,0,0,0,0,0,0,0,0,0,0,0,0,0,0,0,0,0,0,0,0,0],"id":24,"left_children":[1,3,5,7,9,11,13,15,17,19,21,23,25,27,29,-1,-1,-1,-1,-1,-1,-1,-1,-1,-1,-1,-1,-1,-1,-1,-1],"loss_changes":[2.4401152E11,8.31155E10,3.8152634E10,1.756101E10,3.3514938E10,1.7007356E10,2.027325E10,1.1471913E10,2.0185508E9,2.5318535E10,1.8959047E10,9.763743E9,1.1042898E9,5.1437793E9,1.8746884E10,0E0,0E0,0E0,0E0,0E0,0E0,0E0,0E0,0E0,0E0,0E0,0E0,0E0,0E0,0E0,0E0],"parents":[2147483647,0,0,1,1,2,2,3,3,4,4,5,5,6,6,7,7,8,8,9,9,10,10,11,11,12,12,13,13,14,14],"right_children":[2,4,6,8,10,12,14,16,18,20,22,24,26,28,30,-1,-1,-1,-1,-1,-1,-1,-1,-1,-1,-1,-1,-1,-1,-1,-1],"split_conditions":[8E0,1.25E3,7.74E2,5.6E2,1.935E3,2.372E3,1.716E3,4E0,5E0,3E0,1E0,1E0,1E0,6E0,1.15E2,-7.376391E2,-1.5757793E3,-1.5137054E3,-4.6160245E2,1.6655486E2,-6.7128455E2,-3.9922256E2,1.2129001E3,1.7807855E3,2.1870964E2,3.2604011E3,1.8360461E3,1.1263887E3,3.9448572E3,3.4544863E3,-4.745305E2],"split_indices":[15,44,32,32,44,44,44,56,16,58,54,51,24,16,2,0,0,0,0,0,0,0,0,0,0,0,0,0,0,0,0],"split_type":[0,0,0,0,0,0,0,0,0,0,0,0,0,0,0,0,0,0,0,0,0,0,0,0,0,0,0,0,0,0,0],"sum_hessian":[9.38E2,7.87E2,1.51E2,3.07E2,4.8E2,7.6E1,7.5E1,1.89E2,1.18E2,3.77E2,1.03E2,5.7E1,1.9E1,2.5E1,5E1,6.5E1,1.24E2,4E0,1.14E2,2.3E2,1.47E2,2.3E1,8E1,1.2E1,4.5E1,4E0,1.5E1,2.4E1,1E0,4.7E1,3E0],"tree_param":{"num_deleted":"0","num_feature":"75","num_nodes":"31","size_leaf_vector":"1"}},{"base_weights":[2.6530627E2,-6.39742E3,3.6170703E4,-1.4462685E4,5.2664043E3,2.6763928E4,7.259211E4,-2.1958223E4,-7.628868E3,1.4275859E4,-5.580052E3,1.7289771E4,6.0351656E4,8.3049125E4,-1.6140805E4,-1.4299857E3,-7.347234E2,-4.4008185E2,1.4473795E3,-7.901586E1,1.1734807E3,-7.421471E2,8.389786E1,-1.4655472E3,1.0102189E3,1.7360653E3,3.992022E3,4.9847246E3,1.5527292E3,2.8918283E2,-1.2688422E3],"categories":[],"categories_nodes":[],"categories_segments":[],"categories_sizes":[],"default_left":[0,0,0,0,0,0,0,0,0,0,0,0,0,0,0,0,0,0,0,0,0,0,0,0,0,0,0,0,0,0,0],"id":25,"left_children":[1,3,5,7,9,11,13,15,17,19,21,23,25,27,29,-1,-1,-1,-1,-1,-1,-1,-1,-1,-1,-1,-1,-1,-1,-1,-1],"loss_changes":[2.2773706E11,7.561585E10,4.9105715E10,2.4163467E10,3.2229757E10,3.7142397E10,2.9176938E10,1.0482483E10,1.0978717E10,2.6277093E10,1.0109427E10,1.3495366E10,1.0214941E10,2.0271677E10,9.5675174E8,0E0,0E0,0E0,0E0,0E0,0E0,0E0,0E0,0E0,0E0,0E0,0E0,0E0,0E0,0E0,0E0],"parents":[2147483647,0,0,1,1,2,2,3,3,4,4,5,5,6,6,7,7,8,8,9,9,10,10,11,11,12,12,13,13,14,14],"right_children":[2,4,6,8,10,12,14,16,18,20,22,24,26,28,30,-1,-1,-1,-1,-1,-1,-1,-1,-1,-1,-1,-1,-1,-1,-1,-1],"split_conditions":[8E0,1.489E3,1.277E3,9.07E2,3E0,2.392E3,1.2E2,1.974E3,2.008E3,9.35E3,2.03E2,7.12E2,1.456E3,1E0,3E1,-1.4299857E3,-7.347234E2,-4.4008185E2,1.4473795E3,-7.901586E1,1.1734807E3,-7.421471E2,8.389786E1,-1.4655472E3,1.0102189E3,1.7360653E3,3.992022E3,4.9847246E3,1.5527292E3,2.8918283E2,-1.2688422E3],"split_indices":[15,44,32,36,51,44,2,18,57,3,32,36,41,28,0,0,0,0,0,0,0,0,0,0,0,0,0,0,0,0,0],"split_type":[0,0,0,0,0,0,0,0,0,0,0,0,0,0,0,0,0,0,0,0,0,0,0,0,0,0,0,0,0,0,0],"sum_hessian":[9.5E2,8.02E2,1.48E2,4.74E2,3.28E2,1.19E2,2.9E1,2.25E2,2.49E2,1.79E2,1.49E2,9.4E1,2.5E1,2.6E1,3E0,1.16E2,1.09E2,2.42E2,7E0,6.6E1,1.13E2,6.5E1,8.4E1,5E0,8.9E1,1.2E1,1.3E1,1.9E1,7E0,1E0,2E0],"tree_param":{"num_deleted":"0","num_feature":"75","num_nodes":"31","size_leaf_vector":"1"}},{"base_weights":[1.0366257E3,-5.987789E3,3.9175902E4,-1.0678351E4,1.3846299E4,3.4978992E4,8.866154E3,-3.8259624E3,-2.0887914E4,9.98099E3,5.7465598E4,1.813011E4,5.2297676E4,-6.1230817E2,1.4522075E2,-1.613087E3,-8.5235443E2,-1.9857011E2,9.183E2,9.58061E2,3.405235E3,1.2526752E2,1.7059648E3,1.4711312E3,3.5643152E3],"categories":[],"categories_nodes":[],"categories_segments":[],"categories_sizes":[],"default_left":[0,0,0,0,0,0,0,0,0,0,0,0,0,0,0,0,0,0,0,0,0,0,0,0,0],"id":26,"left_children":[1,3,5,7,9,11,-1,13,15,17,19,21,23,-1,-1,-1,-1,-1,-1,-1,-1,-1,-1,-1,-1],"loss_changes":[2.4804773E11,7.2899674E10,7.728739E10,4.4204696E10,2.4716743E10,4.0195703E10,0E0,2.1570597E10,1.0545996E10,1.6334681E10,3.585323E9,1.8151907E10,2.787382E10,0E0,0E0,0E0,0E0,0E0,0E0,0E0,0E0,0E0,0E0,0E0,0E0],"parents":[2147483647,0,0,1,1,2,2,3,3,4,4,5,5,7,7,8,8,9,9,10,10,11,11,12,12],"right_children":[2,4,6,8,10,12,-1,14,16,18,20,22,24,-1,-1,-1,-1,-1,-1,-1,-1,-1,-1,-1,-1],"split_conditions":[8E0,1.784E3,1.589E3,4E0,1.097E3,1.92E3,8.866154E3,1.7E1,5E0,1.98E3,1.2968E4,4.28E2,1.456E3,-6.1230817E2,1.4522075E2,-1.613087E3,-8.5235443E2,-1.9857011E2,9.183E2,9.58061E2,3.405235E3,1.2526752E2,1.7059648E3,1.4711312E3,3.5643152E3],"split_indices":[15,44,42,56,32,44,0,65,15,18,3,32,41,0,0,0,0,0,0,0,0,0,0,0,0],"split_type":[0,0,0,0,0,0,0,0,0,0,0,0,0,0,0,0,0,0,0,0,0,0,0,0,0],"sum_hessian":[9.24E2,7.81E2,1.43E2,6.32E2,1.49E2,1.4E2,3E0,3.79E2,2.53E2,1.38E2,1.1E1,7.2E1,6.8E1,1.68E2,2.11E2,6.2E1,1.91E2,5.2E1,8.6E1,3E0,8E0,3.7E1,3.5E1,3.2E1,3.6E1],"tree_param":{"num_deleted":"0","num_feature":"75","num_nodes":"25","size_leaf_vector":"1"}},{"base_weights":[4.269206E2,-6.190321E3,3.5219387E4,-1.3512993E4,4.418437E3,2.5254045E4,7.457114E4,-3.7793754E4,-1.1472486E4,-1.3144789E3,2.0365895E4,1.9756906E4,8.4846305E4,5.1324254E4,5.5029507E3,-2.3065369E3,-1.2881185E3,-8.347845E2,-1.9186629E2,-1.2144545E3,7.3498E1,8.413786E2,3.2369475E3,-1.340587E3,1.1309404E3,8.866797E2,4.516644E3,3.6386934E3,1.7088236E3],"categories":[],"categories_nodes":[],"categories_segments":[],"categories_sizes":[],"default_left":[0,0,0,0,0,0,0,0,0,0,0,0,0,0,0,0,0,0,0,0,0,0,0,0,0,0,0,0,0],"id":27,"left_children":[1,3,5,7,9,11,13,15,17,19,21,23,25,27,-1,-1,-1,-1,-1,-1,-1,-1,-1,-1,-1,-1,-1,-1,-1],"loss_changes":[2.1755529E11,6.1741162E10,5.7332007E10,2.2852583E10,2.9740034E10,3.82893E10,1.9100762E10,2.4225587E9,1.7283727E10,1.5388839E10,1.2413137E10,1.566652E10,2.0802519E9,4.869116E9,0E0,0E0,0E0,0E0,0E0,0E0,0E0,0E0,0E0,0E0,0E0,0E0,0E0,0E0,0E0],"parents":[2147483647,0,0,1,1,2,2,3,3,4,4,5,5,6,6,7,7,8,8,9,9,10,10,11,11,12,12,13,13],"right_children":[2,4,6,8,10,12,14,16,18,20,22,24,26,28,-1,-1,-1,-1,-1,-1,-1,-1,-1,-1,-1,-1,-1,-1,-1],"split_conditions":[8E0,1.484E3,1.277E3,5E0,6.9E2,2.81E3,1.4859E4,5E1,9.92E2,1.916E3,4.6589E4,7.77E2,9.59E3,1E0,5.5029507E3,-2.3065369E3,-1.2881185E3,-8.347845E2,-1.9186629E2,-1.2144545E3,7.3498E1,8.413786E2,3.2369475E3,-1.340587E3,1.1309404E3,8.866797E2,4.516644E3,3.6386934E3,1.7088236E3],"split_indices":[15,44,32,16,32,44,3,0,36,17,3,36,3,25,0,0,0,0,0,0,0,0,0,0,0,0,0,0,0],"split_type":[0,0,0,0,0,0,0,0,0,0,0,0,0,0,0,0,0,0,0,0,0,0,0,0,0,0,0,0,0],"sum_hessian":[9.43E2,7.93E2,1.5E2,4.69E2,3.24E2,1.21E2,2.9E1,3.5E1,4.34E2,2.39E2,8.5E1,1.12E2,9E0,1.9E1,1E1,1.9E1,1.6E1,2.57E2,1.77E2,2.5E1,2.14E2,8E1,5E0,6E0,1.06E2,1E0,8E0,7E0,1.2E1],"tree_param":{"num_deleted":"0","num_feature":"75","num_nodes":"29","size_leaf_vector":"1"}},{"base_weights":[2.738839E2,-6.1969033E3,3.385017E4,-1.7446896E4,-2.7497328E1,1.2643698E4,4.3902844E4,-3.408186E4,-1.3546761E4,-1.5898368E3,3.731379E4,-1.0697769E4,2.7783219E4,2.9486863E4,6.765203E4,-1.9442112E3,-1.1094912E3,-8.306925E2,-3.8070312E1,2.239923E2,-5.4473474E2,-7.7184845E2,2.2016296E3,6.883979E2,-7.9125653E2,9.980446E2,2.1908718E3,5.4030475E2,2.059232E3,3.7069321E3,-1.5287896E3],"categories":[],"categories_nodes":[],"categories_segments":[],"categories_sizes":[],"default_left":[0,0,0,0,0,0,0,0,0,0,0,0,0,0,0,0,0,0,0,0,0,0,0,0,0,0,0,0,0,0,0],"id":28,"left_children":[1,3,5,7,9,11,13,15,17,19,21,23,25,27,29,-1,-1,-1,-1,-1,-1,-1,-1,-1,-1,-1,-1,-1,-1,-1,-1],"loss_changes":[1.9900727E11,5.3303157E10,3.0995792E10,1.7185276E10,2.905419E10,1.761277E10,3.2241943E10,2.0497695E9,8.692818E9,2.7045067E10,7.7681664E9,2.7267717E9,2.888112E9,1.3540446E10,2.5841975E10,0E0,0E0,0E0,0E0,0E0,0E0,0E0,0E0,0E0,0E0,0E0,0E0,0E0,0E0,0E0,0E0],"parents":[2147483647,0,0,1,1,2,2,3,3,4,4,5,5,6,6,7,7,8,8,9,9,10,10,11,11,12,12,13,13,14,14],"right_children":[2,4,6,8,10,12,14,16,18,20,22,24,26,28,30,-1,-1,-1,-1,-1,-1,-1,-1,-1,-1,-1,-1,-1,-1,-1,-1],"split_conditions":[8E0,2E0,1.372E3,6.44E2,2.344E3,5.83E2,2.019E3,8.45E3,1.175E3,3E0,5E0,2.007E3,1.01E2,3.74E2,1.2E2,-1.9442112E3,-1.1094912E3,-8.306925E2,-3.8070312E1,2.239923E2,-5.4473474E2,-7.7184845E2,2.2016296E3,6.883979E2,-7.9125653E2,9.980446E2,2.1908718E3,5.4030475E2,2.059232E3,3.7069321E3,-1.5287896E3],"split_indices":[15,59,41,36,44,60,44,3,41,58,16,72,65,32,2,0,0,0,0,0,0,0,0,0,0,0,0,0,0,0,0],"split_type":[0,0,0,0,0,0,0,0,0,0,0,0,0,0,0,0,0,0,0,0,0,0,0,0,0,0,0,0,0,0,0],"sum_hessian":[9.14E2,7.67E2,1.47E2,2.71E2,4.96E2,4.8E1,9.9E1,5E1,2.21E2,4.77E2,1.9E1,1.9E1,2.9E1,6.3E1,3.6E1,3.4E1,1.6E1,1.78E2,4.3E1,2.89E2,1.88E2,2E0,1.7E1,3E0,1.6E1,2.1E1,8E0,2.5E1,3.8E1,3.4E1,2E0],"tree_param":{"num_deleted":"0","num_feature":"75","num_nodes":"31","size_leaf_vector":"1"}},{"base_weights":[1.704937E1,-1.0343687E4,1.7069656E4,-3.8825327E3,-1.782323E4,1.012778E4,5.370554E4,-2.9188809E4,-1.7748323E3,-4.437926E4,-1.6080239E4,3.2592058E3,2.523314E4,4.428699E4,8.253749E3,-1.8522992E3,-5.988648E2,-2.7237253E2,5.77236E2,-2.3508901E3,-8.636496E2,-1.134747E3,-5.393523E2,-2.6957815E1,1.1245154E3,7.122632E2,2.0040931E3,5.7717633E2,2.6794446E3],"categories":[],"categories_nodes":[],"categories_segments":[],"categories_sizes":[],"default_left":[0,0,0,0,0,0,0,0,0,0,0,0,0,0,0,0,0,0,0,0,0,0,0,0,0,0,0,0,0],"id":29,"left_children":[1,3,5,7,9,11,13,15,17,19,21,23,25,27,-1,-1,-1,-1,-1,-1,-1,-1,-1,-1,-1,-1,-1,-1,-1],"loss_changes":[1.6501672E11,2.8008489E10,8.923168E10,1.6643003E10,1.1737547E10,3.0835945E10,5.1429884E10,2.8019016E9,1.4249001E10,3.3219584E8,8.648462E9,1.5059743E10,1.4602523E10,1.5523946E10,0E0,0E0,0E0,0E0,0E0,0E0,0E0,0E0,0E0,0E0,0E0,0E0,0E0,0E0,0E0],"parents":[2147483647,0,0,1,1,2,2,3,3,4,4,5,5,6,6,7,7,8,8,9,9,10,10,11,11,12,12,13,13],"right_children":[2,4,6,8,10,12,14,16,18,20,22,24,26,28,-1,-1,-1,-1,-1,-1,-1,-1,-1,-1,-1,-1,-1,-1,-1],"split_conditions":[7E0,4E0,1.2E3,5E0,4E0,1.924E3,1.589E3,1E0,1.2203E4,1.981E3,6E0,2.007E3,2.003E3,1.647E3,8.253749E3,-1.8522992E3,-5.988648E2,-2.7237253E2,5.77236E2,-2.3508901E3,-8.636496E2,-1.134747E3,-5.393523E2,-2.6957815E1,1.1245154E3,7.122632E2,2.0040931E3,5.7717633E2,2.6794446E3],"split_indices":[15,56,32,16,15,44,42,48,3,57,16,17,18,44,0,0,0,0,0,0,0,0,0,0,0,0,0,0,0],"split_type":[0,0,0,0,0,0,0,0,0,0,0,0,0,0,0,0,0,0,0,0,0,0,0,0,0,0,0,0,0],"sum_hessian":[9.32E2,5.8E2,3.52E2,3.12E2,2.68E2,2.97E2,5.5E1,2.3E1,2.89E2,1.5E1,2.53E2,2.05E2,9.2E1,5.2E1,3E0,1.5E1,8E0,2.27E2,6.2E1,1.3E1,2E0,1.11E2,1.42E2,1.72E2,3.3E1,5.4E1,3.8E1,1.2E1,4E1],"tree_param":{"num_deleted":"0","num_feature":"75","num_nodes":"29","size_leaf_vector":"1"}},{"base_weights":[2.8329895E2,-6.757739E3,2.2362504E4,-1.1344878E4,9.354175E3,7.104259E3,3.6526086E4,-2.6587959E4,-8.619638E3,4.8893584E3,3.3090016E4,1.2330991E4,-2.9990316E4,5.673167E4,2.696349E4,-1.8838209E3,-1.0483839E3,-2.797584E2,-1.02351025E3,-1.9318645E2,5.124865E2,8.100982E2,2.3716343E3,3.8539845E1,1.0316348E3,-3.5841147E2,-1.6598323E3,3.0665112E3,-7.914315E2,1.8385205E3,8.129865E2],"categories":[],"categories_nodes":[],"categories_segments":[],"categories_sizes":[],"default_left":[0,0,0,0,0,0,0,0,0,0,0,0,0,0,0,0,0,0,0,0,0,0,0,0,0,0,0,0,0,0,0],"id":30,"left_children":[1,3,5,7,9,11,13,15,17,19,21,23,25,27,29,-1,-1,-1,-1,-1,-1,-1,-1,-1,-1,-1,-1,-1,-1,-1,-1],"loss_changes":[1.4659492E11,5.295005E10,4.9013907E10,2.290919E10,1.6688422E10,2.189087E10,2.1270036E10,4.4449137E9,1.6874422E10,6.3737754E9,5.28699E9,9.389089E9,7.864904E8,1.3316645E10,8.009732E9,0E0,0E0,0E0,0E0,0E0,0E0,0E0,0E0,0E0,0E0,0E0,0E0,0E0,0E0,0E0,0E0],"parents":[2147483647,0,0,1,1,2,2,3,3,4,4,5,5,6,6,7,7,8,8,9,9,10,10,11,11,12,12,13,13,14,14],"right_children":[2,4,6,8,10,12,14,16,18,20,22,24,26,28,30,-1,-1,-1,-1,-1,-1,-1,-1,-1,-1,-1,-1,-1,-1,-1,-1],"split_conditions":[1.824E3,1.314E3,1.092E3,5E0,2.007E3,4E0,1E0,4E0,4E0,1.993E3,1E0,1.994E3,2E0,1.2E2,7E0,-1.8838209E3,-1.0483839E3,-2.797584E2,-1.02351025E3,-1.9318645E2,5.124865E2,8.100982E2,2.3716343E3,3.8539845E1,1.0316348E3,-3.5841147E2,-1.6598323E3,3.0665112E3,-7.914315E2,1.8385205E3,8.129865E2],"split_indices":[44,36,36,15,17,1,28,62,1,18,45,18,28,2,71,0,0,0,0,0,0,0,0,0,0,0,0,0,0,0,0],"split_type":[0,0,0,0,0,0,0,0,0,0,0,0,0,0,0,0,0,0,0,0,0,0,0,0,0,0,0,0,0,0,0],"sum_hessian":[9.41E2,7.14E2,2.27E2,5.56E2,1.58E2,1.1E2,1.17E2,8.3E1,4.73E2,1.34E2,2.4E1,9.7E1,1.3E1,3.6E1,8.1E1,2.6E1,5.7E1,3.78E2,9.5E1,5.1E1,8.3E1,1.2E1,1.2E1,4.1E1,5.6E1,2E0,1.1E1,3.4E1,2E0,4.1E1,4E1],"tree_param":{"num_deleted":"0","num_feature":"75","num_nodes":"31","size_leaf_vector":"1"}},{"base_weights":[-4.5305946E1,-9.14398E3,1.489181E4,-1.6665984E4,-3.346073E3,9.127587E3,4.1408723E4,-3.0475975E4,-1.3510839E4,-1.0888252E4,1.4297975E3,4.0255679E3,2.9640383E4,-1.8752547E4,4.5732016E4,-1.6930907E3,-7.281093E2,-1.0613287E3,-4.220858E2,-1.1491327E3,-3.9665393E2,8.053745E2,-8.8658485E1,-5.200387E2,3.532685E2,2.1112458E3,3.2780844E2,8.866313E2,-1.6153499E3,1.6795244E3,4.3522217E3],"categories":[],"categories_nodes":[],"categories_segments":[],"categories_sizes":[],"default_left":[0,0,0,0,0,0,0,0,0,0,0,0,0,0,0,0,0,0,0,0,0,0,0,0,0,0,0,0,0,0,0],"id":31,"left_children":[1,3,5,7,9,11,13,15,17,19,21,23,25,27,29,-1,-1,-1,-1,-1,-1,-1,-1,-1,-1,-1,-1,-1,-1,-1,-1],"loss_changes":[1.2924873E11,2.5718858E10,5.464781E10,1.0786374E10,1.2082424E10,3.0963712E10,1.7503666E10,2.0393329E9,8.0734454E9,4.4640143E9,9.713068E9,1.0554403E10,1.6862913E10,3.0455698E9,2.717188E10,0E0,0E0,0E0,0E0,0E0,0E0,0E0,0E0,0E0,0E0,0E0,0E0,0E0,0E0,0E0,0E0],"parents":[2147483647,0,0,1,1,2,2,3,3,4,4,5,5,6,6,7,7,8,8,9,9,10,10,11,11,12,12,13,13,14,14],"right_children":[2,4,6,8,10,12,14,16,18,20,22,24,26,28,30,-1,-1,-1,-1,-1,-1,-1,-1,-1,-1,-1,-1,-1,-1,-1,-1],"split_conditions":[7E0,2E0,2.217E3,6.44E2,1.236E3,1.652E3,1E0,9.83E3,6E0,1.962E3,7E0,7.77E2,8.08E2,1.0574E4,1.588E3,-1.6930907E3,-7.281093E2,-1.0613287E3,-4.220858E2,-1.1491327E3,-3.9665393E2,8.053745E2,-8.8658485E1,-5.200387E2,3.532685E2,2.1112458E3,3.2780844E2,8.866313E2,-1.6153499E3,1.6795244E3,4.3522217E3],"split_indices":[15,59,44,36,44,41,6,3,16,18,10,36,35,3,36,0,0,0,0,0,0,0,0,0,0,0,0,0,0,0,0],"split_type":[0,0,0,0,0,0,0,0,0,0,0,0,0,0,0,0,0,0,0,0,0,0,0,0,0,0,0,0,0,0,0],"sum_hessian":[9.49E2,5.9E2,3.59E2,2.56E2,3.34E2,2.96E2,6.3E1,4.6E1,2.1E2,1.29E2,2.05E2,2.38E2,5.8E1,4E0,5.9E1,3.7E1,9E0,8.2E1,1.28E2,2.4E1,1.05E2,3.6E1,1.69E2,4.1E1,1.97E2,3.7E1,2.1E1,1E0,3E0,4.7E1,1.2E1],"tree_param":{"num_deleted":"0","num_feature":"75","num_nodes":"31","size_leaf_vector":"1"}},{"base_weights":[7.457965E2,-4.8678096E3,3.2050234E4,-1.4253327E4,1.9370709E3,2.8293273E4,7.7296055E3,-2.989645E4,-1.1513796E4,-3.4501768E3,1.3546975E4,4.5803457E4,1.6630293E4,-1.6239106E3,-2.9903894E2,-3.4177957E2,-8.0235345E2,-4.2918466E2,1.237546E2,2.2161226E2,1.3850493E3,2.4607595E3,-1.4869183E3,4.3246933E2,1.9545775E3],"categories":[],"categories_nodes":[],"categories_segments":[],"categories_sizes":[],"default_left":[0,0,0,0,0,0,0,0,0,0,0,0,0,0,0,0,0,0,0,0,0,0,0,0,0],"id":32,"left_children":[1,3,5,7,9,11,-1,13,15,17,19,21,23,-1,-1,-1,-1,-1,-1,-1,-1,-1,-1,-1,-1],"loss_changes":[1.6411284E11,5.0610536E10,6.1000778E10,1.3926429E10,2.8817635E10,2.7624989E10,0E0,2.8312412E9,5.934469E9,9.602747E9,1.8712678E10,1.5638651E10,1.4899083E10,0E0,0E0,0E0,0E0,0E0,0E0,0E0,0E0,0E0,0E0,0E0,0E0],"parents":[2147483647,0,0,1,1,2,2,3,3,4,4,5,5,7,7,8,8,9,9,10,10,11,11,12,12],"right_children":[2,4,6,8,10,12,-1,14,16,18,20,22,24,-1,-1,-1,-1,-1,-1,-1,-1,-1,-1,-1,-1],"split_conditions":[8E0,6E0,1.589E3,1E0,1.72E3,1E0,7.7296055E3,1E0,3E0,1.107E3,1.041E3,1.12E2,2.291E3,-1.6239106E3,-2.9903894E2,-3.4177957E2,-8.0235345E2,-4.2918466E2,1.237546E2,2.2161226E2,1.3850493E3,2.4607595E3,-1.4869183E3,4.3246933E2,1.9545775E3],"split_indices":[15,15,42,39,44,28,0,48,31,41,36,2,44,0,0,0,0,0,0,0,0,0,0,0,0],"split_type":[0,0,0,0,0,0,0,0,0,0,0,0,0,0,0,0,0,0,0,0,0,0,0,0,0],"sum_hessian":[9.32E2,7.91E2,1.41E2,3.32E2,4.59E2,1.38E2,3E0,4.8E1,2.84E2,3.14E2,1.45E2,5.4E1,8.4E1,4.3E1,5E0,1.41E2,1.43E2,1.68E2,1.46E2,8.9E1,5.6E1,5.2E1,2E0,6.3E1,2.1E1],"tree_param":{"num_deleted":"0","num_feature":"75","num_nodes":"25","size_leaf_vector":"1"}},{"base_weights":[-4.4765128E2,-5.990566E3,2.340808E4,-1.0265744E4,8.613868E3,1.5414913E4,6.5678086E4,-3.2043562E4,-8.758869E3,1.6709043E4,-4.563636E3,4.462486E4,1.1376152E4,-1.1740487E4,7.907037E4,-1.6819258E3,6.742426E2,-7.197838E2,-2.4704199E2,4.659388E2,1.2547689E3,3.912852E1,-1.3415577E3,3.3189277E3,1.4108231E3,7.958987E2,-2.8086346E2,4.5898022E2,-1.4373542E3,2.733116E3,6.5269087E3],"categories":[],"categories_nodes":[],"categories_segments":[],"categories_sizes":[],"default_left":[0,0,0,0,0,0,0,0,0,0,0,0,0,0,0,0,0,0,0,0,0,0,0,0,0,0,0,0,0,0,0],"id":33,"left_children":[1,3,5,7,9,11,13,15,17,19,21,23,25,27,29,-1,-1,-1,-1,-1,-1,-1,-1,-1,-1,-1,-1,-1,-1,-1,-1],"loss_changes":[1.2483338E11,4.7914836E10,5.9128676E10,1.91795E10,1.8637566E10,1.7306108E10,2.9959037E10,3.213009E9,1.1894825E10,6.459683E9,7.997129E9,4.552012E9,1.043168E10,2.0427845E9,2.3013982E10,0E0,0E0,0E0,0E0,0E0,0E0,0E0,0E0,0E0,0E0,0E0,0E0,0E0,0E0,0E0,0E0],"parents":[2147483647,0,0,1,1,2,2,3,3,4,4,5,5,6,6,7,7,8,8,9,9,10,10,11,11,12,12,13,13,14,14],"right_children":[2,4,6,8,10,12,14,16,18,20,22,24,26,28,30,-1,-1,-1,-1,-1,-1,-1,-1,-1,-1,-1,-1,-1,-1,-1,-1],"split_conditions":[1.417E3,1.784E3,2.217E3,5E0,3E0,3E0,1.3E1,1.999E3,2E0,2.108E3,4E0,9E0,3E0,3E1,1.05E2,-1.6819258E3,6.742426E2,-7.197838E2,-2.4704199E2,4.659388E2,1.2547689E3,3.912852E1,-1.3415577E3,3.3189277E3,1.4108231E3,7.958987E2,-2.8086346E2,4.5898022E2,-1.4373542E3,2.733116E3,6.5269087E3],"split_indices":[36,44,44,16,51,6,10,57,59,44,1,22,28,0,2,0,0,0,0,0,0,0,0,0,0,0,0,0,0,0,0],"split_type":[0,0,0,0,0,0,0,0,0,0,0,0,0,0,0,0,0,0,0,0,0,0,0,0,0,0,0,0,0,0,0],"sum_hessian":[9.42E2,7.65E2,1.77E2,5.92E2,1.73E2,1.5E2,2.7E1,3.7E1,5.55E2,1.07E2,6.6E1,1.7E1,1.33E2,4E0,2.3E1,3.6E1,1E0,2.23E2,3.32E2,5.8E1,4.9E1,5.4E1,1.2E1,6E0,1.1E1,1.05E2,2.8E1,2E0,2E0,1.7E1,6E0],"tree_param":{"num_deleted":"0","num_feature":"75","num_nodes":"31","size_leaf_vector":"1"}},{"base_weights":[6.781242E2,-5.792356E3,1.7623195E4,-9.797174E3,8.329173E3,1.1563402E4,4.710847E4,-3.0498227E4,-8.540543E3,4.708153E3,2.4067646E4,-1.9253937E3,1.9454127E4,-1.0934872E3,4.922121E4,-1.6593645E3,-2.3612491E2,-6.2773413E2,-1.8111458E2,5.3715985E2,-9.5414085E1,2.426552E3,8.9841437E2,-1.3161952E3,1.5630719E2,7.695384E2,2.8514204E3,2.1969504E3,4.4868965E3],"categories":[],"categories_nodes":[],"categories_segments":[],"categories_sizes":[],"default_left":[0,0,0,0,0,0,0,0,0,0,0,0,0,0,0,0,0,0,0,0,0,0,0,0,0,0,0,0,0],"id":34,"left_children":[1,3,5,7,9,11,13,15,17,19,21,23,25,-1,27,-1,-1,-1,-1,-1,-1,-1,-1,-1,-1,-1,-1,-1,-1],"loss_changes":[1.0316627E11,3.8594978E10,4.591067E10,1.3552738E10,8.492074E9,2.3134147E10,7.488725E9,1.9226501E9,9.865286E9,4.9718804E9,3.3058888E9,1.0065541E10,2.0039135E10,0E0,5.2597555E9,0E0,0E0,0E0,0E0,0E0,0E0,0E0,0E0,0E0,0E0,0E0,0E0,0E0,0E0],"parents":[2147483647,0,0,1,1,2,2,3,3,4,4,5,5,6,6,7,7,8,8,9,9,10,10,11,11,12,12,14,14],"right_children":[2,4,6,8,10,12,14,16,18,20,22,24,26,-1,28,-1,-1,-1,-1,-1,-1,-1,-1,-1,-1,-1,-1,-1,-1],"split_conditions":[1.74E3,1.284E3,1.11E3,8.16E2,2.007E3,1.993E3,1E0,6.19E2,1.986E3,3E0,2E0,1.919E3,2.696E3,-1.0934872E3,3.228E3,-1.6593645E3,-2.3612491E2,-6.2773413E2,-1.8111458E2,5.3715985E2,-9.5414085E1,2.426552E3,8.9841437E2,-1.3161952E3,1.5630719E2,7.695384E2,2.8514204E3,2.1969504E3,4.4868965E3],"split_indices":[44,36,32,44,18,18,6,32,18,30,6,17,44,0,44,0,0,0,0,0,0,0,0,0,0,0,0,0,0],"split_type":[0,0,0,0,0,0,0,0,0,0,0,0,0,0,0,0,0,0,0,0,0,0,0,0,0,0,0,0,0],"sum_hessian":[9.39E2,6.8E2,2.59E2,5.3E2,1.5E2,2.16E2,4.3E1,2.9E1,5.01E2,1.23E2,2.7E1,8E1,1.36E2,1E0,4.2E1,2.6E1,3E0,2.75E2,2.26E2,6.4E1,5.9E1,4E0,2.3E1,1.3E1,6.7E1,1.24E2,1.2E1,3.9E1,3E0],"tree_param":{"num_deleted":"0","num_feature":"75","num_nodes":"29","size_leaf_vector":"1"}},{"base_weights":[1.9300014E2,-7.5752754E3,1.371582E4,-1.4403877E4,-3.0817388E3,3.7278363E4,7.7977275E3,-2.4040174E4,-1.1217953E4,-7.2047524E3,2.3582837E3,-2.0921777E4,4.015369E4,5.513079E3,5.16282E4,-1.2445361E3,6.5355316E2,-1.3986019E3,-4.8458102E2,-1.0068797E3,-2.8048367E2,-2.3287344E1,7.662966E2,-1.3529927E3,-6.268867E1,1.204887E3,2.9843987E3,5.083047E2,-5.20555E2,2.9197556E3,3.6755704E2],"categories":[],"categories_nodes":[],"categories_segments":[],"categories_sizes":[],"default_left":[0,0,0,0,0,0,0,0,0,0,0,0,0,0,0,0,0,0,0,0,0,0,0,0,0,0,0,0,0,0,0],"id":35,"left_children":[1,3,5,7,9,11,13,15,17,19,21,23,25,27,29,-1,-1,-1,-1,-1,-1,-1,-1,-1,-1,-1,-1,-1,-1,-1,-1],"loss_changes":[1.0221152E11,1.8918674E10,4.9212404E10,7.2519434E9,8.405545E9,1.2721545E10,2.8254476E10,2.2192374E9,4.4853555E9,4.2809907E9,5.939746E9,4.4896794E8,1.9889283E10,2.0259797E10,3.7653955E9,0E0,0E0,0E0,0E0,0E0,0E0,0E0,0E0,0E0,0E0,0E0,0E0,0E0,0E0,0E0,0E0],"parents":[2147483647,0,0,1,1,2,2,3,3,4,4,5,5,6,6,7,7,8,8,9,9,10,10,11,11,12,12,13,13,14,14],"right_children":[2,4,6,8,10,12,14,16,18,20,22,24,26,28,30,-1,-1,-1,-1,-1,-1,-1,-1,-1,-1,-1,-1,-1,-1,-1,-1],"split_conditions":[1.652E3,2E0,1E0,4E0,3E1,1E0,2.178E4,1.2E1,5E0,5E0,2.007E3,7E1,2.019E3,4E0,3E0,-1.2445361E3,6.5355316E2,-1.3986019E3,-4.8458102E2,-1.0068797E3,-2.8048367E2,-2.3287344E1,7.662966E2,-1.3529927E3,-6.268867E1,1.204887E3,2.9843987E3,5.083047E2,-5.20555E2,2.9197556E3,3.6755704E2],"split_indices":[44,59,28,61,65,6,3,71,16,15,18,0,44,56,11,0,0,0,0,0,0,0,0,0,0,0,0,0,0,0,0],"split_type":[0,0,0,0,0,0,0,0,0,0,0,0,0,0,0,0,0,0,0,0,0,0,0,0,0,0,0,0,0,0,0],"sum_hessian":[9.71E2,6.17E2,3.54E2,2.44E2,3.73E2,7E1,2.84E2,5.9E1,1.85E2,2.12E2,1.61E2,3E0,6.7E1,2.71E2,1.3E1,5.8E1,1E0,1.4E1,1.71E2,2.2E1,1.9E2,1.33E2,2.8E1,2E0,1E0,3.8E1,2.9E1,2.1E2,6.1E1,1.1E1,2E0],"tree_param":{"num_deleted":"0","num_feature":"75","num_nodes":"31","size_leaf_vector":"1"}},{"base_weights":[9.230526E2,-2.702719E3,3.5296402E4,-5.7018677E3,1.6168679E4,3.0050422E4,6.963043E3,-1.00311455E4,2.9445703E3,1.1223432E4,5.80922E4,1.5079433E4,4.6114207E4,-1.1949401E3,-4.0295184E2,-3.5371982E2,2.91465E2,-1.8235977E2,9.684219E2,1.6339194E3,3.902981E3,1.2249154E3,2.2977075E2,-9.295141E2,2.4098289E3],"categories":[],"categories_nodes":[],"categories_segments":[],"categories_sizes":[],"default_left":[0,0,0,0,0,0,0,0,0,0,0,0,0,0,0,0,0,0,0,0,0,0,0,0,0],"id":36,"left_children":[1,3,5,7,9,11,-1,13,15,17,19,21,23,-1,-1,-1,-1,-1,-1,-1,-1,-1,-1,-1,-1],"loss_changes":[1.1625048E11,4.7861006E10,4.435534E10,2.7318067E10,2.3397378E10,1.9986833E10,0E0,1.3098787E10,7.093329E9,1.2788383E10,3.538514E9,4.4298097E9,6.420275E9,0E0,0E0,0E0,0E0,0E0,0E0,0E0,0E0,0E0,0E0,0E0,0E0],"parents":[2147483647,0,0,1,1,2,2,3,3,4,4,5,5,7,7,8,8,9,9,10,10,11,11,12,12],"right_children":[2,4,6,8,10,12,-1,14,16,18,20,22,24,-1,-1,-1,-1,-1,-1,-1,-1,-1,-1,-1,-1],"split_conditions":[1.11E3,1.987E3,1.589E3,1.987E3,5E0,1.733E3,6.963043E3,6E3,4.38E2,1.99E3,1.266E3,2E0,1E0,-1.1949401E3,-4.0295184E2,-3.5371982E2,2.91465E2,-1.8235977E2,9.684219E2,1.6339194E3,3.902981E3,1.2249154E3,2.2977075E2,-9.295141E2,2.4098289E3],"split_indices":[32,44,42,17,74,44,0,3,60,18,41,30,6,0,0,0,0,0,0,0,0,0,0,0,0],"split_type":[0,0,0,0,0,0,0,0,0,0,0,0,0,0,0,0,0,0,0,0,0,0,0,0,0],"sum_hessian":[9.31E2,8.43E2,8.8E1,7.28E2,1.15E2,8.5E1,3E0,4.85E2,2.43E2,1.04E2,1.1E1,4.5E1,4E1,5.9E1,4.26E2,5.4E1,1.89E2,3.7E1,6.7E1,6E0,5E0,2.3E1,2.2E1,1E0,3.9E1],"tree_param":{"num_deleted":"0","num_feature":"75","num_nodes":"25","size_leaf_vector":"1"}},{"base_weights":[-9.809872E1,-2.481612E3,4.0153645E4,2.690854E3,-1.3011003E4,3.5135363E4,7.527609E3,-6.408302E0,2.348723E4,-1.6886805E4,-3.7021665E3,-1.200312E4,4.1544797E4,-3.7226926E2,2.9874765E2,4.565444E2,1.8998632E3,-1.3004218E3,-6.9178015E2,-4.3477667E2,4.9878964E2,3.482123E2,-1.3984854E3,1.3090724E3,3.010404E3],"categories":[],"categories_nodes":[],"categories_segments":[],"categories_sizes":[],"default_left":[0,0,0,0,0,0,0,0,0,0,0,0,0,0,0,0,0,0,0,0,0,0,0,0,0],"id":37,"left_children":[1,3,5,7,9,11,-1,13,15,17,19,21,23,-1,-1,-1,-1,-1,-1,-1,-1,-1,-1,-1,-1],"loss_changes":[9.095537E10,4.877932E10,2.407288E10,3.3712212E10,1.0580849E10,1.6209486E10,0E0,2.3760427E10,1.4026506E10,5.429195E9,6.097063E9,2.3146967E9,1.1613274E10,0E0,0E0,0E0,0E0,0E0,0E0,0E0,0E0,0E0,0E0,0E0,0E0],"parents":[2147483647,0,0,1,1,2,2,3,3,4,4,5,5,7,7,8,8,9,9,10,10,11,11,12,12],"right_children":[2,4,6,8,10,12,-1,14,16,18,20,22,24,-1,-1,-1,-1,-1,-1,-1,-1,-1,-1,-1,-1],"split_conditions":[2.392E3,4E0,5.55E2,1.11E3,7E0,1E0,7.527609E3,2.9E1,1.661E3,1E0,1E0,1.996E3,2.93E2,-3.7226926E2,2.9874765E2,4.565444E2,1.8998632E3,-1.3004218E3,-6.9178015E2,-4.3477667E2,4.9878964E2,3.482123E2,-1.3984854E3,1.3090724E3,3.010404E3],"split_indices":[44,56,69,32,16,6,0,65,44,39,54,18,24,0,0,0,0,0,0,0,0,0,0,0,0],"split_type":[0,0,0,0,0,0,0,0,0,0,0,0,0,0,0,0,0,0,0,0,0,0,0,0,0],"sum_hessian":[9.46E2,8.94E2,5.2E1,6E2,2.94E2,5.1E1,1E0,5.32E2,6.8E1,2.07E2,8.7E1,6E0,4.5E1,2.37E2,2.95E2,3.5E1,3.3E1,5E1,1.57E2,6.4E1,2.3E1,3E0,3E0,2.6E1,1.9E1],"tree_param":{"num_deleted":"0","num_feature":"75","num_nodes":"25","size_leaf_vector":"1"}},{"base_weights":[-3.3635754E2,-4.7815464E3,1.9046588E4,-7.2333965E3,1.4352752E4,1.4902986E4,4.8723332E4,-4.675141E3,-1.7961783E4,-1.420156E4,1.8672475E4,1.1026798E4,4.0515918E4,3.755519E4,5.160689E3,-1.8501819E3,-1.8791412E2,-7.4231177E2,-1.3519603E3,-3.06202E1,-1.3844325E3,1.061578E3,-4.792923E2,4.6939078E2,3.1383142E3,1.2627958E3,2.4292295E3,2.2835093E3,-2.1467871E2],"categories":[],"categories_nodes":[],"categories_segments":[],"categories_sizes":[],"default_left":[0,0,0,0,0,0,0,0,0,0,0,0,0,0,0,0,0,0,0,0,0,0,0,0,0,0,0,0,0],"id":38,"left_children":[1,3,5,7,9,11,13,15,17,19,21,23,25,27,-1,-1,-1,-1,-1,-1,-1,-1,-1,-1,-1,-1,-1,-1,-1],"loss_changes":[8.082379E10,3.589953E10,2.0793385E10,1.849693E10,1.0996347E10,1.4941721E10,8.903483E9,1.6104014E10,3.2751206E9,2.1823805E9,5.699488E9,1.0943578E10,1.2355113E9,6.648533E9,0E0,0E0,0E0,0E0,0E0,0E0,0E0,0E0,0E0,0E0,0E0,0E0,0E0,0E0,0E0],"parents":[2147483647,0,0,1,1,2,2,3,3,4,4,5,5,6,6,7,7,8,8,9,9,10,10,11,11,12,12,13,13],"right_children":[2,4,6,8,10,12,14,16,18,20,22,24,26,28,-1,-1,-1,-1,-1,-1,-1,-1,-1,-1,-1,-1,-1,-1,-1],"split_conditions":[1.417E3,9.32E2,2.008E3,4E0,8.536E3,2E0,4E1,4E0,1.6E2,4E0,7.5E1,1.589E3,1.201E3,1.35E2,5.160689E3,-1.8501819E3,-1.8791412E2,-7.4231177E2,-1.3519603E3,-3.06202E1,-1.3844325E3,1.061578E3,-4.792923E2,4.6939078E2,3.1383142E3,1.2627958E3,2.4292295E3,2.2835093E3,-2.1467871E2],"split_indices":[36,42,57,1,3,54,68,16,0,1,0,42,32,65,0,0,0,0,0,0,0,0,0,0,0,0,0,0,0],"split_type":[0,0,0,0,0,0,0,0,0,0,0,0,0,0,0,0,0,0,0,0,0,0,0,0,0,0,0,0,0],"sum_hessian":[9.36E2,7.62E2,1.74E2,6.76E2,8.6E1,1.54E2,2E1,5.47E2,1.29E2,1.1E1,7.5E1,1.35E2,1.9E1,1.8E1,2E0,1.4E1,5.33E2,9.8E1,3.1E1,6E0,5E0,6.9E1,6E0,1.32E2,3E0,8E0,1.1E1,1.5E1,3E0],"tree_param":{"num_deleted":"0","num_feature":"75","num_nodes":"29","size_leaf_vector":"1"}},{"base_weights":[5.1800745E2,-9.376416E2,6.668447E4,-7.168508E3,9.418067E3,4.2709188E4,7.2957236E3,-9.98431E3,8.455658E3,5.1098857E3,2.3465797E4,2.5821895E4,3.0366287E3,-8.6521234E2,-3.4356604E2,1.7770693E3,1.6886028E2,6.342755E1,7.686225E2,1.0524739E3,3.7623208E3,3.5823068E2,1.6397178E3],"categories":[],"categories_nodes":[],"categories_segments":[],"categories_sizes":[],"default_left":[0,0,0,0,0,0,0,0,0,0,0,0,0,0,0,0,0,0,0,0,0,0,0],"id":39,"left_children":[1,3,5,7,9,11,-1,13,15,17,19,21,-1,-1,-1,-1,-1,-1,-1,-1,-1,-1,-1],"loss_changes":[8.501249E10,5.581715E10,2.9859783E10,2.3841485E10,1.9549151E10,3.301628E9,0E0,1.0317488E10,1.1296918E10,9.835986E9,7.9251087E9,1.0659128E9,0E0,0E0,0E0,0E0,0E0,0E0,0E0,0E0,0E0,0E0,0E0],"parents":[2147483647,0,0,1,1,2,2,3,3,4,4,5,5,7,7,8,8,9,9,10,10,11,11],"right_children":[2,4,6,8,10,12,-1,14,16,18,20,22,-1,-1,-1,-1,-1,-1,-1,-1,-1,-1,-1],"split_conditions":[2.696E3,1.992E3,9.1E1,1.2803E4,1.924E3,1.991E3,7.2957236E3,7.244E3,6E0,7.33E2,2.524E3,1.532E3,3.0366287E3,-8.6521234E2,-3.4356604E2,1.7770693E3,1.6886028E2,6.342755E1,7.686225E2,1.0524739E3,3.7623208E3,3.5823068E2,1.6397178E3],"split_indices":[44,17,2,3,44,57,0,3,21,32,36,41,0,0,0,0,0,0,0,0,0,0,0],"split_type":[0,0,0,0,0,0,0,0,0,0,0,0,0,0,0,0,0,0,0,0,0,0,0],"sum_hessian":[8.81E2,8.63E2,1.8E1,5.39E2,3.24E2,1.5E1,3E0,4.57E2,8.2E1,2.49E2,7.5E1,9E0,6E0,1.35E2,3.22E2,1.2E1,7E1,1.82E2,6.7E1,7.3E1,2E0,3E0,6E0],"tree_param":{"num_deleted":"0","num_feature":"75","num_nodes":"23","size_leaf_vector":"1"}},{"base_weights":[-2.6269238E2,-4.0599744E3,1.5887898E4,-9.095959E3,3.2708245E3,9.842797E3,2.8881822E4,-2.334627E4,-7.2919297E3,-2.3158875E2,1.875924E4,6.7329653E3,3.5638832E4,-1.4777286E3,3.159344E4,-9.686212E2,-1.7157874E3,-3.8628757E2,1.8793903E3,-2.785496E2,2.7736844E2,-2.3985497E2,1.0558263E3,1.7286125E2,1.0303612E3,7.7665155E2,2.5326685E3,1.2942167E3,4.1182905E3],"categories":[],"categories_nodes":[],"categories_segments":[],"categories_sizes":[],"default_left":[0,0,0,0,0,0,0,0,0,0,0,0,0,0,0,0,0,0,0,0,0,0,0,0,0,0,0,0,0],"id":40,"left_children":[1,3,5,7,9,11,13,15,17,19,21,23,25,-1,27,-1,-1,-1,-1,-1,-1,-1,-1,-1,-1,-1,-1,-1,-1],"loss_changes":[5.734518E10,2.7976516E10,1.3697552E10,1.1372638E10,1.6766618E10,9.627266E9,9.807335E9,1.5147725E9,8.0783073E9,7.837519E9,3.2664494E9,4.973538E9,3.1376302E9,0E0,1.3520716E10,0E0,0E0,0E0,0E0,0E0,0E0,0E0,0E0,0E0,0E0,0E0,0E0,0E0,0E0],"parents":[2147483647,0,0,1,1,2,2,3,3,4,4,5,5,6,6,7,7,8,8,9,9,10,10,11,11,12,12,14,14],"right_children":[2,4,6,8,10,12,14,16,18,20,22,24,26,-1,28,-1,-1,-1,-1,-1,-1,-1,-1,-1,-1,-1,-1,-1,-1],"split_conditions":[1.417E3,1E0,1.219E3,1E0,1.001E3,6.78E2,1E0,9E0,4.41E2,3.61E2,6E0,2.007E3,1.478E3,-1.4777286E3,2.121E3,-9.686212E2,-1.7157874E3,-3.8628757E2,1.8793903E3,-2.785496E2,2.7736844E2,-2.3985497E2,1.0558263E3,1.7286125E2,1.0303612E3,7.7665155E2,2.5326685E3,1.2942167E3,4.1182905E3],"split_indices":[36,48,32,39,42,42,6,71,64,32,10,17,36,0,36,0,0,0,0,0,0,0,0,0,0,0,0,0,0],"split_type":[0,0,0,0,0,0,0,0,0,0,0,0,0,0,0,0,0,0,0,0,0,0,0,0,0,0,0,0,0],"sum_hessian":[9.33E2,7.56E2,1.77E2,4.48E2,3.08E2,1.22E2,5.5E1,4.9E1,3.99E2,2.52E2,5.6E1,1.1E2,1.2E1,2E0,5.3E1,3.8E1,1.1E1,3.96E2,3E0,1.31E2,1.21E2,5E0,5.1E1,9E1,2E1,6E0,6E0,4.9E1,4E0],"tree_param":{"num_deleted":"0","num_feature":"75","num_nodes":"29","size_leaf_vector":"1"}},{"base_weights":[2.2916833E2,2.7626416E4,-2.407925E3,2.3188607E4,6.837961E3,-9.091788E3,3.0697114E3,1.5410026E4,4.4308902E4,-1.0371896E4,1.4724777E4,1.468331E3,2.6454299E4,2.0149744E2,1.1996956E3,2.4376384E3,-1.1142079E3,-7.7202124E2,-2.3597147E2,2.4473112E1,1.6034556E3,-1.7681224E2,4.097701E2,4.6600363E2,1.6676864E3],"categories":[],"categories_nodes":[],"categories_segments":[],"categories_sizes":[],"default_left":[0,0,0,0,0,0,0,0,0,0,0,0,0,0,0,0,0,0,0,0,0,0,0,0,0],"id":41,"left_children":[1,3,5,7,-1,9,11,13,15,17,19,21,23,-1,-1,-1,-1,-1,-1,-1,-1,-1,-1,-1,-1],"loss_changes":[6.7474936E10,3.6542222E10,3.1221137E10,1.2460069E10,0E0,1.1860036E10,1.7524089E10,5.7644227E9,7.300948E9,1.0384265E10,4.922344E9,1.4842081E10,3.235631E9,0E0,0E0,0E0,0E0,0E0,0E0,0E0,0E0,0E0,0E0,0E0,0E0],"parents":[2147483647,0,0,1,1,2,2,3,3,5,5,6,6,7,7,8,8,9,9,10,10,11,11,12,12],"right_children":[2,4,6,8,-1,10,12,14,16,18,20,22,24,-1,-1,-1,-1,-1,-1,-1,-1,-1,-1,-1,-1],"split_conditions":[1E0,1.589E3,1.984E3,2.008E3,6.837961E3,1.792E4,2E0,1.14E4,1.08E2,6E0,6E0,5.28E2,1.182E3,2.0149744E2,1.1996956E3,2.4376384E3,-1.1142079E3,-7.7202124E2,-2.3597147E2,2.4473112E1,1.6034556E3,-1.7681224E2,4.097701E2,4.6600363E2,1.6676864E3],"split_indices":[28,42,18,57,0,3,54,3,2,16,15,60,41,0,0,0,0,0,0,0,0,0,0,0,0],"split_type":[0,0,0,0,0,0,0,0,0,0,0,0,0,0,0,0,0,0,0,0,0,0,0,0,0],"sum_hessian":[9.32E2,8.1E1,8.51E2,7.9E1,2E0,3.83E2,4.68E2,5.9E1,2E1,3.64E2,1.9E1,4.39E2,2.9E1,2.6E1,3.3E1,1.9E1,1E0,1.91E2,1.73E2,1.1E1,8E0,2.52E2,1.87E2,9E0,2E1],"tree_param":{"num_deleted":"0","num_feature":"75","num_nodes":"25","size_leaf_vector":"1"}},{"base_weights":[1.353035E2,3.0737662E4,-2.1731433E3,2.6201754E4,5.8628906E3,-5.757711E3,7.3350156E3,1.9350994E4,6.59174E4,-2.0134611E4,-4.057693E3,1.6776344E4,-1.9342712E3,1.148259E3,-1.105337E3,4.2023804E3,1.1121377E3,-1.1444767E3,-4.0351523E2,-2.3688615E2,9.8922266E2,6.1755096E2,2.0460579E3,-1.839063E2,7.178786E2],"categories":[],"categories_nodes":[],"categories_segments":[],"categories_sizes":[],"default_left":[0,0,0,0,0,0,0,0,0,0,0,0,0,0,0,0,0,0,0,0,0,0,0,0,0],"id":42,"left_children":[1,3,5,7,-1,9,11,13,15,17,19,21,23,-1,-1,-1,-1,-1,-1,-1,-1,-1,-1,-1,-1],"loss_changes":[6.647208E10,2.282917E10,2.9864542E10,1.6137712E10,0E0,1.5462767E10,2.10359E10,8.898499E9,5.2570194E9,2.0420997E9,9.335356E9,1.2209566E10,3.5189025E9,0E0,0E0,0E0,0E0,0E0,0E0,0E0,0E0,0E0,0E0,0E0,0E0],"parents":[2147483647,0,0,1,1,2,2,3,3,5,5,6,6,7,7,8,8,9,9,10,10,11,11,12,12],"right_children":[2,4,6,8,-1,10,12,14,16,18,20,22,24,-1,-1,-1,-1,-1,-1,-1,-1,-1,-1,-1,-1],"split_conditions":[1E0,1.589E3,1.59E2,4E1,5.8628906E3,1E0,2E0,1.15E2,8E1,5.8E1,1.8E3,9E0,9.78E2,1.148259E3,-1.105337E3,4.2023804E3,1.1121377E3,-1.1444767E3,-4.0351523E2,-2.3688615E2,9.8922266E2,6.1755096E2,2.0460579E3,-1.839063E2,7.178786E2],"split_indices":[51,42,64,68,0,39,5,2,0,65,41,52,42,0,0,0,0,0,0,0,0,0,0,0,0],"split_type":[0,0,0,0,0,0,0,0,0,0,0,0,0,0,0,0,0,0,0,0,0,0,0,0,0],"sum_hessian":[9.39E2,6.5E1,8.74E2,6.3E1,2E0,6.35E2,2.39E2,5.5E1,8E0,6.6E1,5.69E2,1.18E2,1.21E2,5.1E1,4E0,5E0,3E0,5.3E1,1.3E1,5.54E2,1.5E1,1.01E2,1.7E1,1.1E2,1.1E1],"tree_param":{"num_deleted":"0","num_feature":"75","num_nodes":"25","size_leaf_vector":"1"}},{"base_weights":[-9.5677155E2,-8.416944E3,6.25569E3,-1.5736526E4,-4.0616687E3,1.7240192E3,1.9760807E4,-2.0493693E4,-7.7857188E3,-6.4362583E3,8.402929E3,-5.3979355E3,6.8029204E3,4.795116E3,2.4919697E4,-1.8426653E3,-8.9195685E2,-6.9160706E2,-1.0175566E2,-4.0719247E2,1.691638E2,1.8644609E3,2.038123E2,-1.3431731E3,-2.0796597E2,2.1854228E2,9.419206E2,9.878411E1,8.341691E2,1.0974594E3,2.6126238E3],"categories":[],"categories_nodes":[],"categories_segments":[],"categories_sizes":[],"default_left":[0,0,0,0,0,0,0,0,0,0,0,0,0,0,0,0,0,0,0,0,0,0,0,0,0,0,0,0,0,0,0],"id":43,"left_children":[1,3,5,7,9,11,13,15,17,19,21,23,25,27,29,-1,-1,-1,-1,-1,-1,-1,-1,-1,-1,-1,-1,-1,-1,-1,-1],"loss_changes":[5.0576687E10,1.4664088E10,2.921989E10,6.3460516E9,8.667189E9,1.3022364E10,9.145266E9,3.9893074E9,2.266709E9,4.1356503E9,5.7221453E9,3.8763986E9,6.0646144E9,1.03962074E9,6.0792177E9,0E0,0E0,0E0,0E0,0E0,0E0,0E0,0E0,0E0,0E0,0E0,0E0,0E0,0E0,0E0,0E0],"parents":[2147483647,0,0,1,1,2,2,3,3,4,4,5,5,6,6,7,7,8,8,9,9,10,10,11,11,12,12,13,13,14,14],"right_children":[2,4,6,8,10,12,14,16,18,20,22,24,26,28,30,-1,-1,-1,-1,-1,-1,-1,-1,-1,-1,-1,-1,-1,-1,-1,-1],"split_conditions":[1.993E3,2.92E2,7.74E2,6E0,1.2803E4,6.6E1,1E0,2E0,7.48E2,6.86E2,4E0,4E0,5E0,3E0,2.008E3,-1.8426653E3,-8.9195685E2,-6.9160706E2,-1.0175566E2,-4.0719247E2,1.691638E2,1.8644609E3,2.038123E2,-1.3431731E3,-2.0796597E2,2.1854228E2,9.419206E2,9.878411E1,8.341691E2,1.0974594E3,2.6126238E3],"split_indices":[18,32,32,16,3,2,54,29,35,42,21,53,74,14,17,0,0,0,0,0,0,0,0,0,0,0,0,0,0,0,0],"split_type":[0,0,0,0,0,0,0,0,0,0,0,0,0,0,0,0,0,0,0,0,0,0,0,0,0,0,0,0,0,0,0],"sum_hessian":[9.38E2,4.61E2,4.77E2,1.71E2,2.9E2,3.58E2,1.19E2,1.06E2,6.5E1,2.44E2,4.6E1,1.49E2,2.09E2,3.1E1,8.8E1,1.3E1,9.3E1,3.1E1,3.4E1,2.08E2,3.6E1,5E0,4.1E1,7E0,1.42E2,1.75E2,3.4E1,2.6E1,5E0,8.1E1,7E0],"tree_param":{"num_deleted":"0","num_feature":"75","num_nodes":"31","size_leaf_vector":"1"}},{"base_weights":[7.206341E2,-3.2325422E3,1.679288E4,-4.564185E3,1.8210855E4,1.3775534E4,7.259186E4,-7.670939E1,-9.516592E3,4.1273145E4,1.0892215E4,9.752112E2,2.2550508E4,2.549664E3,1.0718801E5,-3.4482495E2,1.6808417E2,-6.7132385E2,-1.8046448E2,3.4294246E3,9.8841064E2,2.1695178E2,8.595078E2,9.6773175E2,-2.3617163E2,6.911755E2,1.7101643E3,-2.7399765E2,3.526427E2,2.3945923E3,6.2431567E3],"categories":[],"categories_nodes":[],"categories_segments":[],"categories_sizes":[],"default_left":[0,0,0,0,0,0,0,0,0,0,0,0,0,0,0,0,0,0,0,0,0,0,0,0,0,0,0,0,0,0,0],"id":44,"left_children":[1,3,5,7,9,11,13,15,17,19,21,23,25,27,29,-1,-1,-1,-1,-1,-1,-1,-1,-1,-1,-1,-1,-1,-1,-1,-1],"loss_changes":[5.7935966E10,2.098534E10,2.9305684E10,1.5333695E10,6.808182E9,1.9297475E10,2.1535425E10,8.535213E9,7.5273134E9,4.518275E9,1.3286444E9,7.527804E9,9.899958E9,1.8328488E8,3.0846976E8,0E0,0E0,0E0,0E0,0E0,0E0,0E0,0E0,0E0,0E0,0E0,0E0,0E0,0E0,0E0,0E0],"parents":[2147483647,0,0,1,1,2,2,3,3,4,4,5,5,6,6,7,7,8,8,9,9,10,10,11,11,12,12,13,13,14,14],"right_children":[2,4,6,8,10,12,14,16,18,20,22,24,26,28,30,-1,-1,-1,-1,-1,-1,-1,-1,-1,-1,-1,-1,-1,-1,-1,-1],"split_conditions":[1.924E3,2.007E3,2.217E3,3E0,4.79E2,1.995E3,1.5E1,1.11E3,1E0,2.009E3,2.008E3,3E0,1.368E3,9.638E3,1.2803E4,-3.4482495E2,1.6808417E2,-6.7132385E2,-1.8046448E2,3.4294246E3,9.8841064E2,2.1695178E2,8.595078E2,9.6773175E2,-2.3617163E2,6.911755E2,1.7101643E3,-2.7399765E2,3.526427E2,2.3945923E3,6.2431567E3],"split_indices":[44,17,41,31,35,18,10,44,54,72,57,30,41,3,3,0,0,0,0,0,0,0,0,0,0,0,0,0,0,0,0],"split_type":[0,0,0,0,0,0,0,0,0,0,0,0,0,0,0,0,0,0,0,0,0,0,0,0,0,0,0,0,0,0,0],"sum_hessian":[9.1E2,7.31E2,1.79E2,6.89E2,4.2E1,1.71E2,8E0,3.62E2,3.27E2,9E0,3.3E1,7E1,1.01E2,3E0,5E0,1.21E2,2.41E2,1.96E2,1.31E2,3E0,6E0,1.7E1,1.6E1,1.6E1,5.4E1,5.9E1,4.2E1,1E0,2E0,2E0,3E0],"tree_param":{"num_deleted":"0","num_feature":"75","num_nodes":"31","size_leaf_vector":"1"}},{"base_weights":[2.6096805E2,-2.9378796E3,1.7830266E4,-5.766007E3,7.3210063E3,1.6114935E4,6.492302E3,-1.53740205E4,-3.4879756E3,-1.6695369E2,1.45497E4,2.5119299E4,3.174644E3,-8.4319435E1,-8.6851874E2,-3.3165396E2,1.0594506E2,1.076896E2,-6.5037366E2,1.9393258E3,5.238907E2,1.050831E3,2.6483591E3,4.2920126E2,-1.2094865E3],"categories":[],"categories_nodes":[],"categories_segments":[],"categories_sizes":[],"default_left":[0,0,0,0,0,0,0,0,0,0,0,0,0,0,0,0,0,0,0,0,0,0,0,0,0],"id":45,"left_children":[1,3,5,7,9,11,-1,13,15,17,19,21,23,-1,-1,-1,-1,-1,-1,-1,-1,-1,-1,-1,-1],"loss_changes":[5.181398E10,2.2672691E10,2.5192018E10,1.334144E10,9.15009E9,1.6349446E10,0E0,3.1677727E9,8.760623E9,2.53118E9,8.080902E9,8.3696353E9,8.941082E9,0E0,0E0,0E0,0E0,0E0,0E0,0E0,0E0,0E0,0E0,0E0,0E0],"parents":[2147483647,0,0,1,1,2,2,3,3,4,4,5,5,7,7,8,8,9,9,10,10,11,11,12,12],"right_children":[2,4,6,8,10,12,-1,14,16,18,20,22,24,-1,-1,-1,-1,-1,-1,-1,-1,-1,-1,-1,-1],"split_conditions":[1.97E3,1.314E3,1.796E3,6.204E3,1E0,3E0,6.492302E3,2E0,1E0,1.728E3,3E0,4E1,4E0,-8.4319435E1,-8.6851874E2,-3.3165396E2,1.0594506E2,1.076896E2,-6.5037366E2,1.9393258E3,5.238907E2,1.050831E3,2.6483591E3,4.2920126E2,-1.2094865E3],"split_indices":[44,36,42,3,45,25,0,1,48,36,6,68,1,0,0,0,0,0,0,0,0,0,0,0,0],"split_type":[0,0,0,0,0,0,0,0,0,0,0,0,0,0,0,0,0,0,0,0,0,0,0,0,0],"sum_hessian":[9.2E2,7.79E2,1.41E2,6.11E2,1.68E2,1.4E2,1E0,1.16E2,4.95E2,8.3E1,8.5E1,8.2E1,5.8E1,1.5E1,1.01E2,3.17E2,1.78E2,7.1E1,1.2E1,1.1E1,7.4E1,7.3E1,9E0,4.9E1,9E0],"tree_param":{"num_deleted":"0","num_feature":"75","num_nodes":"25","size_leaf_vector":"1"}},{"base_weights":[-4.787984E2,2.5392291E4,-2.3805427E3,2.18328E4,6.3299937E3,-7.671917E3,2.9281887E3,1.6144201E4,5.480266E4,-1.2220243E4,-2.2833374E3,-1.0849676E2,1.5499916E4,9.5454E2,-1.3467139E3,4.792928E2,3.7906711E3,-1.1900571E3,-4.6005273E2,-1.8350749E2,1.1191283E3,-1.6595573E2,2.3317957E2,6.2595844E2,1.7342545E3],"categories":[],"categories_nodes":[],"categories_segments":[],"categories_sizes":[],"default_left":[0,0,0,0,0,0,0,0,0,0,0,0,0,0,0,0,0,0,0,0,0,0,0,0,0],"id":46,"left_children":[1,3,5,7,-1,9,11,13,15,17,19,21,23,-1,-1,-1,-1,-1,-1,-1,-1,-1,-1,-1,-1],"loss_changes":[4.670224E10,2.0652057E10,2.4854454E10,1.1118604E10,0E0,1.0829595E10,1.6875641E10,7.6225546E9,7.82362E9,8.172585E9,7.0603694E9,5.4852014E9,4.4837827E9,0E0,0E0,0E0,0E0,0E0,0E0,0E0,0E0,0E0,0E0,0E0,0E0],"parents":[2147483647,0,0,1,1,2,2,3,3,5,5,6,6,7,7,8,8,9,9,10,10,11,11,12,12],"right_children":[2,4,6,8,-1,10,12,14,16,18,20,22,24,-1,-1,-1,-1,-1,-1,-1,-1,-1,-1,-1,-1],"split_conditions":[1E0,1.796E3,1.993E3,4E1,6.3299937E3,6E0,1.92E3,1.15E2,1.716E3,1.947E3,3.66E2,1E0,2.006E3,9.5454E2,-1.3467139E3,4.792928E2,3.7906711E3,-1.1900571E3,-4.6005273E2,-1.8350749E2,1.1191283E3,-1.6595573E2,2.3317957E2,6.2595844E2,1.7342545E3],"split_indices":[51,42,18,68,0,16,44,2,44,17,64,45,57,0,0,0,0,0,0,0,0,0,0,0,0],"split_type":[0,0,0,0,0,0,0,0,0,0,0,0,0,0,0,0,0,0,0,0,0,0,0,0,0],"sum_hessian":[9.47E2,6.4E1,8.83E2,6.3E1,1E0,4.42E2,4.41E2,5.5E1,8E0,2.39E2,2.03E2,3.56E2,8.5E1,5.2E1,3E0,3E0,5E0,4.8E1,1.91E2,1.93E2,1E1,2.13E2,1.43E2,7.5E1,1E1],"tree_param":{"num_deleted":"0","num_feature":"75","num_nodes":"25","size_leaf_vector":"1"}},{"base_weights":[-7.1366785E2,-5.917527E3,5.6140415E3,-1.8736445E4,-4.178296E3,1.2109004E4,6.85837E2,-2.0589344E4,-7.2277334E3,-7.03216E3,3.3665012E3,6.2694756E3,2.0356473E4,-2.4528775E4,2.3489795E3,-4.0074318E1,-1.0892245E3,4.2649435E2,-7.599777E2,-7.889631E2,-2.759178E2,2.660983E2,-8.69152E2,7.990182E1,8.6571027E2,1.1055768E3,-1.4567773E3,-2.8859396E2,-1.4368505E3,3.171803E2,-1.3938162E2],"categories":[],"categories_nodes":[],"categories_segments":[],"categories_sizes":[],"default_left":[0,0,0,0,0,0,0,0,0,0,0,0,0,0,0,0,0,0,0,0,0,0,0,0,0,0,0,0,0,0,0],"id":47,"left_children":[1,3,5,7,9,11,13,15,17,19,21,23,25,27,29,-1,-1,-1,-1,-1,-1,-1,-1,-1,-1,-1,-1,-1,-1,-1,-1],"loss_changes":[3.0788444E10,1.135908E10,1.3499283E10,1.1519795E9,9.777592E9,8.637737E9,1.0164071E10,1.2123054E9,1.3858196E9,4.2693448E9,5.164387E9,5.544568E9,7.1588516E9,1.0181335E9,4.675462E9,0E0,0E0,0E0,0E0,0E0,0E0,0E0,0E0,0E0,0E0,0E0,0E0,0E0,0E0,0E0,0E0],"parents":[2147483647,0,0,1,1,2,2,3,3,4,4,5,5,6,6,7,7,8,8,9,9,10,10,11,11,12,12,13,13,14,14],"right_children":[2,4,6,8,10,12,14,16,18,20,22,24,26,28,30,-1,-1,-1,-1,-1,-1,-1,-1,-1,-1,-1,-1,-1,-1,-1,-1],"split_conditions":[1.052E3,1E0,3E0,1.0656E4,7.62E2,9.43E2,5E0,1E0,1.0859E4,4E0,4E0,1E0,2.65E2,2E0,3E0,-4.0074318E1,-1.0892245E3,4.2649435E2,-7.599777E2,-7.889631E2,-2.759178E2,2.660983E2,-8.69152E2,7.990182E1,8.6571027E2,1.1055768E3,-1.4567773E3,-2.8859396E2,-1.4368505E3,3.171803E2,-1.3938162E2],"split_indices":[36,39,30,3,42,32,16,38,3,61,1,48,65,58,51,0,0,0,0,0,0,0,0,0,0,0,0,0,0,0,0],"split_type":[0,0,0,0,0,0,0,0,0,0,0,0,0,0,0,0,0,0,0,0,0,0,0,0,0,0,0,0,0,0,0],"sum_hessian":[9.33E2,5.12E2,4.21E2,6E1,4.52E2,1.81E2,2.4E2,5.1E1,9E0,3.28E2,1.24E2,1.07E2,7.4E1,1.4E1,2.26E2,3E0,4.8E1,3E0,6E0,4.7E1,2.81E2,1.14E2,1E1,7.6E1,3.1E1,7.2E1,2E0,3E0,1.1E1,1.27E2,9.9E1],"tree_param":{"num_deleted":"0","num_feature":"75","num_nodes":"31","size_leaf_vector":"1"}},{"base_weights":[-3.0036749E1,-3.7499565E3,1.0289862E4,-5.6038384E3,7.8811553E3,6.464962E3,2.8896158E4,-2.0269455E4,-4.5932505E3,3.0222937E3,6.1007754E3,-1.2530907E3,1.2412636E4,3.3731477E4,-1.2736119E3,-1.083309E3,7.85234E2,-5.702973E2,-1.225235E2,1.20642265E2,8.9465283E2,-3.0222662E2,9.257336E2,9.285511E2,3.511275E2,1.1648629E3,2.4436538E3],"categories":[],"categories_nodes":[],"categories_segments":[],"categories_sizes":[],"default_left":[0,0,0,0,0,0,0,0,0,0,0,0,0,0,0,0,0,0,0,0,0,0,0,0,0,0,0],"id":48,"left_children":[1,3,5,7,9,11,13,15,17,-1,19,21,23,25,-1,-1,-1,-1,-1,-1,-1,-1,-1,-1,-1,-1,-1],"loss_changes":[3.5932484E10,1.4879305E10,1.746266E10,8.710506E9,8.521825E9,9.517777E9,1.1900535E10,2.2496061E9,8.1031987E9,0E0,4.001314E9,8.731077E9,3.7533082E9,5.0230354E9,0E0,0E0,0E0,0E0,0E0,0E0,0E0,0E0,0E0,0E0,0E0,0E0,0E0],"parents":[2147483647,0,0,1,1,2,2,3,3,4,4,5,5,6,6,7,7,8,8,10,10,11,11,12,12,13,13],"right_children":[2,4,6,8,10,12,14,16,18,-1,20,22,24,26,-1,-1,-1,-1,-1,-1,-1,-1,-1,-1,-1,-1,-1],"split_conditions":[1.761E3,1.417E3,1.121E3,5E0,1.422E3,1.994E3,1.2E2,1.2E1,6.6E3,3.0222937E3,2.007E3,7E0,3E0,1.4859E4,-1.2736119E3,-1.083309E3,7.85234E2,-5.702973E2,-1.225235E2,1.20642265E2,8.9465283E2,-3.0222662E2,9.257336E2,9.285511E2,3.511275E2,1.1648629E3,2.4436538E3],"split_indices":[44,36,32,16,41,18,2,71,3,0,18,16,31,3,0,0,0,0,0,0,0,0,0,0,0,0,0],"split_type":[0,0,0,0,0,0,0,0,0,0,0,0,0,0,0,0,0,0,0,0,0,0,0,0,0,0,0],"sum_hessian":[9.34E2,6.87E2,2.47E2,5.93E2,9.4E1,2.06E2,4.1E1,3.7E1,5.56E2,2E0,9.2E1,9E1,1.16E2,3.8E1,3E0,3.6E1,1E0,1.32E2,4.24E2,7.1E1,2.1E1,7.3E1,1.7E1,5.3E1,6.3E1,2.4E1,1.4E1],"tree_param":{"num_deleted":"0","num_feature":"75","num_nodes":"27","size_leaf_vector":"1"}},{"base_weights":[-4.5041878E1,2.569262E4,-2.0225399E3,2.2338904E4,6.1759453E3,-4.7041987E3,6.5607573E3,1.6338807E4,4.7977777E4,-9.623658E3,-1.9531337E2,-1.4978309E4,8.19233E3,9.848626E2,-1.0592552E3,7.614896E2,3.4596758E3,-6.615969E2,-2.0821211E2,-7.618319E1,6.718645E2,-3.2784384E2,-1.5254899E3,1.1001068E2,7.692553E2],"categories":[],"categories_nodes":[],"categories_segments":[],"categories_sizes":[],"default_left":[0,0,0,0,0,0,0,0,0,0,0,0,0,0,0,0,0,0,0,0,0,0,0,0,0],"id":49,"left_children":[1,3,5,7,-1,9,11,13,15,17,19,21,23,-1,-1,-1,-1,-1,-1,-1,-1,-1,-1,-1,-1],"loss_changes":[4.7792574E10,1.922218E10,2.0102103E10,9.369262E9,0E0,1.4748667E10,7.43236E9,7.3484995E9,7.283466E9,6.2092165E9,6.322362E9,1.761912E9,8.3275397E9,0E0,0E0,0E0,0E0,0E0,0E0,0E0,0E0,0E0,0E0,0E0,0E0],"parents":[2147483647,0,0,1,1,2,2,3,3,5,5,6,6,7,7,8,8,9,9,10,10,11,11,12,12],"right_children":[2,4,6,8,-1,10,12,14,16,18,20,22,24,-1,-1,-1,-1,-1,-1,-1,-1,-1,-1,-1,-1],"split_conditions":[1E0,1.796E3,1.1643E4,4E1,6.1759453E3,1.988E3,1E0,1.15E2,1.716E3,4.98E2,2.007E3,4E0,1.784E3,9.848626E2,-1.0592552E3,7.614896E2,3.4596758E3,-6.615969E2,-2.0821211E2,-7.618319E1,6.718645E2,-3.2784384E2,-1.5254899E3,1.1001068E2,7.692553E2],"split_indices":[51,42,3,68,0,18,74,2,44,32,17,56,44,0,0,0,0,0,0,0,0,0,0,0,0],"split_type":[0,0,0,0,0,0,0,0,0,0,0,0,0,0,0,0,0,0,0,0,0,0,0,0,0],"sum_hessian":[9.37E2,6.6E1,8.71E2,6.5E1,1E0,6.64E2,2.07E2,5.4E1,1.1E1,3.17E2,3.47E2,1.4E1,1.93E2,5E1,4E0,5E0,6E0,1.9E2,1.27E2,3.17E2,3E1,1E1,4E0,1.06E2,8.7E1],"tree_param":{"num_deleted":"0","num_feature":"75","num_nodes":"25","size_leaf_vector":"1"}},{"base_weights":[3.2682288E2,2.640427E4,-1.2530988E3,2.2280084E4,6.021547E3,7.3956415E2,-1.1809498E4,2.4767834E4,-1.3304559E3,-1.2456356E3,1.182881E4,-1.2474389E4,1.9986344E3,8.6542694E2,2.0509478E3,-2.7911823E2,9.353583E1,9.1843524E2,1.023081E2,-1.1942704E3,-5.4443054E2],"categories":[],"categories_nodes":[],"categories_segments":[],"categories_sizes":[],"default_left":[0,0,0,0,0,0,0,0,0,0,0,0,0,0,0,0,0,0,0,0,0],"id":50,"left_children":[1,3,5,7,-1,9,11,13,-1,15,17,19,-1,-1,-1,-1,-1,-1,-1,-1,-1],"loss_changes":[3.8225785E10,1.7869308E10,1.8414662E10,6.983506E9,0E0,1.6239323E10,5.2843315E9,5.351117E9,0E0,8.4706913E9,7.127894E9,2.2370775E9,0E0,0E0,0E0,0E0,0E0,0E0,0E0,0E0,0E0],"parents":[2147483647,0,0,1,1,2,2,3,3,5,5,6,6,7,7,9,9,10,10,11,11],"right_children":[2,4,6,8,-1,10,12,14,-1,16,18,20,-1,-1,-1,-1,-1,-1,-1,-1,-1],"split_conditions":[1E0,1.3E1,4E0,3.493E3,6.021547E3,1.96E3,2.007E3,2.008E3,-1.3304559E3,2.92E2,8E0,5E0,1.9986344E3,8.6542694E2,2.0509478E3,-2.7911823E2,9.353583E1,9.1843524E2,1.023081E2,-1.1942704E3,-5.4443054E2],"split_indices":[51,21,1,44,0,44,57,57,0,32,71,53,0,0,0,0,0,0,0,0,0],"split_type":[0,0,0,0,0,0,0,0,0,0,0,0,0,0,0,0,0,0,0,0,0],"sum_hessian":[9.26E2,5.2E1,8.74E2,5.1E1,1E0,7.36E2,1.38E2,4.9E1,2E0,6.25E2,1.11E2,1.37E2,1E0,3.5E1,1.4E1,2.61E2,3.64E2,6.6E1,4.5E1,1.5E1,1.22E2],"tree_param":{"num_deleted":"0","num_feature":"75","num_nodes":"21","size_leaf_vector":"1"}},{"base_weights":[3.6691943E2,-1.630107E3,2.131884E4,-9.284663E3,9.279658E2,1.5128975E4,8.459329E4,-1.3759227E4,-3.6879631E3,-5.1961787E3,4.1860767E3,2.0965957E4,-6.01873E3,1.6215751E3,5.7803374E3,-6.353513E2,-1.5641232E3,-6.3520325E1,-9.5127045E2,-1.1944823E3,-2.0542085E2,1.0627599E2,6.701751E2,1.796121E3,6.187445E2,-2.6867039E3,1.609297E1],"categories":[],"categories_nodes":[],"categories_segments":[],"categories_sizes":[],"default_left":[0,0,0,0,0,0,0,0,0,0,0,0,0,0,0,0,0,0,0,0,0,0,0,0,0,0,0],"id":51,"left_children":[1,3,5,7,9,11,13,15,17,19,21,23,25,-1,-1,-1,-1,-1,-1,-1,-1,-1,-1,-1,-1,-1,-1],"loss_changes":[3.8947385E10,1.665239E10,3.0444683E10,5.283371E9,1.2751856E10,9.3841E9,7.5747205E9,1.7781719E9,3.5354276E9,4.4160077E9,7.891603E9,7.1364895E9,5.1605325E9,0E0,0E0,0E0,0E0,0E0,0E0,0E0,0E0,0E0,0E0,0E0,0E0,0E0,0E0],"parents":[2147483647,0,0,1,1,2,2,3,3,4,4,5,5,6,6,7,7,8,8,9,9,10,10,11,11,12,12],"right_children":[2,4,6,8,10,12,14,16,18,20,22,24,26,-1,-1,-1,-1,-1,-1,-1,-1,-1,-1,-1,-1,-1,-1],"split_conditions":[1.709E3,7.244E3,3E0,1.981E3,6E0,3E0,1.05E2,2E0,7.25E2,1E0,2.006E3,3E0,3E0,1.6215751E3,5.7803374E3,-6.353513E2,-1.5641232E3,-6.3520325E1,-9.5127045E2,-1.1944823E3,-2.0542085E2,1.0627599E2,6.701751E2,1.796121E3,6.187445E2,-2.6867039E3,1.609297E1],"split_indices":[41,3,47,57,15,31,2,37,42,29,18,49,71,0,0,0,0,0,0,0,0,0,0,0,0,0,0],"split_type":[0,0,0,0,0,0,0,0,0,0,0,0,0,0,0,0,0,0,0,0,0,0,0,0,0,0,0],"sum_hessian":[9.29E2,8.49E2,8E1,2.12E2,6.37E2,7.4E1,6E0,1.17E2,9.5E1,2.21E2,4.16E2,5.8E1,1.6E1,3E0,3E0,1.12E2,5E0,8.3E1,1.2E1,1.1E1,2.1E2,3.41E2,7.5E1,2E1,3.8E1,1E0,1.5E1],"tree_param":{"num_deleted":"0","num_feature":"75","num_nodes":"27","size_leaf_vector":"1"}},{"base_weights":[5.616654E2,-1.264739E3,1.9232139E4,-4.4329097E3,4.4173877E3,1.5679546E4,5.4962817E3,-1.0321108E4,-5.294963E2,2.648323E3,2.5240973E4,2.4513142E3,1.2877468E4,-1.0403035E3,-4.0783136E2,-1.2993417E2,5.758189E2,8.5000984E1,1.1179487E3,7.8819794E2,2.3002292E3,-1.3927592E3,7.167537E2],"categories":[],"categories_nodes":[],"categories_segments":[],"categories_sizes":[],"default_left":[0,0,0,0,0,0,0,0,0,0,0,0,0,0,0,0,0,0,0,0,0,0,0],"id":52,"left_children":[1,3,5,7,9,11,-1,13,15,17,19,-1,21,-1,-1,-1,-1,-1,-1,-1,-1,-1,-1],"loss_changes":[3.2146369E10,1.5483255E10,2.5340967E10,1.2681744E10,1.1279342E10,7.0307574E9,0E0,4.823083E9,8.330008E9,5.2891167E9,3.9974339E9,0E0,4.970964E9,0E0,0E0,0E0,0E0,0E0,0E0,0E0,0E0,0E0,0E0],"parents":[2147483647,0,0,1,1,2,2,3,3,4,4,5,5,7,7,8,8,9,9,10,10,12,12],"right_children":[2,4,6,8,10,12,-1,14,16,18,20,-1,22,-1,-1,-1,-1,-1,-1,-1,-1,-1,-1],"split_conditions":[1.121E3,1.989E3,1.796E3,6E0,2.372E3,4E0,5.4962817E3,1.931E3,1.2589E4,6E0,1.16E2,2.4513142E3,1E0,-1.0403035E3,-4.0783136E2,-1.2993417E2,5.758189E2,8.5000984E1,1.1179487E3,7.8819794E2,2.3002292E3,-1.3927592E3,7.167537E2],"split_indices":[32,17,42,16,44,21,0,17,3,16,65,0,6,0,0,0,0,0,0,0,0,0,0],"split_type":[0,0,0,0,0,0,0,0,0,0,0,0,0,0,0,0,0,0,0,0,0,0,0],"sum_hessian":[9.41E2,8.58E2,8.3E1,5.51E2,3.07E2,8.1E1,2E0,2.19E2,3.32E2,2.84E2,2.3E1,5E0,7.6E1,3.6E1,1.83E2,2.84E2,4.8E1,2.72E2,1.2E1,1.7E1,6E0,2E0,7.4E1],"tree_param":{"num_deleted":"0","num_feature":"75","num_nodes":"23","size_leaf_vector":"1"}},{"base_weights":[1.624115E2,2.1159826E4,-1.4137944E3,1.7997266E4,5.5890923E3,-2.0652473E3,2.7735984E4,1.1984037E4,4.305592E4,-6.2857754E3,1.807438E3,1.2500631E4,4.3275195E4,7.0189606E2,-1.3463336E3,6.747033E2,3.1121907E3,-5.156581E2,-8.491674E1,-4.3206493E1,4.7173642E2,9.276128E2,7.641141E1,1.057031E3,2.8377366E3],"categories":[],"categories_nodes":[],"categories_segments":[],"categories_sizes":[],"default_left":[0,0,0,0,0,0,0,0,0,0,0,0,0,0,0,0,0,0,0,0,0,0,0,0,0],"id":53,"left_children":[1,3,5,7,-1,9,11,13,15,17,19,21,23,-1,-1,-1,-1,-1,-1,-1,-1,-1,-1,-1,-1],"loss_changes":[3.080943E10,1.6617077E10,1.6502366E10,9.127758E9,0E0,1.3871732E10,3.9571937E9,4.6136525E9,5.9668316E9,7.4834944E9,9.035085E9,7.020576E8,1.4854451E9,0E0,0E0,0E0,0E0,0E0,0E0,0E0,0E0,0E0,0E0,0E0,0E0],"parents":[2147483647,0,0,1,1,2,2,3,3,5,5,6,6,7,7,8,8,9,9,10,10,11,11,12,12],"right_children":[2,4,6,8,-1,10,12,14,16,18,20,22,24,-1,-1,-1,-1,-1,-1,-1,-1,-1,-1,-1,-1],"split_conditions":[1E0,1.796E3,2.5419E4,4E1,5.5890923E3,1.99E3,7E0,2.1286E4,8E0,6E0,7.05E2,5.3E2,2E0,7.0189606E2,-1.3463336E3,6.747033E2,3.1121907E3,-5.156581E2,-8.491674E1,-4.3206493E1,4.7173642E2,9.276128E2,7.641141E1,1.057031E3,2.8377366E3],"split_indices":[51,42,3,68,0,18,15,3,52,16,32,60,19,0,0,0,0,0,0,0,0,0,0,0,0],"split_type":[0,0,0,0,0,0,0,0,0,0,0,0,0,0,0,0,0,0,0,0,0,0,0,0,0],"sum_hessian":[9.29E2,6.4E1,8.65E2,6.3E1,1E0,8.47E2,1.8E1,