{"learner":{"attributes":{"best_iteration":"161","best_score":"31425.745614215124"},"feature_names":["OverallQual","GarageCars","ExterQual","FullBath","GrLivArea","KitchenAbvGr","KitchenQual","GarageType","BsmtQual","TotRmsAbvGrd"],"feature_types":["int","int","int","int","int","int","int","int","int","int"],"gradient_booster":{"model":{"gbtree_model_param":{"num_parallel_tree":"1","num_trees":"172"},"iteration_indptr":[0,1,2,3,4,5,6,7,8,9,10,11,12,13,14,15,16,17,18,19,20,21,22,23,24,25,26,27,28,29,30,31,32,33,34,35,36,37,38,39,40,41,42,43,44,45,46,47,48,49,50,51,52,53,54,55,56,57,58,59,60,61,62,63,64,65,66,67,68,69,70,71,72,73,74,75,76,77,78,79,80,81,82,83,84,85,86,87,88,89,90,91,92,93,94,95,96,97,98,99,100,101,102,103,104,105,106,107,108,109,110,111,112,113,114,115,116,117,118,119,120,121,122,123,124,125,126,127,128,129,130,131,132,133,134,135,136,137,138,139,140,141,142,143,144,145,146,147,148,149,150,151,152,153,154,155,156,157,158,159,160,161,162,163,164,165,166,167,168,169,170,171,172],"tree_info":[0,0,0,0,0,0,0,0,0,0,0,0,0,0,0,0,0,0,0,0,0,0,0,0,0,0,0,0,0,0,0,0,0,0,0,0,0,0,0,0,0,0,0,0,0,0,0,0,0,0,0,0,0,0,0,0,0,0,0,0,0,0,0,0,0,0,0,0,0,0,0,0,0,0,0,0,0,0,0,0,0,0,0,0,0,0,0,0,0,0,0,0,0,0,0,0,0,0,0,0,0,0,0,0,0,0,0,0,0,0,0,0,0,0,0,0,0,0,0,0,0,0,0,0,0,0,0,0,0,0,0,0,0,0,0,0,0,0,0,0,0,0,0,0,0,0,0,0,0,0,0,0,0,0,0,0,0,0,0,0,0,0,0,0,0,0,0,0,0,0,0,0],"trees":[{"base_weights":[1.3221888E3,-2.186738E4,1.2313591E5,-3.7996945E4,2.6387365E4,7.899593E4,1.7520183E5,-5.361923E4,-1.2346385E4,8.963738E3,5.742732E4,1.1350827E5,5.7318973E4,1.4107295E5,2.1891903E5,-1.919085E3,-3.357891E3,-1.7362725E3,7.4447136E1,9.1138495E2,-1.1645023E3,1.9172463E3,3.6050735E3,5.852818E2,6.0062754E3,8.1910223E2,3.0620974E3,7.3042905E3,-1.4860387E3,1.1391064E4,-5.360387E2],"categories":[],"categories_nodes":[],"categories_segments":[],"categories_sizes":[],"default_left":[0,0,0,0,0,0,0,0,0,0,0,0,0,0,0,0,0,0,0,0,0,0,0,0,0,0,0,0,0,0,0],"id":0,"left_children":[1,3,5,7,9,11,13,15,17,19,21,23,25,27,29,-1,-1,-1,-1,-1,-1,-1,-1,-1,-1,-1,-1,-1,-1,-1,-1],"loss_changes":[2.649537E12,6.143251E11,3.3088812E11,2.3616376E11,1.065693E11,5.558806E10,7.057375E10,7.313254E10,6.9716574E10,3.8670635E10,1.7116561E10,1.947707E10,7.508263E9,3.944461E10,5.968311E10,0E0,0E0,0E0,0E0,0E0,0E0,0E0,0E0,0E0,0E0,0E0,0E0,0E0,0E0,0E0,0E0],"parents":[2147483647,0,0,1,1,2,2,3,3,4,4,5,5,6,6,7,7,8,8,9,9,10,10,11,11,12,12,13,13,14,14],"right_children":[2,4,6,8,10,12,14,16,18,20,22,24,26,28,30,-1,-1,-1,-1,-1,-1,-1,-1,-1,-1,-1,-1,-1,-1,-1,-1],"split_conditions":[8E0,7E0,1.97E3,1.412E3,1.829E3,1E0,9E0,5E0,6E0,2E0,2.035E3,1.416E3,1.362E3,6E0,5.642E3,-1.919085E3,-3.357891E3,-1.7362725E3,7.4447136E1,9.1138495E2,-1.1645023E3,1.9172463E3,3.6050735E3,5.852818E2,6.0062754E3,8.1910223E2,3.0620974E3,7.3042905E3,-1.4860387E3,1.1391064E4,-5.360387E2],"split_indices":[0,0,4,4,4,8,0,7,0,7,4,4,4,7,4,0,0,0,0,0,0,0,0,0,0,0,0,0,0,0,0],"split_type":[0,0,0,0,0,0,0,0,0,0,0,0,0,0,0,0,0,0,0,0,0,0,0,0,0,0,0,0,0,0,0],"sum_hessian":[9.36E2,7.87E2,1.49E2,5.9E2,1.97E2,8.2E1,6.7E1,3.66E2,2.24E2,1.27E2,7E1,3E1,5.2E1,4E1,2.7E1,1.74E2,1.92E2,8.5E1,1.39E2,9.9E1,2.8E1,3.2E1,3.8E1,2E0,2.8E1,5E0,4.7E1,3.9E1,1E0,2.6E1,1E0],"tree_param":{"num_deleted":"0","num_feature":"10","num_nodes":"31","size_leaf_vector":"1"}},{"base_weights":[-9.348801E2,-2.1835963E4,1.0778508E5,-3.8200348E4,2.2956371E4,8.515771E4,8.698858E3,-5.2594285E4,-1.8592832E4,1.754131E4,7.034091E4,7.880371E4,8.505893E3,-3.650528E3,-2.1833252E3,-1.876774E3,-2.8111624E1,1.1932384E3,-8.2788617E2,4.3091187E3,1.2058734E2,5.804139E3,3.4449763E3],"categories":[],"categories_nodes":[],"categories_segments":[],"categories_sizes":[],"default_left":[0,0,0,0,0,0,0,0,0,0,0,0,0,0,0,0,0,0,0,0,0,0,0],"id":1,"left_children":[1,3,5,7,9,11,-1,13,15,17,19,21,-1,-1,-1,-1,-1,-1,-1,-1,-1,-1,-1],"loss_changes":[2.0997463E12,5.689511E11,2.0834982E11,1.5932837E11,5.2136903E10,4.759565E10,0E0,5.641483E10,8.263335E10,4.093241E10,2.2390194E10,3.1508398E10,0E0,0E0,0E0,0E0,0E0,0E0,0E0,0E0,0E0,0E0,0E0],"parents":[2147483647,0,0,1,1,2,2,3,3,4,4,5,5,7,7,8,8,9,9,10,10,11,11],"right_children":[2,4,6,8,10,12,-1,14,16,18,20,22,-1,-1,-1,-1,-1,-1,-1,-1,-1,-1,-1],"split_conditions":[8E0,7E0,9E0,6E0,9E0,3E0,8.698858E3,5E0,2E0,4E0,3E0,1E0,8.505893E3,-3.650528E3,-2.1833252E3,-1.876774E3,-2.8111624E1,1.1932384E3,-8.2788617E2,4.3091187E3,1.2058734E2,5.804139E3,3.4449763E3],"split_indices":[0,0,0,0,9,3,0,0,3,7,6,8,0,0,0,0,0,0,0,0,0,0,0],"split_type":[0,0,0,0,0,0,0,0,0,0,0,0,0,0,0,0,0,0,0,0,0,0,0],"sum_hessian":[9.22E2,7.74E2,1.48E2,5.67E2,2.07E2,1.12E2,3.6E1,3.26E2,2.41E2,1.87E2,2E1,1.06E2,6E0,9.7E1,2.29E2,1.17E2,1.24E2,1.58E2,2.9E1,1.6E1,4E0,2E1,8.6E1],"tree_param":{"num_deleted":"0","num_feature":"10","num_nodes":"23","size_leaf_vector":"1"}},{"base_weights":[-1.06535225E2,-2.0299605E4,1.0409042E5,-3.479803E4,2.1484857E4,6.381383E4,1.3671231E5,-5.3655883E4,-1.9280736E4,1.5448289E4,6.3122906E4,-1.4724849E3,6.703736E4,9.911616E3,1.1085109E5,-3.6085652E3,-2.444052E3,-1.8731465E3,-2.6169687E2,1.1003256E3,-9.2769806E2,3.3136501E3,-3.1198477E2,3.4250818E3,-7.401094E2,4.814222E3,7.406605E3],"categories":[],"categories_nodes":[],"categories_segments":[],"categories_sizes":[],"default_left":[0,0,0,0,0,0,0,0,0,0,0,0,0,0,0,0,0,0,0,0,0,0,0,0,0,0,0],"id":2,"left_children":[1,3,5,7,9,11,13,15,17,19,21,-1,23,-1,25,-1,-1,-1,-1,-1,-1,-1,-1,-1,-1,-1,-1],"loss_changes":[1.9441572E12,4.6964362E11,1.8836069E11,1.6722369E11,4.929505E10,2.271825E10,1.0848646E11,1.9369886E10,8.076624E10,3.9655305E10,5.8759823E9,0E0,9.042919E9,0E0,1.8320785E10,0E0,0E0,0E0,0E0,0E0,0E0,0E0,0E0,0E0,0E0,0E0,0E0],"parents":[2147483647,0,0,1,1,2,2,3,3,4,4,5,5,6,6,7,7,8,8,9,9,10,10,12,12,14,14],"right_children":[2,4,6,8,10,12,14,16,18,20,22,-1,24,-1,26,-1,-1,-1,-1,-1,-1,-1,-1,-1,-1,-1,-1],"split_conditions":[8E0,7E0,3E0,2E0,9E0,2E0,1E0,5E0,6E0,4E0,2E0,-1.4724849E3,1E1,9.911616E3,9E0,-3.6085652E3,-2.444052E3,-1.8731465E3,-2.6169687E2,1.1003256E3,-9.2769806E2,3.3136501E3,-3.1198477E2,3.4250818E3,-7.401094E2,4.814222E3,7.406605E3],"split_indices":[0,0,1,1,9,1,2,0,0,7,5,0,0,0,0,0,0,0,0,0,0,0,0,0,0,0,0],"split_type":[0,0,0,0,0,0,0,0,0,0,0,0,0,0,0,0,0,0,0,0,0,0,0,0,0,0,0],"sum_hessian":[9.22E2,7.73E2,1.49E2,5.74E2,1.99E2,6.8E1,8.1E1,2.58E2,3.16E2,1.75E2,2.4E1,2E0,6.6E1,2.2E1,5.9E1,5E1,2.08E2,1.37E2,1.79E2,1.47E2,2.8E1,2.3E1,1E0,6.5E1,1E0,4.5E1,1.4E1],"tree_param":{"num_deleted":"0","num_feature":"10","num_nodes":"27","size_leaf_vector":"1"}},{"base_weights":[-7.721217E2,-2.0192854E4,1.04395734E5,-4.2582605E4,3.4607583E3,7.5639555E4,1.6999227E5,-2.9921348E4,-5.4673914E4,-3.4662734E4,1.301115E4,6.704168E4,7.9472915E3,6.5610695E4,1.8796686E5,-2.0564802E3,-9.69123E2,-4.0503962E3,-2.4251091E3,-8.6207776E2,-2.3527563E3,3.866043E2,2.2866704E3,2.525275E3,4.3996265E3,3.955356E3,-7.216066E2,7.988694E3,1.2896286E4],"categories":[],"categories_nodes":[],"categories_segments":[],"categories_sizes":[],"default_left":[0,0,0,0,0,0,0,0,0,0,0,0,0,0,0,0,0,0,0,0,0,0,0,0,0,0,0,0,0],"id":3,"left_children":[1,3,5,7,9,11,13,15,17,19,21,23,-1,25,27,-1,-1,-1,-1,-1,-1,-1,-1,-1,-1,-1,-1,-1,-1],"loss_changes":[1.9260834E12,4.2170778E11,2.6442885E11,6.097843E10,1.417196E11,6.383475E10,7.0220775E10,2.3063544E10,2.987642E10,1.6028123E10,5.336942E10,2.881477E10,0E0,9.784017E9,3.1767265E10,0E0,0E0,0E0,0E0,0E0,0E0,0E0,0E0,0E0,0E0,0E0,0E0,0E0,0E0],"parents":[2147483647,0,0,1,1,2,2,3,3,4,4,5,5,6,6,7,7,8,8,9,9,10,10,11,11,13,13,14,14],"right_children":[2,4,6,8,10,12,14,16,18,20,22,24,-1,26,28,-1,-1,-1,-1,-1,-1,-1,-1,-1,-1,-1,-1,-1,-1],"split_conditions":[8E0,2E0,9E0,5E0,6E0,3E0,3E0,2E0,1E0,4E0,9E0,3E0,7.9472915E3,1E1,1E1,-2.0564802E3,-9.69123E2,-4.0503962E3,-2.4251091E3,-8.6207776E2,-2.3527563E3,3.866043E2,2.2866704E3,2.525275E3,4.3996265E3,3.955356E3,-7.216066E2,7.988694E3,1.2896286E4],"split_indices":[0,3,0,7,0,3,1,1,1,7,9,1,0,9,0,0,0,0,0,0,0,0,0,0,0,0,0,0,0],"split_type":[0,0,0,0,0,0,0,0,0,0,0,0,0,0,0,0,0,0,0,0,0,0,0,0,0,0,0,0,0],"sum_hessian":[9.41E2,7.95E2,1.46E2,4.08E2,3.87E2,1.03E2,4.3E1,2.01E2,2.07E2,7.7E1,3.1E2,9.5E1,8E0,7E0,3.6E1,9.6E1,1.05E2,3.7E1,1.7E2,3.3E1,4.4E1,2.68E2,4.2E1,5.5E1,4E1,6E0,1E0,2.8E1,8E0],"tree_param":{"num_deleted":"0","num_feature":"10","num_nodes":"29","size_leaf_vector":"1"}},{"base_weights":[2.7415894E2,-1.8031352E4,9.955422E4,-3.8448273E4,1.0885259E4,7.07993E4,1.6124173E5,-5.4368375E4,-2.4748314E4,-6.1340557E3,3.1937613E4,4.6354145E4,1.0784545E5,1.1987598E5,2.0695514E5,-3.6547302E3,-2.4278005E3,-7.143671E2,-2.1014822E3,-1.2639164E3,2.4532158E2,1.09066E3,3.1566978E3,6.165539E2,2.6329954E3,3.4612173E3,6.882643E3,3.3432083E3,6.3237607E3,3.006332E3,1.057592E4],"categories":[],"categories_nodes":[],"categories_segments":[],"categories_sizes":[],"default_left":[0,0,0,0,0,0,0,0,0,0,0,0,0,0,0,0,0,0,0,0,0,0,0,0,0,0,0,0,0,0,0],"id":4,"left_children":[1,3,5,7,9,11,13,15,17,19,21,23,25,27,29,-1,-1,-1,-1,-1,-1,-1,-1,-1,-1,-1,-1,-1,-1,-1,-1],"loss_changes":[1.6810469E12,4.6151166E11,2.4401425E11,9.854642E10,1.1628401E11,8.556082E10,6.028473E10,1.9416875E10,4.423282E10,3.8169207E10,4.4420317E10,1.2652208E10,3.536768E10,6.391071E8,6.824264E8,0E0,0E0,0E0,0E0,0E0,0E0,0E0,0E0,0E0,0E0,0E0,0E0,0E0,0E0,0E0,0E0],"parents":[2147483647,0,0,1,1,2,2,3,3,4,4,5,5,6,6,7,7,8,8,9,9,10,10,11,11,12,12,13,13,14,14],"right_children":[2,4,6,8,10,12,14,16,18,20,22,24,26,28,30,-1,-1,-1,-1,-1,-1,-1,-1,-1,-1,-1,-1,-1,-1,-1,-1],"split_conditions":[8E0,1.474E3,9E0,2E0,7E0,1.97E3,2.156E3,5E0,4E0,6E0,2.035E3,1.464E3,3E0,1.688E3,3E0,-3.6547302E3,-2.4278005E3,-7.143671E2,-2.1014822E3,-1.2639164E3,2.4532158E2,1.09066E3,3.1566978E3,6.165539E2,2.6329954E3,3.4612173E3,6.882643E3,3.3432083E3,6.3237607E3,3.006332E3,1.057592E4],"split_indices":[0,4,0,1,0,4,4,0,7,0,4,4,1,4,1,0,0,0,0,0,0,0,0,0,0,0,0,0,0,0,0],"split_type":[0,0,0,0,0,0,0,0,0,0,0,0,0,0,0,0,0,0,0,0,0,0,0,0,0,0,0,0,0,0,0],"sum_hessian":[9.23E2,7.8E2,1.43E2,4.57E2,3.23E2,9.9E1,4.4E1,2.1E2,2.47E2,1.79E2,1.44E2,6.1E1,3.8E1,2.5E1,1.9E1,4.7E1,1.63E2,1.55E2,9.2E1,6.5E1,1.14E2,1.1E2,3.4E1,1E1,5.1E1,1.8E1,2E1,4E0,2.1E1,1E0,1.8E1],"tree_param":{"num_deleted":"0","num_feature":"10","num_nodes":"31","size_leaf_vector":"1"}},{"base_weights":[-8.087202E2,-3.1064213E4,4.9506984E4,-4.459328E4,-1.0033932E4,2.1267086E4,9.2014336E4,-3.1715299E4,-5.5772258E4,-2.5677602E4,2.1009091E2,5.6817236E3,4.896816E4,7.560139E4,1.8376567E5,-2.3948706E3,-1.3037704E3,-3.505147E3,-2.4625276E3,-7.1720953E2,-1.8001918E3,-3.7093912E2,1.1545438E3,6.2969635E2,-1.0041409E3,1.8370748E3,3.3160076E3,6.5764136E3,3.2380637E3,9.72557E3,-7.787246E2],"categories":[],"categories_nodes":[],"categories_segments":[],"categories_sizes":[],"default_left":[0,0,0,0,0,0,0,0,0,0,0,0,0,0,0,0,0,0,0,0,0,0,0,0,0,0,0,0,0,0,0],"id":5,"left_children":[1,3,5,7,9,11,13,15,17,19,21,23,25,27,29,-1,-1,-1,-1,-1,-1,-1,-1,-1,-1,-1,-1,-1,-1,-1,-1],"loss_changes":[1.4553597E12,1.6941108E11,4.289879E11,5.0489655E10,3.7665112E10,9.340745E10,2.0145229E11,1.4357414E10,1.4585233E10,1.036748E10,2.5132612E10,2.5185485E10,1.4111539E10,6.6051244E10,4.8012526E10,0E0,0E0,0E0,0E0,0E0,0E0,0E0,0E0,0E0,0E0,0E0,0E0,0E0,0E0,0E0,0E0],"parents":[2147483647,0,0,1,1,2,2,3,3,4,4,5,5,6,6,7,7,8,8,9,9,10,10,11,11,12,12,13,13,14,14],"right_children":[2,4,6,8,10,12,14,16,18,20,22,24,26,28,30,-1,-1,-1,-1,-1,-1,-1,-1,-1,-1,-1,-1,-1,-1,-1,-1],"split_conditions":[7E0,1.382E3,8E0,4E0,6E0,1.784E3,2.601E3,9.9E2,5E0,4E0,1.935E3,2E0,2.094E3,1E0,5.642E3,-2.3948706E3,-1.3037704E3,-3.505147E3,-2.4625276E3,-7.1720953E2,-1.8001918E3,-3.7093912E2,1.1545438E3,6.2969635E2,-1.0041409E3,1.8370748E3,3.3160076E3,6.5764136E3,3.2380637E3,9.72557E3,-7.787246E2],"split_indices":[0,4,0,7,0,4,4,4,0,7,4,7,4,2,4,0,0,0,0,0,0,0,0,0,0,0,0,0,0,0,0],"split_type":[0,0,0,0,0,0,0,0,0,0,0,0,0,0,0,0,0,0,0,0,0,0,0,0,0,0,0,0,0,0,0],"sum_hessian":[9.54E2,5.96E2,3.58E2,3.62E2,2.34E2,2.16E2,1.42E2,1.7E2,1.92E2,9.2E1,1.42E2,1.39E2,7.7E1,1.22E2,2E1,4.2E1,1.28E2,5.7E1,1.35E2,4.5E1,4.7E1,1.07E2,3.5E1,1.1E2,2.9E1,4.7E1,3E1,1.8E1,1.04E2,1.9E1,1E0],"tree_param":{"num_deleted":"0","num_feature":"10","num_nodes":"31","size_leaf_vector":"1"}},{"base_weights":[-8.29209E1,-1.710982E4,8.9654E4,-3.5578004E4,9.976449E3,3.7204383E4,1.12943E5,-4.2329113E4,-1.5872088E4,-6.13163E3,3.0914693E4,3.2639753E3,5.0085598E4,1.3825794E5,8.273995E4,-2.9582878E3,-1.8835977E3,-2.9100626E2,-1.9582499E3,1.1136245E1,-1.8340358E3,9.2074023E2,3.2269158E3,1.2497352E3,-1.6514423E1,4.0439243E3,1.9553379E3,7.07198E3,-7.5925665E2,2.7400972E3,6.025499E3],"categories":[],"categories_nodes":[],"categories_segments":[],"categories_sizes":[],"default_left":[0,0,0,0,0,0,0,0,0,0,0,0,0,0,0,0,0,0,0,0,0,0,0,0,0,0,0,0,0,0,0],"id":6,"left_children":[1,3,5,7,9,11,13,15,17,19,21,23,25,27,29,-1,-1,-1,-1,-1,-1,-1,-1,-1,-1,-1,-1,-1,-1,-1,-1],"loss_changes":[1.4179357E12,3.905376E11,1.7657994E11,6.105727E10,1.071057E11,2.0384629E10,6.654853E10,2.4822809E10,2.7868789E10,3.494972E10,5.6811774E10,1.101739E9,8.3314934E9,2.8510781E10,4.5101548E10,0E0,0E0,0E0,0E0,0E0,0E0,0E0,0E0,0E0,0E0,0E0,0E0,0E0,0E0,0E0,0E0],"parents":[2147483647,0,0,1,1,2,2,3,3,4,4,5,5,6,6,7,7,8,8,9,9,10,10,11,11,12,12,13,13,14,14],"right_children":[2,4,6,8,10,12,14,16,18,20,22,24,26,28,30,-1,-1,-1,-1,-1,-1,-1,-1,-1,-1,-1,-1,-1,-1,-1,-1],"split_conditions":[8E0,1.484E3,1.688E3,2E0,7E0,1.464E3,1E0,8.92E2,3E0,2E0,2.035E3,1E0,1E0,5.642E3,2.372E3,-2.9582878E3,-1.8835977E3,-2.9100626E2,-1.9582499E3,1.1136245E1,-1.8340358E3,9.2074023E2,3.2269158E3,1.2497352E3,-1.6514423E1,4.0439243E3,1.9553379E3,7.07198E3,-7.5925665E2,2.7400972E3,6.025499E3],"split_indices":[0,4,4,3,0,4,8,4,8,5,4,6,8,4,4,0,0,0,0,0,0,0,0,0,0,0,0,0,0,0,0],"split_type":[0,0,0,0,0,0,0,0,0,0,0,0,0,0,0,0,0,0,0,0,0,0,0,0,0,0,0,0,0,0,0],"sum_hessian":[9.26E2,7.79E2,1.47E2,4.63E2,3.16E2,4.6E1,1.01E2,3.44E2,1.19E2,1.79E2,1.37E2,1.3E1,3.3E1,5.3E1,4.8E1,7.2E1,2.72E2,8.4E1,3.5E1,1.49E2,3E1,1.01E2,3.6E1,1E0,1.2E1,7E0,2.6E1,5.2E1,1E0,2.9E1,1.9E1],"tree_param":{"num_deleted":"0","num_feature":"10","num_nodes":"31","size_leaf_vector":"1"}},{"base_weights":[1.044488E3,-1.5216493E4,8.286388E4,-2.7692746E4,1.952625E4,4.867041E4,1.0942342E5,-4.45156E4,-1.4459831E4,2.5738287E4,-1.3021768E4,-1.7953412E3,5.1686016E4,8.6400945E4,7.057982E3,-3.1665964E3,-1.9312191E3,-2.2344034E2,-1.6211188E3,1.0744034E3,2.364225E3,-7.850812E2,1.8853363E3,2.4014392E3,4.909729E3,3.9162258E3,6.830611E3],"categories":[],"categories_nodes":[],"categories_segments":[],"categories_sizes":[],"default_left":[0,0,0,0,0,0,0,0,0,0,0,0,0,0,0,0,0,0,0,0,0,0,0,0,0,0,0],"id":7,"left_children":[1,3,5,7,9,11,13,15,17,19,21,-1,23,25,-1,-1,-1,-1,-1,-1,-1,-1,-1,-1,-1,-1,-1],"loss_changes":[1.2518969E12,3.4080627E11,1.3634771E11,1.2802805E11,4.239057E10,1.9709493E10,5.136987E10,2.5710002E10,5.8180973E10,1.5009759E10,5.214187E9,0E0,6.850134E9,1.0792862E10,0E0,0E0,0E0,0E0,0E0,0E0,0E0,0E0,0E0,0E0,0E0,0E0,0E0],"parents":[2147483647,0,0,1,1,2,2,3,3,4,4,5,5,6,6,7,7,8,8,9,9,10,10,12,12,13,13],"right_children":[2,4,6,8,10,12,14,16,18,20,22,-1,24,26,-1,-1,-1,-1,-1,-1,-1,-1,-1,-1,-1,-1,-1],"split_conditions":[8E0,7E0,3E0,2E0,4E0,2E0,9E0,5E0,4E0,3E0,4E0,-1.7953412E3,3E0,3E0,7.057982E3,-3.1665964E3,-1.9312191E3,-2.2344034E2,-1.6211188E3,1.0744034E3,2.364225E3,-7.850812E2,1.8853363E3,2.4014392E3,4.909729E3,3.9162258E3,6.830611E3],"split_indices":[0,0,1,1,7,1,0,0,7,1,1,0,3,3,0,0,0,0,0,0,0,0,0,0,0,0,0],"split_type":[0,0,0,0,0,0,0,0,0,0,0,0,0,0,0,0,0,0,0,0,0,0,0,0,0,0,0],"sum_hessian":[9.39E2,7.84E2,1.55E2,5.77E2,2.07E2,6.9E1,8.6E1,2.53E2,3.24E2,1.74E2,3.3E1,2E0,6.7E1,5.2E1,3.4E1,5.8E1,1.95E2,2.09E2,1.15E2,1.47E2,2.7E1,3.2E1,1E0,6.4E1,3E0,4.7E1,5E0],"tree_param":{"num_deleted":"0","num_feature":"10","num_nodes":"27","size_leaf_vector":"1"}},{"base_weights":[1.8629929E3,-1.3974013E4,8.155011E4,-3.1450771E4,9.440611E3,6.0111367E4,1.3728886E5,-1.9967328E4,-4.3923375E4,2.5413746E4,-9.874297E3,4.059415E4,8.765614E4,5.0554214E3,1.7203194E5,-1.6240575E3,-5.7112836E2,-2.8120642E3,-1.9624979E3,8.712502E2,2.761416E3,-1.2565907E3,3.73076E1,2.7625235E2,2.2925017E3,3.8308757E3,8.1424673E3,9.138556E3,-8.0031134E2],"categories":[],"categories_nodes":[],"categories_segments":[],"categories_sizes":[],"default_left":[0,0,0,0,0,0,0,0,0,0,0,0,0,0,0,0,0,0,0,0,0,0,0,0,0,0,0,0,0],"id":8,"left_children":[1,3,5,7,9,11,13,15,17,19,21,23,25,-1,27,-1,-1,-1,-1,-1,-1,-1,-1,-1,-1,-1,-1,-1,-1],"loss_changes":[1.1722804E12,3.17436E11,1.757726E11,6.271641E10,1.0267946E11,5.7190154E10,3.5400974E10,2.4543117E10,9.996632E9,4.238658E10,2.4487051E10,1.2280357E10,2.5704235E10,0E0,4.3313005E10,0E0,0E0,0E0,0E0,0E0,0E0,0E0,0E0,0E0,0E0,0E0,0E0,0E0,0E0],"parents":[2147483647,0,0,1,1,2,2,3,3,4,4,5,5,6,6,7,7,8,8,9,9,10,10,11,11,12,12,14,14],"right_children":[2,4,6,8,10,12,14,16,18,20,22,24,26,-1,28,-1,-1,-1,-1,-1,-1,-1,-1,-1,-1,-1,-1,-1,-1],"split_conditions":[8E0,1.484E3,9E0,4E0,3E0,1.96E3,2.196E3,1.146E3,5E0,2.094E3,6E0,1.464E3,3.228E3,5.0554214E3,5.642E3,-1.6240575E3,-5.7112836E2,-2.8120642E3,-1.9624979E3,8.712502E2,2.761416E3,-1.2565907E3,3.73076E1,2.7625235E2,2.2925017E3,3.8308757E3,8.1424673E3,9.138556E3,-8.0031134E2],"split_indices":[0,4,0,7,6,4,4,4,0,4,0,4,4,0,4,0,0,0,0,0,0,0,0,0,0,0,0,0,0],"split_type":[0,0,0,0,0,0,0,0,0,0,0,0,0,0,0,0,0,0,0,0,0,0,0,0,0,0,0,0,0],"sum_hessian":[9.27E2,7.74E2,1.53E2,4.43E2,3.31E2,1.12E2,4.1E1,2.32E2,2.11E2,1.81E2,1.5E2,6.7E1,4.5E1,2.2E1,1.9E1,9.3E1,1.39E2,5.5E1,1.56E2,1.44E2,3.7E1,6.1E1,8.9E1,9E0,5.8E1,4.1E1,4E0,1.8E1,1E0],"tree_param":{"num_deleted":"0","num_feature":"10","num_nodes":"29","size_leaf_vector":"1"}},{"base_weights":[-5.730783E2,-1.5137409E4,8.18924E4,-2.6193102E4,1.658642E4,4.857633E4,1.0658086E5,-4.260294E4,-1.2984634E4,2.1085316E4,-8.254067E3,5.200084E4,-1.7836563E2,1.3316434E5,7.280598E4,-2.9509795E3,-1.9057264E3,-2.6641183E2,-1.3554473E3,7.446915E2,1.7802145E3,-8.351586E2,7.596998E2,2.6743394E3,-7.803035E2,-1.2588173E3,1.2439535E3,5.8634673E3,8.437174E3,2.5377312E3,4.6631353E3],"categories":[],"categories_nodes":[],"categories_segments":[],"categories_sizes":[],"default_left":[0,0,0,0,0,0,0,0,0,0,0,0,0,0,0,0,0,0,0,0,0,0,0,0,0,0,0,0,0,0,0],"id":9,"left_children":[1,3,5,7,9,11,13,15,17,19,21,23,25,27,29,-1,-1,-1,-1,-1,-1,-1,-1,-1,-1,-1,-1,-1,-1,-1,-1],"loss_changes":[1.1122151E12,2.7645808E11,1.0915329E11,1.2602812E11,2.2972019E10,1.0193895E10,6.1235266E10,1.6908583E10,3.500149E10,1.5021375E10,6.5934725E9,6.5609564E9,3.75829E9,4.529324E9,1.1957142E10,0E0,0E0,0E0,0E0,0E0,0E0,0E0,0E0,0E0,0E0,0E0,0E0,0E0,0E0,0E0,0E0],"parents":[2147483647,0,0,1,1,2,2,3,3,4,4,5,5,6,6,7,7,8,8,9,9,10,10,11,11,12,12,13,13,14,14],"right_children":[2,4,6,8,10,12,14,16,18,20,22,24,26,28,30,-1,-1,-1,-1,-1,-1,-1,-1,-1,-1,-1,-1,-1,-1,-1,-1],"split_conditions":[8E0,7E0,3E0,2E0,4E0,3E0,1E0,1E0,4E0,8E0,8E0,1E1,2E0,1E1,8E0,-2.9509795E3,-1.9057264E3,-2.6641183E2,-1.3554473E3,7.446915E2,1.7802145E3,-8.351586E2,7.596998E2,2.6743394E3,-7.803035E2,-1.2588173E3,1.2439535E3,5.8634673E3,8.437174E3,2.5377312E3,4.6631353E3],"split_indices":[0,0,1,1,7,8,8,1,7,9,9,0,3,0,9,0,0,0,0,0,0,0,0,0,0,0,0,0,0,0,0],"split_type":[0,0,0,0,0,0,0,0,0,0,0,0,0,0,0,0,0,0,0,0,0,0,0,0,0,0,0,0,0,0,0],"sum_hessian":[9.24E2,7.86E2,1.38E2,5.83E2,2.03E2,6E1,7.8E1,2.59E2,3.24E2,1.72E2,3.1E1,5.6E1,4E0,4.2E1,3.6E1,5.3E1,2.06E2,2.11E2,1.13E2,1.22E2,5E1,2.3E1,8E0,5.5E1,1E0,2E0,2E0,3.2E1,1E1,1.9E1,1.7E1],"tree_param":{"num_deleted":"0","num_feature":"10","num_nodes":"31","size_leaf_vector":"1"}},{"base_weights":[-3.8073007E2,-1.4588482E4,7.4236016E4,-3.1720918E4,4.4964824E3,5.3053336E4,1.2794692E5,-3.9330945E4,-2.1033658E4,-8.290435E3,1.8766707E4,-1.8373049E3,5.505653E4,4.8421215E4,1.3738497E5,-2.9268708E3,-1.7742588E3,-6.342075E2,-1.4619515E3,-9.6029434E1,-1.7186946E3,6.7564343E2,2.9798198E3,2.5006665E3,4.9739307E3,3.2095916E3,-7.607961E2,6.031533E3,9.597808E3],"categories":[],"categories_nodes":[],"categories_segments":[],"categories_sizes":[],"default_left":[0,0,0,0,0,0,0,0,0,0,0,0,0,0,0,0,0,0,0,0,0,0,0,0,0,0,0,0,0],"id":10,"left_children":[1,3,5,7,9,11,13,15,17,19,21,-1,23,25,27,-1,-1,-1,-1,-1,-1,-1,-1,-1,-1,-1,-1,-1,-1],"loss_changes":[1.0007914E12,2.594314E11,1.6501087E11,3.3168818E10,6.876512E10,2.1810512E10,2.4871436E10,1.5871672E10,1.1687027E10,3.2997356E10,3.7377933E10,0E0,1.9219972E10,6.998318E9,1.0673455E10,0E0,0E0,0E0,0E0,0E0,0E0,0E0,0E0,0E0,0E0,0E0,0E0,0E0,0E0],"parents":[2147483647,0,0,1,1,2,2,3,3,4,4,5,5,6,6,7,7,8,8,9,9,10,10,12,12,13,13,14,14],"right_children":[2,4,6,8,10,12,14,16,18,20,22,-1,24,26,28,-1,-1,-1,-1,-1,-1,-1,-1,-1,-1,-1,-1,-1,-1],"split_conditions":[8E0,2E0,9E0,2E0,7E0,2E0,3E0,1E0,4E0,2E0,9E0,-1.8373049E3,1E1,1E1,3E0,-2.9268708E3,-1.7742588E3,-6.342075E2,-1.4619515E3,-9.6029434E1,-1.7186946E3,6.7564343E2,2.9798198E3,2.5006665E3,4.9739307E3,3.2095916E3,-7.607961E2,6.031533E3,9.597808E3],"split_indices":[0,3,0,1,0,1,1,1,7,5,9,0,9,9,3,0,0,0,0,0,0,0,0,0,0,0,0,0,0],"split_type":[0,0,0,0,0,0,0,0,0,0,0,0,0,0,0,0,0,0,0,0,0,0,0,0,0,0,0,0,0],"sum_hessian":[9.42E2,7.92E2,1.5E2,4.17E2,3.75E2,1.09E2,4.1E1,2.42E2,1.75E2,1.98E2,1.77E2,2E0,1.07E2,5E0,3.6E1,3.8E1,2.04E2,8.8E1,8.7E1,1.6E2,3.8E1,1.58E2,1.9E1,9.8E1,9E0,4E0,1E0,3E1,6E0],"tree_param":{"num_deleted":"0","num_feature":"10","num_nodes":"29","size_leaf_vector":"1"}},{"base_weights":[-1.275065E3,-1.348571E4,6.584923E4,-2.8131037E4,8.105459E3,5.5658785E4,1.3690545E5,-4.2753402E4,-2.0167736E4,1.658089E4,-1.6892443E4,8.5661586E4,3.311348E4,1.7231736E5,9.4885375E4,-3.1760864E3,-1.8576285E3,-1.5964181E3,-6.257994E2,4.2663232E2,2.0782156E3,-1.01346893E3,1.890774E3,-2.157375E2,4.463734E3,1.7884309E3,-1.0814866E3,2.426268E3,9.153487E3,5.989068E3,2.3016558E3],"categories":[],"categories_nodes":[],"categories_segments":[],"categories_sizes":[],"default_left":[0,0,0,0,0,0,0,0,0,0,0,0,0,0,0,0,0,0,0,0,0,0,0,0,0,0,0,0,0,0,0],"id":11,"left_children":[1,3,5,7,9,11,13,15,17,19,21,23,25,27,29,-1,-1,-1,-1,-1,-1,-1,-1,-1,-1,-1,-1,-1,-1,-1,-1],"loss_changes":[7.5085034E11,2.4529057E11,9.447729E10,5.2934115E10,6.6806653E10,8.1716216E10,8.945828E9,1.6483811E10,2.6687193E10,4.689743E10,1.5546108E10,1.7615127E10,1.138425E10,1.7649336E9,6.6483405E9,0E0,0E0,0E0,0E0,0E0,0E0,0E0,0E0,0E0,0E0,0E0,0E0,0E0,0E0,0E0,0E0],"parents":[2147483647,0,0,1,1,2,2,3,3,4,4,5,5,6,6,7,7,8,8,9,9,10,10,11,11,12,12,13,13,14,14],"right_children":[2,4,6,8,10,12,14,16,18,20,22,24,26,28,30,-1,-1,-1,-1,-1,-1,-1,-1,-1,-1,-1,-1,-1,-1,-1,-1],"split_conditions":[8E0,1.494E3,2.601E3,1.05E3,4E0,1E0,2E0,8.16E2,2E0,2E3,2.601E3,1.416E3,4E0,2.62E3,3.112E3,-3.1760864E3,-1.8576285E3,-1.5964181E3,-6.257994E2,4.2663232E2,2.0782156E3,-1.01346893E3,1.890774E3,-2.157375E2,4.463734E3,1.7884309E3,-1.0814866E3,2.426268E3,9.153487E3,5.989068E3,2.3016558E3],"split_indices":[0,4,4,4,7,8,7,4,1,4,4,4,7,4,4,0,0,0,0,0,0,0,0,0,0,0,0,0,0,0,0],"split_type":[0,0,0,0,0,0,0,0,0,0,0,0,0,0,0,0,0,0,0,0,0,0,0,0,0,0,0,0,0,0,0],"sum_hessian":[9.14E2,7.74E2,1.4E2,4.61E2,3.13E2,1.24E2,1.6E1,1.61E2,3E2,2.34E2,7.9E1,5.2E1,7.2E1,7E0,9E0,3.2E1,1.29E2,1.17E2,1.83E2,1.78E2,5.6E1,7.5E1,4E0,2E0,5E1,6.9E1,3E0,1E0,6E0,5E0,4E0],"tree_param":{"num_deleted":"0","num_feature":"10","num_nodes":"31","size_leaf_vector":"1"}},{"base_weights":[8.317389E2,-1.1802693E4,6.789888E4,-2.6209951E4,9.4848955E3,3.9557258E4,1.02941266E5,-3.7163082E4,-1.6581895E4,6.788025E2,3.3823168E4,6.565182E4,2.38445E4,4.407011E4,1.2246656E5,-2.382072E3,-1.4975306E3,-1.3743143E3,-4.5776913E2,5.842101E2,-6.946911E2,-6.2378876E2,2.1177986E3,-6.814098E2,3.4374382E3,-4.776E2,1.5368035E3,2.5834958E3,-5.576099E2,4.848389E3,9.280977E3],"categories":[],"categories_nodes":[],"categories_segments":[],"categories_sizes":[],"default_left":[0,0,0,0,0,0,0,0,0,0,0,0,0,0,0,0,0,0,0,0,0,0,0,0,0,0,0,0,0,0,0],"id":12,"left_children":[1,3,5,7,9,11,13,15,17,19,21,23,25,27,29,-1,-1,-1,-1,-1,-1,-1,-1,-1,-1,-1,-1,-1,-1,-1,-1],"loss_changes":[7.9646805E11,2.4284496E11,1.4390847E11,4.9159668E10,6.856107E10,3.2876044E10,7.0468305E10,1.5199568E10,2.0236698E10,3.8011437E10,3.4108514E10,8.548221E9,1.2721922E10,8.130441E9,6.0906734E10,0E0,0E0,0E0,0E0,0E0,0E0,0E0,0E0,0E0,0E0,0E0,0E0,0E0,0E0,0E0,0E0],"parents":[2147483647,0,0,1,1,2,2,3,3,4,4,5,5,6,6,7,7,8,8,9,9,10,10,11,11,12,12,13,13,14,14],"right_children":[2,4,6,8,10,12,14,16,18,20,22,24,26,28,30,-1,-1,-1,-1,-1,-1,-1,-1,-1,-1,-1,-1,-1,-1,-1,-1],"split_conditions":[8E0,1.484E3,1.96E3,2E0,1.98E3,1E0,3E0,9.9E2,6E0,3E0,6E0,1.416E3,1.464E3,3.112E3,2.696E3,-2.382072E3,-1.4975306E3,-1.3743143E3,-4.5776913E2,5.842101E2,-6.946911E2,-6.2378876E2,2.1177986E3,-6.814098E2,3.4374382E3,-4.776E2,1.5368035E3,2.5834958E3,-5.576099E2,4.848389E3,9.280977E3],"split_indices":[0,4,4,1,4,8,1,4,0,8,0,4,4,4,4,0,0,0,0,0,0,0,0,0,0,0,0,0,0,0,0],"split_type":[0,0,0,0,0,0,0,0,0,0,0,0,0,0,0,0,0,0,0,0,0,0,0,0,0,0,0,0,0,0,0],"sum_hessian":[9.38E2,7.9E2,1.48E2,4.71E2,3.19E2,8.3E1,6.5E1,2.19E2,2.52E2,2.35E2,8.4E1,3E1,5.3E1,1.7E1,4.8E1,8.7E1,1.32E2,1.01E2,1.51E2,1.34E2,1.01E2,1.3E1,7.1E1,1E0,2.9E1,9E0,4.4E1,1.5E1,2E0,3.6E1,1.2E1],"tree_param":{"num_deleted":"0","num_feature":"10","num_nodes":"31","size_leaf_vector":"1"}},{"base_weights":[-1.4928601E3,-2.1538629E4,3.3281195E4,-3.462643E4,-1.0693756E4,2.360095E4,1.0117243E5,-4.0406344E4,-2.6062127E4,-2.1222182E4,7.1309924E2,1.3789121E4,5.208038E4,6.269153E4,1.20228805E5,-1.4743772E3,-2.3167595E3,-1.4676469E3,-4.892919E2,-2.0243561E3,-9.3925775E2,-7.024114E1,2.003513E3,3.745114E1,1.1303807E3,3.742125E3,1.6435625E3,3.4711047E3,-9.5667303E2,4.8575464E3,8.614344E3],"categories":[],"categories_nodes":[],"categories_segments":[],"categories_sizes":[],"default_left":[0,0,0,0,0,0,0,0,0,0,0,0,0,0,0,0,0,0,0,0,0,0,0,0,0,0,0,0,0,0,0],"id":13,"left_children":[1,3,5,7,9,11,13,15,17,19,21,23,25,27,29,-1,-1,-1,-1,-1,-1,-1,-1,-1,-1,-1,-1,-1,-1,-1,-1],"loss_changes":[6.4620606E11,8.308779E10,2.2040438E11,1.2114166E10,3.8806217E10,8.255354E10,2.3261544E10,8.797225E9,5.6045896E9,7.126909E9,1.3059735E10,2.5626739E10,3.0770119E10,1.0139939E10,1.5699673E10,0E0,0E0,0E0,0E0,0E0,0E0,0E0,0E0,0E0,0E0,0E0,0E0,0E0,0E0,0E0,0E0],"parents":[2147483647,0,0,1,1,2,2,3,3,4,4,5,5,6,6,7,7,8,8,9,9,10,10,11,11,12,12,13,13,14,14],"right_children":[2,4,6,8,10,12,14,16,18,20,22,24,26,28,30,-1,-1,-1,-1,-1,-1,-1,-1,-1,-1,-1,-1,-1,-1,-1,-1],"split_conditions":[7E0,2E0,2.392E3,1.224E3,1.422E3,3E0,3E0,2E0,1.74E3,5E0,2.601E3,1.516E3,1E0,3.493E3,1E1,-1.4743772E3,-2.3167595E3,-1.4676469E3,-4.892919E2,-2.0243561E3,-9.3925775E2,-7.024114E1,2.003513E3,3.745114E1,1.1303807E3,3.742125E3,1.6435625E3,3.4711047E3,-9.5667303E2,4.8575464E3,8.614344E3],"split_indices":[0,1,4,4,4,1,1,7,4,0,4,4,8,4,0,0,0,0,0,0,0,0,0,0,0,0,0,0,0,0,0],"split_type":[0,0,0,0,0,0,0,0,0,0,0,0,0,0,0,0,0,0,0,0,0,0,0,0,0,0,0,0,0,0,0],"sum_hessian":[9.25E2,5.87E2,3.38E2,2.65E2,3.22E2,2.97E2,4.1E1,1.56E2,1.09E2,1.67E2,1.55E2,2.22E2,7.5E1,1.5E1,2.6E1,5.7E1,9.9E1,9E1,1.9E1,1.7E1,1.5E2,1.48E2,7E0,9E1,1.32E2,3.3E1,4.2E1,1.4E1,1E0,2E1,6E0],"tree_param":{"num_deleted":"0","num_feature":"10","num_nodes":"31","size_leaf_vector":"1"}},{"base_weights":[8.2894006E2,-1.072836E4,6.2913824E4,-2.620037E4,6.892495E3,4.436633E4,1.17839125E5,-4.7269453E4,-2.1714398E4,1.9199385E4,-6.8769976E3,2.790034E4,6.753052E4,7.8420586E4,1.5728216E5,-2.7031858E3,-1.5714137E3,-3.281964E2,-1.2511039E3,3.4705853E2,1.878808E3,-4.3022726E2,2.1320242E3,-1.18957756E2,1.6999749E3,4.8836333E3,2.8063918E3,2.025785E3,4.268229E3,8.47221E3,-9.327563E2],"categories":[],"categories_nodes":[],"categories_segments":[],"categories_sizes":[],"default_left":[0,0,0,0,0,0,0,0,0,0,0,0,0,0,0,0,0,0,0,0,0,0,0,0,0,0,0,0,0,0,0],"id":14,"left_children":[1,3,5,7,9,11,13,15,17,19,21,23,25,27,29,-1,-1,-1,-1,-1,-1,-1,-1,-1,-1,-1,-1,-1,-1,-1,-1],"loss_changes":[6.6295844E11,2.125594E11,1.4248732E11,3.819743E10,6.19848E10,4.0072217E10,4.3638194E10,6.0501524E9,1.7074586E10,4.32156E10,1.5165975E10,1.2269724E10,9.98441E9,1.8056233E9,3.9536787E10,0E0,0E0,0E0,0E0,0E0,0E0,0E0,0E0,0E0,0E0,0E0,0E0,0E0,0E0,0E0,0E0],"parents":[2147483647,0,0,1,1,2,2,3,3,4,4,5,5,6,6,7,7,8,8,9,9,10,10,11,11,12,12,13,13,14,14],"right_children":[2,4,6,8,10,12,14,16,18,20,22,24,26,28,30,-1,-1,-1,-1,-1,-1,-1,-1,-1,-1,-1,-1,-1,-1,-1,-1],"split_conditions":[8E0,1.414E3,9E0,5E0,3E0,1.92E3,2.196E3,1.096E3,3E0,1.824E3,2.62E3,1.464E3,1E0,1.701E3,5.642E3,-2.7031858E3,-1.5714137E3,-3.281964E2,-1.2511039E3,3.4705853E2,1.878808E3,-4.3022726E2,2.1320242E3,-1.18957756E2,1.6999749E3,4.8836333E3,2.8063918E3,2.025785E3,4.268229E3,8.47221E3,-9.327563E2],"split_indices":[0,4,0,0,6,4,4,4,2,4,4,4,8,4,4,0,0,0,0,0,0,0,0,0,0,0,0,0,0,0,0],"split_type":[0,0,0,0,0,0,0,0,0,0,0,0,0,0,0,0,0,0,0,0,0,0,0,0,0,0,0,0,0,0,0],"sum_hessian":[9.22E2,7.78E2,1.44E2,4.14E2,3.64E2,1.09E2,3.5E1,7.1E1,3.43E2,1.92E2,1.72E2,6.5E1,4.4E1,1.9E1,1.6E1,4.8E1,2.3E1,6.2E1,2.81E2,1.16E2,7.6E1,1.67E2,5E0,1.1E1,5.4E1,1E1,3.4E1,4E0,1.5E1,1.5E1,1E0],"tree_param":{"num_deleted":"0","num_feature":"10","num_nodes":"31","size_leaf_vector":"1"}},{"base_weights":[1.1419785E3,-1.0069253E4,5.888706E4,-2.3669982E4,5.020989E3,4.593287E4,1.3334669E5,-1.3474539E4,-3.3132043E4,1.729057E4,-8.889858E3,3.133184E4,6.895991E4,6.7335234E4,7.98315E3,-1.19341E3,-3.3168848E2,-2.8270554E3,-1.5273977E3,5.1428015E2,2.325725E3,-2.1630176E2,-1.319556E3,2.680723E3,1.1639575E3,-1.9693402E3,3.598744E3,-8.798828E0,3.850242E3],"categories":[],"categories_nodes":[],"categories_segments":[],"categories_sizes":[],"default_left":[0,0,0,0,0,0,0,0,0,0,0,0,0,0,0,0,0,0,0,0,0,0,0,0,0,0,0,0,0],"id":15,"left_children":[1,3,5,7,9,11,13,15,17,19,21,23,25,27,-1,-1,-1,-1,-1,-1,-1,-1,-1,-1,-1,-1,-1,-1,-1],"loss_changes":[6.0525845E11,1.6082041E11,1.404887E11,3.9299154E10,6.3646777E10,4.1883992E10,2.7467022E10,1.4061793E10,1.1157422E10,4.0054686E10,1.386355E10,1.3465575E10,1.9167953E10,5.236003E9,0E0,0E0,0E0,0E0,0E0,0E0,0E0,0E0,0E0,0E0,0E0,0E0,0E0,0E0,0E0],"parents":[2147483647,0,0,1,1,2,2,3,3,4,4,5,5,6,6,7,7,8,8,9,9,10,10,11,11,12,12,13,13],"right_children":[2,4,6,8,10,12,14,16,18,20,22,24,26,28,-1,-1,-1,-1,-1,-1,-1,-1,-1,-1,-1,-1,-1,-1,-1],"split_conditions":[8E0,1.414E3,2.62E3,2E0,3E0,1.92E3,3E0,1.11E3,8.03E2,2.094E3,2E0,1E0,1E0,9E0,7.98315E3,-1.19341E3,-3.3168848E2,-2.8270554E3,-1.5273977E3,5.1428015E2,2.325725E3,-2.1630176E2,-1.319556E3,2.680723E3,1.1639575E3,-1.9693402E3,3.598744E3,-8.798828E0,3.850242E3],"split_indices":[0,4,4,7,6,4,1,4,4,4,5,6,1,9,0,0,0,0,0,0,0,0,0,0,0,0,0,0,0],"split_type":[0,0,0,0,0,0,0,0,0,0,0,0,0,0,0,0,0,0,0,0,0,0,0,0,0,0,0,0,0],"sum_hessian":[9.33E2,7.82E2,1.51E2,4.11E2,3.71E2,1.3E2,2.1E1,1.99E2,2.12E2,1.97E2,1.74E2,8.1E1,4.9E1,7E0,1.4E1,7.8E1,1.21E2,1.9E1,1.93E2,1.6E2,3.7E1,1.39E2,3.5E1,2E1,6.1E1,1E0,4.8E1,1E0,6E0],"tree_param":{"num_deleted":"0","num_feature":"10","num_nodes":"29","size_leaf_vector":"1"}},{"base_weights":[1.6760568E2,2.9032428E4,-1.6932225E4,1.4031484E4,6.748244E4,-2.5491768E4,-1.0728105E3,6.5218853E3,4.026477E4,5.792361E4,7.1948022E3,-1.770295E4,-3.3023438E4,-4.6064E3,4.7212074E4,-1.556953E3,5.514845E2,2.0877686E3,-1.00569336E3,4.318891E3,2.2528474E3,-1.6710155E3,-7.058964E2,-2.482868E3,-1.5331335E3,-3.40027E-1,-1.4645345E3,1.4453033E3,3.7190837E3],"categories":[],"categories_nodes":[],"categories_segments":[],"categories_sizes":[],"default_left":[0,0,0,0,0,0,0,0,0,0,0,0,0,0,0,0,0,0,0,0,0,0,0,0,0,0,0,0,0],"id":16,"left_children":[1,3,5,7,9,11,13,15,17,19,-1,21,23,25,27,-1,-1,-1,-1,-1,-1,-1,-1,-1,-1,-1,-1,-1,-1],"loss_changes":[4.55082E11,1.9689089E11,7.85715E10,4.859376E10,6.17858E10,2.1472625E10,3.5023745E10,3.3278482E10,5.7898844E9,2.7959722E10,0E0,1.0065076E10,5.93843E9,2.168553E10,4.813056E9,0E0,0E0,0E0,0E0,0E0,0E0,0E0,0E0,0E0,0E0,0E0,0E0,0E0,0E0],"parents":[2147483647,0,0,1,1,2,2,3,3,4,4,5,5,6,6,7,7,8,8,9,9,11,11,12,12,13,13,14,14],"right_children":[2,4,6,8,10,12,14,16,18,20,-1,22,24,26,28,-1,-1,-1,-1,-1,-1,-1,-1,-1,-1,-1,-1,-1,-1],"split_conditions":[3E0,3E0,1.494E3,1.924E3,2.696E3,4E0,2.554E3,1.146E3,3.493E3,1E0,7.1948022E3,9.9E2,8.16E2,2E0,3.112E3,-1.556953E3,5.514845E2,2.0877686E3,-1.00569336E3,4.318891E3,2.2528474E3,-1.6710155E3,-7.058964E2,-2.482868E3,-1.5331335E3,-3.40027E-1,-1.4645345E3,1.4453033E3,3.7190837E3],"split_indices":[2,1,4,4,4,7,4,4,4,6,0,4,4,5,4,0,0,0,0,0,0,0,0,0,0,0,0,0,0],"split_type":[0,0,0,0,0,0,0,0,0,0,0,0,0,0,0,0,0,0,0,0,0,0,0,0,0,0,0,0,0],"sum_hessian":[9.2E2,3.42E2,5.78E2,2.47E2,9.5E1,3.75E2,2.03E2,1.93E2,5.4E1,8.6E1,9E0,1.86E2,1.89E2,1.9E2,1.3E1,2E1,1.73E2,5.3E1,1E0,2.5E1,6.1E1,3.3E1,1.53E2,2.1E1,1.68E2,1.61E2,2.9E1,9E0,4E0],"tree_param":{"num_deleted":"0","num_feature":"10","num_nodes":"29","size_leaf_vector":"1"}},{"base_weights":[-8.6278925E0,-1.805898E4,2.9764104E4,-2.4935438E4,-6.110687E3,7.2099516E4,1.8652502E4,-3.976221E4,-2.1394955E4,8.224738E2,-1.747402E4,4.028897E4,9.142693E4,1.3042765E4,6.4404586E4,-2.360725E3,-1.1910946E3,-7.9585114E2,-1.3310349E3,7.08538E2,-3.0063504E2,-9.855892E2,1.0017404E3,-4.6973244E1,2.2541113E3,4.7232637E3,-9.805512E2,8.482013E2,-7.4766437E2,2.5205447E3,6.2145444E3],"categories":[],"categories_nodes":[],"categories_segments":[],"categories_sizes":[],"default_left":[0,0,0,0,0,0,0,0,0,0,0,0,0,0,0,0,0,0,0,0,0,0,0,0,0,0,0,0,0,0,0],"id":17,"left_children":[1,3,5,7,9,11,13,15,17,19,21,23,25,27,29,-1,-1,-1,-1,-1,-1,-1,-1,-1,-1,-1,-1,-1,-1,-1,-1],"loss_changes":[4.9549056E11,4.7008596E10,1.6235928E11,1.8257068E10,1.6637755E10,4.0583266E10,7.0254035E10,7.0718996E9,8.0496394E9,1.2128602E10,7.109796E9,5.7732915E9,1.6696934E10,2.7479069E10,1.8875302E10,0E0,0E0,0E0,0E0,0E0,0E0,0E0,0E0,0E0,0E0,0E0,0E0,0E0,0E0,0E0,0E0],"parents":[2147483647,0,0,1,1,2,2,3,3,4,4,5,5,6,6,7,7,8,8,9,9,10,10,11,11,12,12,13,13,14,14],"right_children":[2,4,6,8,10,12,14,16,18,20,22,24,26,28,30,-1,-1,-1,-1,-1,-1,-1,-1,-1,-1,-1,-1,-1,-1,-1,-1],"split_conditions":[7E0,1.414E3,1E0,5E0,4E0,1.839E3,2.392E3,1.096E3,3E0,3E0,2.554E3,1.301E3,5.642E3,4E0,3.228E3,-2.360725E3,-1.1910946E3,-7.9585114E2,-1.3310349E3,7.08538E2,-3.0063504E2,-9.855892E2,1.0017404E3,-4.6973244E1,2.2541113E3,4.7232637E3,-9.805512E2,8.482013E2,-7.4766437E2,2.5205447E3,6.2145444E3],"split_indices":[0,4,8,0,7,4,4,4,7,6,4,4,4,7,4,0,0,0,0,0,0,0,0,0,0,0,0,0,0,0,0],"split_type":[0,0,0,0,0,0,0,0,0,0,0,0,0,0,0,0,0,0,0,0,0,0,0,0,0,0,0,0,0,0,0],"sum_hessian":[9.2E2,5.73E2,3.47E2,3.63E2,2.1E2,7.1E1,2.76E2,6.8E1,2.95E2,1.31E2,7.9E1,2.8E1,4.3E1,2.47E2,2.9E1,4.5E1,2.3E1,1.46E2,1.49E2,4.4E1,8.7E1,7.5E1,4E0,3E0,2.5E1,4.2E1,1E0,2.17E2,3E1,2.5E1,4E0],"tree_param":{"num_deleted":"0","num_feature":"10","num_nodes":"31","size_leaf_vector":"1"}},{"base_weights":[2.3052937E2,-9.18658E3,5.186068E4,-2.0461973E4,7.5268096E3,4.2035938E4,1.1116352E5,-2.9288219E4,-1.2265015E4,-3.1982395E3,2.1241043E4,2.338052E4,5.7108086E4,1.4516139E5,7.01506E4,-2.6111614E3,-1.3655469E3,-1.133723E3,-3.9388864E2,-1.0103413E3,1.2890907E2,8.9832776E2,3.3635305E3,-1.8831116E3,1.311658E3,1.3232643E3,3.256494E3,4.745857E3,1.1537946E4,4.286309E3,2.0166667E0],"categories":[],"categories_nodes":[],"categories_segments":[],"categories_sizes":[],"default_left":[0,0,0,0,0,0,0,0,0,0,0,0,0,0,0,0,0,0,0,0,0,0,0,0,0,0,0,0,0,0,0],"id":18,"left_children":[1,3,5,7,9,11,13,15,17,19,21,23,25,27,29,-1,-1,-1,-1,-1,-1,-1,-1,-1,-1,-1,-1,-1,-1,-1,-1],"loss_changes":[4.570246E11,1.499718E11,7.980922E10,3.4006254E10,4.7282483E10,3.4093138E10,1.7703895E10,8.913289E9,1.1147227E10,1.7835123E10,2.0043379E10,1.1087706E10,1.5237202E10,2.1104853E10,1.2008632E10,0E0,0E0,0E0,0E0,0E0,0E0,0E0,0E0,0E0,0E0,0E0,0E0,0E0,0E0,0E0,0E0],"parents":[2147483647,0,0,1,1,2,2,3,3,4,4,5,5,6,6,7,7,8,8,9,9,10,10,11,11,12,12,13,13,14,14],"right_children":[2,4,6,8,10,12,14,16,18,20,22,24,26,28,30,-1,-1,-1,-1,-1,-1,-1,-1,-1,-1,-1,-1,-1,-1,-1,-1],"split_conditions":[8E0,1.484E3,2.62E3,2E0,7E0,3E0,3E0,7.64E2,1.073E3,2E0,2.344E3,2E0,1.701E3,3.493E3,3.493E3,-2.6111614E3,-1.3655469E3,-1.133723E3,-3.9388864E2,-1.0103413E3,1.2890907E2,8.9832776E2,3.3635305E3,-1.8831116E3,1.311658E3,1.3232643E3,3.256494E3,4.745857E3,1.1537946E4,4.286309E3,2.0166667E0],"split_indices":[0,4,4,1,0,1,7,4,4,1,4,1,4,4,4,0,0,0,0,0,0,0,0,0,0,0,0,0,0,0,0],"split_type":[0,0,0,0,0,0,0,0,0,0,0,0,0,0,0,0,0,0,0,0,0,0,0,0,0,0,0,0,0,0,0],"sum_hessian":[9.38E2,7.94E2,1.44E2,4.74E2,3.2E2,1.25E2,1.9E1,2.27E2,2.47E2,1.8E2,1.4E2,5.7E1,6.8E1,9E0,1E1,1.6E1,2.11E2,7.2E1,1.75E2,4.5E1,1.35E2,1.32E2,8E0,2E0,5.5E1,1.5E1,5.3E1,7E0,2E0,8E0,2E0],"tree_param":{"num_deleted":"0","num_feature":"10","num_nodes":"31","size_leaf_vector":"1"}},{"base_weights":[6.447869E2,-8.738736E3,5.2216848E4,-2.659976E4,3.4538177E2,7.854551E4,3.050121E4,-4.0029016E4,-2.2643598E4,-1.9134998E4,6.0825596E3,6.3139414E4,1.0708468E5,2.480262E4,6.62869E3,-2.2246477E3,-9.418753E2,-1.3700005E3,-8.3171466E2,-1.0481553E3,3.597138E1,-4.640654E1,1.0603306E3,1.6421959E3,3.309065E3,-2.5741223E2,5.9584814E3,1.3762128E3,-1.5874131E3],"categories":[],"categories_nodes":[],"categories_segments":[],"categories_sizes":[],"default_left":[0,0,0,0,0,0,0,0,0,0,0,0,0,0,0,0,0,0,0,0,0,0,0,0,0,0,0,0,0],"id":19,"left_children":[1,3,5,7,9,11,13,15,17,19,21,23,25,27,-1,-1,-1,-1,-1,-1,-1,-1,-1,-1,-1,-1,-1,-1,-1],"loss_changes":[4.495412E11,1.27539E11,7.9363604E10,1.3172605E10,5.8456367E10,2.1378073E10,4.324542E10,4.743119E9,5.4608445E9,4.3343094E9,4.2855825E10,1.8811781E9,2.9096411E10,1.2724978E10,0E0,0E0,0E0,0E0,0E0,0E0,0E0,0E0,0E0,0E0,0E0,0E0,0E0,0E0,0E0],"parents":[2147483647,0,0,1,1,2,2,3,3,4,4,5,5,6,6,7,7,8,8,9,9,10,10,11,11,12,12,13,13],"right_children":[2,4,6,8,10,12,14,16,18,20,22,24,26,28,-1,-1,-1,-1,-1,-1,-1,-1,-1,-1,-1,-1,-1,-1,-1],"split_conditions":[8E0,1.2E3,1E0,5E0,2E0,2.196E3,3.228E3,1.096E3,2E0,1.97E3,1.784E3,1.647E3,3E0,3E0,6.62869E3,-2.2246477E3,-9.418753E2,-1.3700005E3,-8.3171466E2,-1.0481553E3,3.597138E1,-4.640654E1,1.0603306E3,1.6421959E3,3.309065E3,-2.5741223E2,5.9584814E3,1.3762128E3,-1.5874131E3],"split_indices":[0,4,8,0,1,4,4,4,1,4,4,4,1,6,0,0,0,0,0,0,0,0,0,0,0,0,0,0,0],"split_type":[0,0,0,0,0,0,0,0,0,0,0,0,0,0,0,0,0,0,0,0,0,0,0,0,0,0,0,0,0],"sum_hessian":[9.27E2,7.85E2,1.42E2,2.64E2,5.21E2,6.3E1,7.9E1,5.8E1,2.06E2,1.18E2,4.03E2,4.3E1,2E1,7.6E1,3E0,4.7E1,1.1E1,1.13E2,9.3E1,1.08E2,1E1,2.76E2,1.27E2,5E0,3.8E1,2E0,1.8E1,7.3E1,3E0],"tree_param":{"num_deleted":"0","num_feature":"10","num_nodes":"29","size_leaf_vector":"1"}},{"base_weights":[4.2781E2,-8.4452E3,4.7316777E4,-1.87021E4,7.761474E3,3.650065E4,1.0907949E5,-1.0844332E4,-2.6743102E4,1.7338756E4,-4.1453896E3,5.759499E4,2.2153732E4,5.000398E4,1.2810756E5,5.9774677E1,-7.507962E2,-2.1194758E3,-1.1894331E3,6.129123E2,2.2084487E3,-3.2128534E2,1.4753246E3,1.8916637E3,3.724582E3,1.252064E3,-1.2795107E3,-2.6535E2,3.0053489E3,7.852453E3,4.751888E3],"categories":[],"categories_nodes":[],"categories_segments":[],"categories_sizes":[],"default_left":[0,0,0,0,0,0,0,0,0,0,0,0,0,0,0,0,0,0,0,0,0,0,0,0,0,0,0,0,0,0,0],"id":20,"left_children":[1,3,5,7,9,11,13,15,17,19,21,23,25,27,29,-1,-1,-1,-1,-1,-1,-1,-1,-1,-1,-1,-1,-1,-1,-1,-1],"loss_changes":[3.9481144E11,1.32796875E11,9.689157E10,3.0607114E10,3.5422847E10,3.806711E10,1.8324177E10,1.2524036E10,1.0132177E10,2.2904095E10,1.0856037E10,1.454488E10,1.1531981E10,4.2306335E9,3.8784205E8,0E0,0E0,0E0,0E0,0E0,0E0,0E0,0E0,0E0,0E0,0E0,0E0,0E0,0E0,0E0,0E0],"parents":[2147483647,0,0,1,1,2,2,3,3,4,4,5,5,6,6,7,7,8,8,9,9,10,10,11,11,12,12,13,13,14,14],"right_children":[2,4,6,8,10,12,14,16,18,20,22,24,26,28,30,-1,-1,-1,-1,-1,-1,-1,-1,-1,-1,-1,-1,-1,-1,-1,-1],"split_conditions":[8E0,1.489E3,2.62E3,2E0,3E0,1E0,3E0,3E0,8.48E2,2.156E3,2.601E3,1.855E3,3E0,9E0,2E0,5.9774677E1,-7.507962E2,-2.1194758E3,-1.1894331E3,6.129123E2,2.2084487E3,-3.2128534E2,1.4753246E3,1.8916637E3,3.724582E3,1.252064E3,-1.2795107E3,-2.6535E2,3.0053489E3,7.852453E3,4.751888E3],"split_indices":[0,4,4,7,6,8,1,2,4,4,4,4,8,9,7,0,0,0,0,0,0,0,0,0,0,0,0,0,0,0,0],"split_type":[0,0,0,0,0,0,0,0,0,0,0,0,0,0,0,0,0,0,0,0,0,0,0,0,0,0,0,0,0,0,0],"sum_hessian":[9.47E2,7.97E2,1.5E2,4.88E2,3.09E2,1.29E2,2.1E1,2.48E2,2.4E2,1.71E2,1.38E2,5.1E1,7.8E1,6E0,1.5E1,6.4E1,1.84E2,3.6E1,2.04E2,1.45E2,2.6E1,1.3E2,8E0,2.5E1,2.6E1,7.4E1,4E0,1E0,5E0,6E0,9E0],"tree_param":{"num_deleted":"0","num_feature":"10","num_nodes":"31","size_leaf_vector":"1"}},{"base_weights":[2.2977554E2,-7.8539873E3,4.280273E4,-2.142122E4,1.5265043E3,3.448191E4,1.0190641E5,-5.0968688E4,-1.9715266E4,-6.865315E3,1.936293E4,5.3941484E4,2.172118E4,1.1099075E5,-1.3131848E3,-7.7879926E2,-2.7324658E3,-6.662084E2,-1.1957582E3,-1.077738E3,-1.1702624E2,1.3745607E3,2.2017772E2,1.7252672E3,3.6025247E3,6.9268353E2,1.8617246E3,6.6373174E3,3.496121E3],"categories":[],"categories_nodes":[],"categories_segments":[],"categories_sizes":[],"default_left":[0,0,0,0,0,0,0,0,0,0,0,0,0,0,0,0,0,0,0,0,0,0,0,0,0,0,0,0,0],"id":21,"left_children":[1,3,5,7,9,11,13,15,17,19,21,23,25,27,-1,-1,-1,-1,-1,-1,-1,-1,-1,-1,-1,-1,-1,-1,-1],"loss_changes":[3.234927E11,1.0057387E11,7.025474E10,1.5276474E10,7.01832E10,3.1854674E10,2.387316E10,1.3633331E9,7.921828E9,2.1152412E10,1.8118038E10,1.5816262E10,9.492357E9,5.906989E9,0E0,0E0,0E0,0E0,0E0,0E0,0E0,0E0,0E0,0E0,0E0,0E0,0E0,0E0,0E0],"parents":[2147483647,0,0,1,1,2,2,3,3,4,4,5,5,6,6,7,7,8,8,9,9,10,10,11,11,12,12,13,13],"right_children":[2,4,6,8,10,12,14,16,18,20,22,24,26,28,-1,-1,-1,-1,-1,-1,-1,-1,-1,-1,-1,-1,-1,-1,-1],"split_conditions":[8E0,6E0,2.62E3,4E0,1.71E3,1E0,5.642E3,2E0,2E0,2E0,3E0,1.839E3,1.958E3,3E0,-1.3131848E3,-7.7879926E2,-2.7324658E3,-6.662084E2,-1.1957582E3,-1.077738E3,-1.1702624E2,1.3745607E3,2.2017772E2,1.7252672E3,3.6025247E3,6.9268353E2,1.8617246E3,6.6373174E3,3.496121E3],"split_indices":[0,0,4,0,4,8,4,7,7,1,6,4,4,7,0,0,0,0,0,0,0,0,0,0,0,0,0,0,0],"split_type":[0,0,0,0,0,0,0,0,0,0,0,0,0,0,0,0,0,0,0,0,0,0,0,0,0,0,0,0,0],"sum_hessian":[9.38E2,7.89E2,1.49E2,3.22E2,4.67E2,1.32E2,1.7E1,1.6E1,3.06E2,3.18E2,1.49E2,5.1E1,8.1E1,1.6E1,1E0,2E0,1.4E1,1.23E2,1.83E2,7.4E1,2.44E2,9.6E1,5.3E1,2.6E1,2.5E1,5.5E1,2.6E1,9E0,7E0],"tree_param":{"num_deleted":"0","num_feature":"10","num_nodes":"29","size_leaf_vector":"1"}},{"base_weights":[-4.3095825E2,-1.4456374E4,2.2892084E4,-6.3247505E3,-2.3873896E4,1.0662796E4,5.1363758E4,-1.0139099E4,1.6447598E4,-3.5848426E4,-1.976361E4,-3.4085928E3,1.6230421E4,7.586975E4,3.2845273E4,-8.477632E2,-2.0550047E2,-2.5028828E2,9.938234E2,-2.6563408E3,-1.5352491E3,-1.0698792E3,9.620687E1,6.9097795E0,-9.4852637E2,9.8556134E2,-9.8666466E1,2.9271333E3,4.9972783E3,1.0530992E3,2.797396E3],"categories":[],"categories_nodes":[],"categories_segments":[],"categories_sizes":[],"default_left":[0,0,0,0,0,0,0,0,0,0,0,0,0,0,0,0,0,0,0,0,0,0,0,0,0,0,0,0,0,0,0],"id":22,"left_children":[1,3,5,7,9,11,13,15,17,19,21,23,25,27,29,-1,-1,-1,-1,-1,-1,-1,-1,-1,-1,-1,-1,-1,-1,-1,-1],"loss_changes":[3.0225842E11,4.4035514E10,1.2027365E11,2.718074E10,1.24329E10,1.9171308E10,4.470471E10,1.0902747E10,3.4097336E9,4.3230577E9,7.1640433E9,3.8662633E9,1.1127546E10,1.2504105E10,1.5427363E10,0E0,0E0,0E0,0E0,0E0,0E0,0E0,0E0,0E0,0E0,0E0,0E0,0E0,0E0,0E0,0E0],"parents":[2147483647,0,0,1,1,2,2,3,3,4,4,5,5,6,6,7,7,8,8,9,9,10,10,11,11,12,12,13,13,14,14],"right_children":[2,4,6,8,10,12,14,16,18,20,22,24,26,28,30,-1,-1,-1,-1,-1,-1,-1,-1,-1,-1,-1,-1,-1,-1,-1,-1],"split_conditions":[7E0,4E0,3E0,1.784E3,5E0,1.484E3,1E0,6E0,2E0,4E0,2.142E3,3E0,3E0,2.196E3,2.291E3,-8.477632E2,-2.0550047E2,-2.5028828E2,9.938234E2,-2.6563408E3,-1.5352491E3,-1.0698792E3,9.620687E1,6.9097795E0,-9.4852637E2,9.8556134E2,-9.8666466E1,2.9271333E3,4.9972783E3,1.0530992E3,2.797396E3],"split_indices":[0,7,1,4,0,4,8,0,1,0,4,6,8,4,4,0,0,0,0,0,0,0,0,0,0,0,0,0,0,0,0],"split_type":[0,0,0,0,0,0,0,0,0,0,0,0,0,0,0,0,0,0,0,0,0,0,0,0,0,0,0,0,0,0,0],"sum_hessian":[9.22E2,5.76E2,3.46E2,3.1E2,2.66E2,2.43E2,1.03E2,2.66E2,4.4E1,6.6E1,2E2,6.9E1,1.74E2,4.3E1,6E1,1.24E2,1.42E2,6E0,3.8E1,1.3E1,5.3E1,1.86E2,1.4E1,5.7E1,1.2E1,1.46E2,2.8E1,2.7E1,1.6E1,4.1E1,1.9E1],"tree_param":{"num_deleted":"0","num_feature":"10","num_nodes":"31","size_leaf_vector":"1"}},{"base_weights":[8.690204E1,-1.3102114E4,2.1464465E4,-2.3901396E4,-7.5864023E3,1.543579E4,5.9905215E4,-3.8374816E4,-1.9299094E4,-1.5228888E4,-7.5252625E2,4.1958375E4,9.055659E3,6.2240734E4,-1.3049941E3,-1.5874657E3,-2.4613699E3,-1.6376016E3,-8.7444415E2,-2.818219E2,-8.6757245E2,-2.1614221E2,1.0287728E3,-4.8388998E2,2.2875876E3,6.35901E2,-7.21645E2,3.3506404E3,1.7057946E3],"categories":[],"categories_nodes":[],"categories_segments":[],"categories_sizes":[],"default_left":[0,0,0,0,0,0,0,0,0,0,0,0,0,0,0,0,0,0,0,0,0,0,0,0,0,0,0,0,0],"id":23,"left_children":[1,3,5,7,9,11,13,15,17,19,21,23,25,27,-1,-1,-1,-1,-1,-1,-1,-1,-1,-1,-1,-1,-1,-1,-1],"loss_changes":[2.6897867E11,3.4962457E10,8.3431145E10,1.2515E10,2.046184E10,5.309278E10,1.1466949E10,1.816535E9,3.1531663E9,3.668902E9,1.5927663E10,1.2391178E10,2.220559E10,4.1560474E9,0E0,0E0,0E0,0E0,0E0,0E0,0E0,0E0,0E0,0E0,0E0,0E0,0E0,0E0,0E0],"parents":[2147483647,0,0,1,1,2,2,3,3,4,4,5,5,6,6,7,7,8,8,9,9,10,10,11,11,12,12,13,13],"right_children":[2,4,6,8,10,12,14,16,18,20,22,24,26,28,-1,-1,-1,-1,-1,-1,-1,-1,-1,-1,-1,-1,-1,-1,-1],"split_conditions":[7E0,1.1E3,2.392E3,5E0,6E0,1E0,5.642E3,6E0,8.16E2,3E0,1.96E3,1.416E3,4E0,3E0,-1.3049941E3,-1.5874657E3,-2.4613699E3,-1.6376016E3,-8.7444415E2,-2.818219E2,-8.6757245E2,-2.1614221E2,1.0287728E3,-4.8388998E2,2.2875876E3,6.35901E2,-7.21645E2,3.3506404E3,1.7057946E3],"split_indices":[0,4,4,0,0,8,4,7,4,8,4,4,7,8,0,0,0,0,0,0,0,0,0,0,0,0,0,0,0],"split_type":[0,0,0,0,0,0,0,0,0,0,0,0,0,0,0,0,0,0,0,0,0,0,0,0,0,0,0,0,0],"sum_hessian":[9.52E2,5.89E2,3.63E2,1.98E2,3.91E2,3.15E2,4.8E1,4.6E1,1.52E2,1.84E2,2.07E2,6E1,2.55E2,4.7E1,1E0,3.1E1,1.5E1,1.6E1,1.36E2,3.4E1,1.5E2,1.78E2,2.9E1,4E0,5.6E1,2.21E2,3.4E1,3.9E1,8E0],"tree_param":{"num_deleted":"0","num_feature":"10","num_nodes":"29","size_leaf_vector":"1"}},{"base_weights":[-3.6134726E2,-7.018317E3,3.4152164E4,-1.931126E4,8.6784705E2,2.0343973E4,4.921204E4,-3.2880426E4,-1.5895814E4,5.628626E3,-1.1762005E4,1.4268661E4,4.2376406E4,5.092415E4,-1.8086907E3,-2.3121443E3,-1.4676807E3,-5.4307465E2,-1.0381348E3,9.886992E1,1.238113E3,-6.8351715E2,1.5295736E3,8.049863E2,-1.4469972E3,2.203651E3,3.8076642E2,2.650313E3,-6.9695526E2],"categories":[],"categories_nodes":[],"categories_segments":[],"categories_sizes":[],"default_left":[0,0,0,0,0,0,0,0,0,0,0,0,0,0,0,0,0,0,0,0,0,0,0,0,0,0,0,0,0],"id":24,"left_children":[1,3,5,7,9,11,13,15,17,19,21,23,25,27,-1,-1,-1,-1,-1,-1,-1,-1,-1,-1,-1,-1,-1,-1,-1],"loss_changes":[2.1598E11,7.640876E10,3.060718E10,1.3751525E10,2.898774E10,1.0237512E10,1.2367774E10,1.5173468E9,5.8508493E9,2.4402475E10,1.1087059E10,5.608583E9,6.669619E8,1.0327572E10,0E0,0E0,0E0,0E0,0E0,0E0,0E0,0E0,0E0,0E0,0E0,0E0,0E0,0E0,0E0],"parents":[2147483647,0,0,1,1,2,2,3,3,4,4,5,5,6,6,7,7,8,8,9,9,10,10,11,11,12,12,13,13],"right_children":[2,4,6,8,10,12,14,16,18,20,22,24,26,28,-1,-1,-1,-1,-1,-1,-1,-1,-1,-1,-1,-1,-1,-1,-1],"split_conditions":[8E0,1.25E3,1.92E3,5E0,4E0,9E0,6E0,7.64E2,4E0,1.987E3,2.601E3,3E0,1.865E3,3.493E3,-1.8086907E3,-2.3121443E3,-1.4676807E3,-5.4307465E2,-1.0381348E3,9.886992E1,1.238113E3,-6.8351715E2,1.5295736E3,8.049863E2,-1.4469972E3,2.203651E3,3.8076642E2,2.650313E3,-6.9695526E2],"split_indices":[0,4,4,0,7,0,7,4,7,4,4,8,4,4,0,0,0,0,0,0,0,0,0,0,0,0,0,0,0],"split_type":[0,0,0,0,0,0,0,0,0,0,0,0,0,0,0,0,0,0,0,0,0,0,0,0,0,0,0,0,0],"sum_hessian":[9.38E2,7.87E2,1.51E2,3.07E2,4.8E2,8E1,7.1E1,6E1,2.47E2,3.49E2,1.31E2,6.4E1,1.6E1,7E1,1E0,1E1,5E1,1.23E2,1.24E2,2.94E2,5.5E1,1.26E2,5E0,6.2E1,2E0,1.5E1,1E0,6.8E1,2E0],"tree_param":{"num_deleted":"0","num_feature":"10","num_nodes":"29","size_leaf_vector":"1"}},{"base_weights":[8.324457E1,-1.1274311E4,1.8593947E4,-1.9289129E4,-4.451529E3,8.11878E3,4.1903527E4,-2.5143455E3,-1.7908805E4,-9.761298E3,4.8445767E3,1.2628989E4,-4.714823E3,3.5578355E4,9.164845E4,-1.2137708E3,-7.1199677E2,-2.2038743E3,-4.4272934E2,4.7664035E2,-8.5206366E2,4.5085E2,1.7764762E3,-6.983468E2,3.4266382E2,3.2292864E3,1.425473E3,2.8749333E3,5.391353E3],"categories":[],"categories_nodes":[],"categories_segments":[],"categories_sizes":[],"default_left":[0,0,0,0,0,0,0,0,0,0,0,0,0,0,0,0,0,0,0,0,0,0,0,0,0,0,0,0,0],"id":25,"left_children":[1,3,5,7,9,11,13,-1,15,17,19,21,23,25,27,-1,-1,-1,-1,-1,-1,-1,-1,-1,-1,-1,-1,-1,-1],"loss_changes":[2.0014439E11,3.2177324E10,8.804998E10,1.0694689E10,1.5842544E10,1.4587987E10,3.197957E10,0E0,5.750833E9,5.9571466E9,1.216734E10,1.5064898E10,7.159657E9,1.8868773E10,4.3004723E8,0E0,0E0,0E0,0E0,0E0,0E0,0E0,0E0,0E0,0E0,0E0,0E0,0E0,0E0],"parents":[2147483647,0,0,1,1,2,2,3,3,4,4,5,5,6,6,8,8,9,9,10,10,11,11,12,12,13,13,14,14],"right_children":[2,4,6,8,10,12,14,-1,16,18,20,22,24,26,28,-1,-1,-1,-1,-1,-1,-1,-1,-1,-1,-1,-1,-1,-1],"split_conditions":[7E0,2E0,3E0,4E0,1.571E3,3E0,2.696E3,-2.5143455E3,1.034E3,8.16E2,2E0,2.094E3,1.784E3,1E0,1E0,-1.2137708E3,-7.1199677E2,-2.2038743E3,-4.4272934E2,4.7664035E2,-8.5206366E2,4.5085E2,1.7764762E3,-6.983468E2,3.4266382E2,3.2292864E3,1.425473E3,2.8749333E3,5.391353E3],"split_indices":[0,1,1,0,4,2,4,0,4,4,5,4,4,2,2,0,0,0,0,0,0,0,0,0,0,0,0,0,0],"split_type":[0,0,0,0,0,0,0,0,0,0,0,0,0,0,0,0,0,0,0,0,0,0,0,0,0,0,0,0,0],"sum_hessian":[9.5E2,5.89E2,3.61E2,2.7E2,3.19E2,2.5E2,1.11E2,1E1,2.6E2,2.03E2,1.16E2,1.85E2,6.5E1,1E2,1.1E1,9.3E1,1.67E2,4E0,1.99E2,9.6E1,2E1,1.61E2,2.4E1,3.6E1,2.9E1,1.8E1,8.2E1,5E0,6E0],"tree_param":{"num_deleted":"0","num_feature":"10","num_nodes":"29","size_leaf_vector":"1"}},{"base_weights":[1.3491163E3,-5.71881E3,3.9722516E4,-1.8734156E4,9.127317E2,3.1590354E4,1.2654375E5,-1.1185903E4,-2.334267E4,-4.2195845E3,1.6302659E4,5.4443832E4,1.7611018E4,3.5698695E4,1.6750394E5,-6.102595E2,8.418969E2,-2.2919812E3,-1.0865126E3,3.282038E1,-6.1864996E2,1.1380712E3,2.580704E2,-1.7122208E2,2.9105205E3,2.708225E2,1.4556216E3,-5.964631E2,3.5713542E3,9.179714E3,1.3717922E3],"categories":[],"categories_nodes":[],"categories_segments":[],"categories_sizes":[],"default_left":[0,0,0,0,0,0,0,0,0,0,0,0,0,0,0,0,0,0,0,0,0,0,0,0,0,0,0,0,0,0,0],"id":26,"left_children":[1,3,5,7,9,11,13,15,17,19,21,23,25,27,29,-1,-1,-1,-1,-1,-1,-1,-1,-1,-1,-1,-1,-1,-1,-1,-1],"loss_changes":[2.5110598E11,6.7512934E10,9.767281E10,8.922456E9,4.106251E10,4.1531556E10,3.8672695E10,3.1190743E9,4.9166336E9,1.5512957E10,9.237152E9,1.109762E10,1.1623715E10,9.360423E9,1.2992856E10,0E0,0E0,0E0,0E0,0E0,0E0,0E0,0E0,0E0,0E0,0E0,0E0,0E0,0E0,0E0,0E0],"parents":[2147483647,0,0,1,1,2,2,3,3,4,4,5,5,6,6,7,7,8,8,9,9,10,10,11,11,12,12,13,13,14,14],"right_children":[2,4,6,8,10,12,14,16,18,20,22,24,26,28,30,-1,-1,-1,-1,-1,-1,-1,-1,-1,-1,-1,-1,-1,-1,-1,-1],"split_conditions":[8E0,2E0,2.81E3,3E0,1.784E3,1E0,3E0,1.865E3,4E0,3E0,3E0,1.564E3,1.804E3,1E0,3E0,-6.102595E2,8.418969E2,-2.2919812E3,-1.0865126E3,3.282038E1,-6.1864996E2,1.1380712E3,2.580704E2,-1.7122208E2,2.9105205E3,2.708225E2,1.4556216E3,-5.964631E2,3.5713542E3,9.179714E3,1.3717922E3],"split_indices":[0,1,4,7,4,8,1,4,0,8,8,4,4,8,2,0,0,0,0,0,0,0,0,0,0,0,0,0,0,0,0],"split_type":[0,0,0,0,0,0,0,0,0,0,0,0,0,0,0,0,0,0,0,0,0,0,0,0,0,0,0,0,0,0,0],"sum_hessian":[9.24E2,7.81E2,1.43E2,2.63E2,5.18E2,1.32E2,1.1E1,1.01E2,1.62E2,3.89E2,1.29E2,4.9E1,8.3E1,4E0,7E0,9.8E1,3E0,9E0,1.53E2,2.44E2,1.45E2,8.1E1,4.8E1,3E0,4.6E1,4.1E1,4.2E1,2E0,2E0,6E0,1E0],"tree_param":{"num_deleted":"0","num_feature":"10","num_nodes":"31","size_leaf_vector":"1"}},{"base_weights":[1.4804584E2,-6.26554E3,3.3871484E4,-1.3206817E4,3.791893E3,2.7202168E4,1.0885755E5,-7.2450635E3,-1.9502867E4,8.2112E3,-1.0307852E4,4.6113688E4,1.5503159E4,2.89325E4,6.0974653E3,-1.2388182E1,-5.5039325E2,-2.0539937E3,-9.109897E2,6.411808E2,-4.733258E1,-6.205507E2,1.5851703E3,1.1822904E3,3.0647935E3,-9.790101E2,9.388393E2,4.1957422E2,1.7503633E3],"categories":[],"categories_nodes":[],"categories_segments":[],"categories_sizes":[],"default_left":[0,0,0,0,0,0,0,0,0,0,0,0,0,0,0,0,0,0,0,0,0,0,0,0,0,0,0,0,0],"id":27,"left_children":[1,3,5,7,9,11,13,15,17,19,21,23,25,27,-1,-1,-1,-1,-1,-1,-1,-1,-1,-1,-1,-1,-1,-1,-1],"loss_changes":[2.0438824E11,5.5480345E10,7.255481E10,1.7500381E10,2.033575E10,3.0259544E10,9.028026E9,6.3953316E9,5.563687E9,1.0487612E10,7.2852777E9,1.6629506E10,1.0474439E10,8.058266E7,0E0,0E0,0E0,0E0,0E0,0E0,0E0,0E0,0E0,0E0,0E0,0E0,0E0,0E0,0E0],"parents":[2147483647,0,0,1,1,2,2,3,3,4,4,5,5,6,6,7,7,8,8,9,9,10,10,11,11,12,12,13,13],"right_children":[2,4,6,8,10,12,14,16,18,20,22,24,26,28,-1,-1,-1,-1,-1,-1,-1,-1,-1,-1,-1,-1,-1,-1,-1],"split_conditions":[8E0,1.484E3,2.81E3,2E0,4E0,1E0,1E1,3E0,4E0,3E0,2.601E3,1.839E3,1.464E3,3.112E3,6.0974653E3,-1.2388182E1,-5.5039325E2,-2.0539937E3,-9.109897E2,6.411808E2,-4.733258E1,-6.205507E2,1.5851703E3,1.1822904E3,3.0647935E3,-9.790101E2,9.388393E2,4.1957422E2,1.7503633E3],"split_indices":[0,4,4,7,7,8,9,6,0,8,4,4,4,4,0,0,0,0,0,0,0,0,0,0,0,0,0,0,0],"split_type":[0,0,0,0,0,0,0,0,0,0,0,0,0,0,0,0,0,0,0,0,0,0,0,0,0,0,0,0,0],"sum_hessian":[9.43E2,7.93E2,1.5E2,4.69E2,3.24E2,1.39E2,1.1E1,2.42E2,2.27E2,2.47E2,7.7E1,5.2E1,8.7E1,2E0,9E0,8.5E1,1.57E2,1.1E1,2.16E2,1.64E2,8.3E1,7.4E1,3E0,2.2E1,3E1,7E0,8E1,1E0,1E0],"tree_param":{"num_deleted":"0","num_feature":"10","num_nodes":"29","size_leaf_vector":"1"}},{"base_weights":[-4.3341827E1,-6.012635E3,3.0932742E4,-1.7193086E4,1.1834123E2,1.5063112E4,4.1283812E4,-2.7443863E4,-1.4873973E4,4.155241E3,-1.084845E4,1.7929604E4,-2.2688389E3,3.681986E4,6.3468887E3,-4.6379623E2,-1.6229451E3,-1.0753489E3,-6.723275E2,3.5821697E3,1.69797E2,-1.3414215E3,-3.9874945E2,9.626248E2,-1.4368821E3,2.251903E3,1.1778983E3],"categories":[],"categories_nodes":[],"categories_segments":[],"categories_sizes":[],"default_left":[0,0,0,0,0,0,0,0,0,0,0,0,0,0,0,0,0,0,0,0,0,0,0,0,0,0,0],"id":28,"left_children":[1,3,5,7,9,11,13,15,17,19,21,23,-1,25,-1,-1,-1,-1,-1,-1,-1,-1,-1,-1,-1,-1,-1],"loss_changes":[1.6937437E11,5.26462E10,2.368974E10,6.057976E9,2.2048182E10,1.1208616E10,2.935577E10,4.1634406E9,1.8316616E9,1.8409468E10,5.939035E9,4.1339433E9,0E0,8.3120456E9,0E0,0E0,0E0,0E0,0E0,0E0,0E0,0E0,0E0,0E0,0E0,0E0,0E0],"parents":[2147483647,0,0,1,1,2,2,3,3,4,4,5,5,6,6,7,7,8,8,9,9,10,10,11,11,13,13],"right_children":[2,4,6,8,10,12,14,16,18,20,22,24,-1,26,-1,-1,-1,-1,-1,-1,-1,-1,-1,-1,-1,-1,-1],"split_conditions":[8E0,2E0,3E0,1E0,4E0,3E0,1.2E1,3E0,5E0,1E0,5E0,1E1,-2.2688389E3,1E0,6.3468887E3,-4.6379623E2,-1.6229451E3,-1.0753489E3,-6.723275E2,3.5821697E3,1.69797E2,-1.3414215E3,-3.9874945E2,9.626248E2,-1.4368821E3,2.251903E3,1.1778983E3],"split_indices":[0,1,1,1,7,6,9,8,0,6,0,0,0,8,0,0,0,0,0,0,0,0,0,0,0,0,0],"split_type":[0,0,0,0,0,0,0,0,0,0,0,0,0,0,0,0,0,0,0,0,0,0,0,0,0,0,0],"sum_hessian":[9.14E2,7.67E2,1.47E2,2.71E2,4.96E2,5.9E1,8.8E1,4.8E1,2.23E2,3.63E2,1.33E2,5.7E1,2E0,8.5E1,3E0,1.1E1,3.7E1,3.7E1,1.86E2,3E0,3.6E2,1.9E1,1.14E2,5.6E1,1E0,5.1E1,3.4E1],"tree_param":{"num_deleted":"0","num_feature":"10","num_nodes":"27","size_leaf_vector":"1"}},{"base_weights":[-1.4543439E2,-1.03141875E4,1.3549533E4,-1.7932805E4,-5.19519E3,4.1997047E4,7.6643955E3,-1.6273811E3,-1.5660743E4,1.5060667E3,-1.2424971E4,4.769953E4,-1.4510248E4,1.1226619E4,-2.4843762E4,-7.189117E2,-1.315579E3,2.1959276E2,-3.9191263E2,-5.433328E2,-1.3122395E3,1.9918411E3,9.452694E3,1.4649492E3,-4.1344443E3,4.786595E2,3.9415337E3,-1.4235682E3,4.2870956E2],"categories":[],"categories_nodes":[],"categories_segments":[],"categories_sizes":[],"default_left":[0,0,0,0,0,0,0,0,0,0,0,0,0,0,0,0,0,0,0,0,0,0,0,0,0,0,0,0,0],"id":29,"left_children":[1,3,5,7,9,11,13,-1,15,17,19,21,23,25,27,-1,-1,-1,-1,-1,-1,-1,-1,-1,-1,-1,-1,-1,-1],"loss_changes":[1.3007002E11,2.0810662E10,6.631029E10,6.6295235E9,1.5619166E10,2.2603915E10,3.8609146E10,0E0,2.189734E9,4.5646664E9,3.0528266E9,6.1377233E10,2.3330679E10,3.2667128E10,4.244609E9,0E0,0E0,0E0,0E0,0E0,0E0,0E0,0E0,0E0,0E0,0E0,0E0,0E0,0E0],"parents":[2147483647,0,0,1,1,2,2,3,3,4,4,5,5,6,6,8,8,9,9,10,10,11,11,12,12,13,13,14,14],"right_children":[2,4,6,8,10,12,14,-1,16,18,20,22,24,26,28,-1,-1,-1,-1,-1,-1,-1,-1,-1,-1,-1,-1,-1,-1],"split_conditions":[1.571E3,1.113E3,1E0,8.16E2,3E0,1.1E1,2E0,-1.6273811E3,6E0,2E0,6E0,3.112E3,3.112E3,3.228E3,2.392E3,-7.189117E2,-1.315579E3,2.1959276E2,-3.9191263E2,-5.433328E2,-1.3122395E3,1.9918411E3,9.452694E3,1.4649492E3,-4.1344443E3,4.786595E2,3.9415337E3,-1.4235682E3,4.2870956E2],"split_indices":[4,4,8,4,8,9,5,0,7,7,7,4,4,4,4,0,0,0,0,0,0,0,0,0,0,0,0,0,0],"split_type":[0,0,0,0,0,0,0,0,0,0,0,0,0,0,0,0,0,0,0,0,0,0,0,0,0,0,0,0,0],"sum_hessian":[9.32E2,5.35E2,3.97E2,2.14E2,3.21E2,6.7E1,3.3E2,2.7E1,1.87E2,1.67E2,1.54E2,6.1E1,6E0,2.98E2,3.2E1,1.69E2,1.8E1,1.28E2,3.9E1,1.4E2,1.4E1,5.9E1,2E0,4E0,2E0,2.92E2,6E0,2.9E1,3E0],"tree_param":{"num_deleted":"0","num_feature":"10","num_nodes":"29","size_leaf_vector":"1"}},{"base_weights":[3.9868664E1,-6.7151313E3,2.1223137E4,1.389568E3,-1.39851E4,2.968368E4,8.794517E2,5.8415786E3,-1.19828125E4,-1.7991631E3,-1.2520472E4,2.346192E4,4.621172E4,7.277241E3,-2.0368191E4,-4.5487094E2,4.950151E2,-1.2504811E3,-4.1791608E2,-5.576038E2,-1.2992103E3,1.9998168E3,8.967443E2,2.875395E3,1.3663848E3,2.0936157E2,2.2041526E3,-1.4083701E3,1.21177666E2],"categories":[],"categories_nodes":[],"categories_segments":[],"categories_sizes":[],"default_left":[0,0,0,0,0,0,0,0,0,0,0,0,0,0,0,0,0,0,0,0,0,0,0,0,0,0,0,0,0],"id":30,"left_children":[1,3,5,7,9,11,13,15,17,-1,19,21,23,25,27,-1,-1,-1,-1,-1,-1,-1,-1,-1,-1,-1,-1,-1,-1],"loss_changes":[1.3493609E11,4.214788E10,3.921694E10,2.0252017E10,1.1696079E10,1.5471968E10,9.392004E9,1.5551547E10,3.804285E9,0E0,6.2506435E9,1.0157629E10,7.6010865E9,5.8431206E9,2.912387E9,0E0,0E0,0E0,0E0,0E0,0E0,0E0,0E0,0E0,0E0,0E0,0E0,0E0,0E0],"parents":[2147483647,0,0,1,1,2,2,3,3,4,4,5,5,6,6,7,7,8,8,10,10,11,11,12,12,13,13,14,14],"right_children":[2,4,6,8,10,12,14,16,18,-1,20,22,24,26,28,-1,-1,-1,-1,-1,-1,-1,-1,-1,-1,-1,-1,-1,-1],"split_conditions":[1.824E3,3E0,3E0,2E0,4E0,2.392E3,2E0,1.25E3,2E0,-1.7991631E3,6E0,1E0,3E0,3.228E3,6E0,-4.5487094E2,4.950151E2,-1.2504811E3,-4.1791608E2,-5.576038E2,-1.2992103E3,1.9998168E3,8.967443E2,2.875395E3,1.3663848E3,2.0936157E2,2.2041526E3,-1.4083701E3,1.21177666E2],"split_indices":[4,8,8,7,8,4,5,4,8,0,7,8,7,4,7,0,0,0,0,0,0,0,0,0,0,0,0,0,0],"split_type":[0,0,0,0,0,0,0,0,0,0,0,0,0,0,0,0,0,0,0,0,0,0,0,0,0,0,0,0,0],"sum_hessian":[9.41E2,7.14E2,2.27E2,3.38E2,3.76E2,1.6E2,6.7E1,2.54E2,8.4E1,2.2E1,3.54E2,1.18E2,4.2E1,5.2E1,1.5E1,5.4E1,2E2,1.7E1,6.7E1,3.23E2,3.1E1,2.8E1,9E1,2.5E1,1.7E1,4.9E1,3E0,1.1E1,4E0],"tree_param":{"num_deleted":"0","num_feature":"10","num_nodes":"29","size_leaf_vector":"1"}},{"base_weights":[-1.2086398E1,-8.850701E3,1.4498006E4,-1.6331818E4,-3.0850354E3,4.2417555E4,9.105822E3,-1.9418047E3,-1.5167659E4,-1.0346989E4,1.5705789E3,4.7385777E4,-3.649995E4,2.4159204E3,1.928779E4,-1.4667043E3,-6.993953E2,-8.974108E2,-3.8543658E2,1.9336058E2,-7.955497E2,1.7085449E3,4.3725737E3,-4.067326E3,2.450994E3,2.7151165E3,7.736878E1,1.1403992E3,1.2850987E2],"categories":[],"categories_nodes":[],"categories_segments":[],"categories_sizes":[],"default_left":[0,0,0,0,0,0,0,0,0,0,0,0,0,0,0,0,0,0,0,0,0,0,0,0,0,0,0,0,0],"id":31,"left_children":[1,3,5,7,9,11,13,-1,15,17,19,21,23,25,27,-1,-1,-1,-1,-1,-1,-1,-1,-1,-1,-1,-1,-1,-1],"loss_changes":[1.2196498E11,2.544158E10,5.381079E10,6.1439836E9,1.1342216E10,2.4470225E10,2.059266E10,0E0,3.7010473E9,2.4887163E9,8.292025E9,2.6132193E10,1.9328676E10,8.2080563E9,7.0032794E9,0E0,0E0,0E0,0E0,0E0,0E0,0E0,0E0,0E0,0E0,0E0,0E0,0E0,0E0],"parents":[2147483647,0,0,1,1,2,2,3,3,4,4,5,5,6,6,8,8,9,9,10,10,11,11,12,12,13,13,14,14],"right_children":[2,4,6,8,10,12,14,-1,16,18,20,22,24,26,28,-1,-1,-1,-1,-1,-1,-1,-1,-1,-1,-1,-1,-1,-1],"split_conditions":[7E0,2E0,1E0,4E0,1.248E3,3.493E3,1.824E3,-1.9418047E3,8.03E2,9.12E2,2E0,2.392E3,1E0,1E0,3E0,-1.4667043E3,-6.993953E2,-8.974108E2,-3.8543658E2,1.9336058E2,-7.955497E2,1.7085449E3,4.3725737E3,-4.067326E3,2.450994E3,2.7151165E3,7.736878E1,1.1403992E3,1.2850987E2],"split_indices":[0,1,6,0,4,4,4,0,4,4,5,4,2,2,8,0,0,0,0,0,0,0,0,0,0,0,0,0,0],"split_type":[0,0,0,0,0,0,0,0,0,0,0,0,0,0,0,0,0,0,0,0,0,0,0,0,0,0,0,0,0],"sum_hessian":[9.49E2,5.9E2,3.59E2,2.56E2,3.34E2,5.7E1,3.02E2,1.1E1,2.45E2,1.3E2,2.04E2,5.4E1,3E0,1.83E2,1.19E2,1.7E1,2.28E2,3.2E1,9.8E1,1.81E2,2.3E1,4.2E1,1.2E1,2E0,1E0,2E0,1.81E2,9.8E1,2.1E1],"tree_param":{"num_deleted":"0","num_feature":"10","num_nodes":"29","size_leaf_vector":"1"}},{"base_weights":[5.60217E2,-4.840437E3,3.0678229E4,-1.3665264E4,1.558493E3,2.2635514E4,7.130638E4,-2.2920244E4,-1.0298989E4,-3.0908064E3,1.4907248E4,3.8710484E4,1.28196045E4,7.685267E4,-1.2678008E3,-1.6903596E3,-1.0110044E3,-6.5882385E2,-3.4532886E2,3.6683548E1,-6.310231E2,-7.7223773E2,9.070832E2,2.0958914E3,-2.3221289E2,3.2426596E2,1.4550288E3,2.5446873E3,4.909245E3],"categories":[],"categories_nodes":[],"categories_segments":[],"categories_sizes":[],"default_left":[0,0,0,0,0,0,0,0,0,0,0,0,0,0,0,0,0,0,0,0,0,0,0,0,0,0,0,0,0],"id":32,"left_children":[1,3,5,7,9,11,13,15,17,19,21,23,25,27,-1,-1,-1,-1,-1,-1,-1,-1,-1,-1,-1,-1,-1,-1,-1],"loss_changes":[1.5190743E11,4.4745105E10,4.478596E10,1.0138493E10,2.8594762E10,1.8438599E10,1.4279377E10,1.9033047E9,2.310355E9,1.2473773E10,1.1962536E10,6.452089E9,7.649027E9,7.18576E9,0E0,0E0,0E0,0E0,0E0,0E0,0E0,0E0,0E0,0E0,0E0,0E0,0E0,0E0,0E0],"parents":[2147483647,0,0,1,1,2,2,3,3,4,4,5,5,6,6,7,7,8,8,9,9,10,10,11,11,12,12,13,13],"right_children":[2,4,6,8,10,12,14,16,18,20,22,24,26,28,-1,-1,-1,-1,-1,-1,-1,-1,-1,-1,-1,-1,-1,-1,-1],"split_conditions":[8E0,6E0,2.62E3,5E0,1.8E3,1E0,5.642E3,4E0,2E0,3E0,2E0,3E0,2.108E3,3E0,-1.2678008E3,-1.6903596E3,-1.0110044E3,-6.5882385E2,-3.4532886E2,3.6683548E1,-6.310231E2,-7.7223773E2,9.070832E2,2.0958914E3,-2.3221289E2,3.2426596E2,1.4550288E3,2.5446873E3,4.909245E3],"split_indices":[0,0,4,0,4,8,4,0,1,7,1,3,4,3,0,0,0,0,0,0,0,0,0,0,0,0,0,0,0],"split_type":[0,0,0,0,0,0,0,0,0,0,0,0,0,0,0,0,0,0,0,0,0,0,0,0,0,0,0,0,0],"sum_hessian":[9.32E2,7.91E2,1.41E2,3.32E2,4.59E2,1.19E2,2.2E1,8.7E1,2.45E2,3.41E2,1.18E2,4.4E1,7.5E1,2.1E1,1E0,1.5E1,7.2E1,1.31E2,1.14E2,2.44E2,9.7E1,1.1E1,1.07E2,4.1E1,3E0,5.5E1,2E1,1.1E1,1E1],"tree_param":{"num_deleted":"0","num_feature":"10","num_nodes":"29","size_leaf_vector":"1"}},{"base_weights":[-4.2901617E2,-5.4101216E3,2.6580305E4,2.285701E3,-1.191767E4,2.2107484E4,7.098419E4,-1.54029E2,2.0615627E4,-1.3322561E4,5.4724453E3,5.0069316E4,1.6517416E4,5.807784E3,9.9306164E4,-8.898364E2,9.201826E1,1.4572649E3,5.1459564E2,-1.1918496E3,-5.9780334E2,9.2444696E2,-1.9563614E2,1.5671647E3,3.1531199E3,9.196346E2,-1.4021073E3,9.810395E2,-1.2361058E3,7.320997E3,2.5672976E3],"categories":[],"categories_nodes":[],"categories_segments":[],"categories_sizes":[],"default_left":[0,0,0,0,0,0,0,0,0,0,0,0,0,0,0,0,0,0,0,0,0,0,0,0,0,0,0,0,0,0,0],"id":33,"left_children":[1,3,5,7,9,11,13,15,17,19,21,23,25,27,29,-1,-1,-1,-1,-1,-1,-1,-1,-1,-1,-1,-1,-1,-1,-1,-1],"loss_changes":[1.2701151E11,3.9941747E10,2.7626471E10,1.637072E10,1.0627191E10,2.0274643E10,2.3420273E10,1.1433176E10,3.4865275E9,5.4621635E9,4.1036872E9,3.37621E9,1.0041782E10,2.593616E9,1.2818203E10,0E0,0E0,0E0,0E0,0E0,0E0,0E0,0E0,0E0,0E0,0E0,0E0,0E0,0E0,0E0,0E0],"parents":[2147483647,0,0,1,1,2,2,3,3,4,4,5,5,6,6,7,7,8,8,9,9,10,10,11,11,12,12,13,13,14,14],"right_children":[2,4,6,8,10,12,14,16,18,20,22,24,26,28,30,-1,-1,-1,-1,-1,-1,-1,-1,-1,-1,-1,-1,-1,-1,-1,-1],"split_conditions":[8E0,3E0,2.81E3,2.035E3,2.094E3,1E0,3E0,9.6E2,3E0,1E0,3E0,2.019E3,3E0,9E0,1.1E1,-8.898364E2,9.201826E1,1.4572649E3,5.1459564E2,-1.1918496E3,-5.9780334E2,9.2444696E2,-1.9563614E2,1.5671647E3,3.1531199E3,9.196346E2,-1.4021073E3,9.810395E2,-1.2361058E3,7.320997E3,2.5672976E3],"split_indices":[0,8,4,4,4,2,1,4,2,1,6,4,8,0,9,0,0,0,0,0,0,0,0,0,0,0,0,0,0,0,0],"split_type":[0,0,0,0,0,0,0,0,0,0,0,0,0,0,0,0,0,0,0,0,0,0,0,0,0,0,0,0,0,0,0],"sum_hessian":[9.42E2,7.96E2,1.46E2,3.65E2,4.31E2,1.34E2,1.2E1,3.23E2,4.2E1,3.99E2,3.2E1,2.1E1,1.13E2,4E0,8E0,3.2E1,2.91E2,2.2E1,2E1,4.4E1,3.55E2,1.3E1,1.9E1,1E1,1.1E1,1.09E2,4E0,3E0,1E0,3E0,5E0],"tree_param":{"num_deleted":"0","num_feature":"10","num_nodes":"31","size_leaf_vector":"1"}},{"base_weights":[1.0906769E3,-6.9940396E3,1.407695E4,-1.2355285E4,-2.8082585E3,7.023649E3,2.969524E4,-2.0224959E4,-1.0179575E4,4.669785E3,-5.9362324E3,9.055856E3,-6.153196E3,4.4811797E4,2.1005412E4,-1.6931338E3,-8.5585187E2,-5.224012E2,1.08775E3,4.7054855E2,-1.3112581E2,-9.517457E2,-2.198153E2,9.7080774E2,3.8637454E2,-1.8549931E2,-1.5081516E3,1.8715922E3,4.449256E3,9.274396E2,4.947052E3],"categories":[],"categories_nodes":[],"categories_segments":[],"categories_sizes":[],"default_left":[0,0,0,0,0,0,0,0,0,0,0,0,0,0,0,0,0,0,0,0,0,0,0,0,0,0,0,0,0,0,0],"id":34,"left_children":[1,3,5,7,9,11,13,15,17,19,21,23,25,27,29,-1,-1,-1,-1,-1,-1,-1,-1,-1,-1,-1,-1,-1,-1,-1,-1],"loss_changes":[9.8789384E10,1.2981082E10,3.9559365E10,4.1431368E9,7.676619E9,6.750242E9,1.3771063E10,1.7091584E9,1.9504251E9,3.378373E9,4.5758177E9,2.8363735E9,1.8825715E9,9.709011E9,1.2141214E10,0E0,0E0,0E0,0E0,0E0,0E0,0E0,0E0,0E0,0E0,0E0,0E0,0E0,0E0,0E0,0E0],"parents":[2147483647,0,0,1,1,2,2,3,3,4,4,5,5,6,6,7,7,8,8,9,9,10,10,11,11,12,12,13,13,14,14],"right_children":[2,4,6,8,10,12,14,16,18,20,22,24,26,28,30,-1,-1,-1,-1,-1,-1,-1,-1,-1,-1,-1,-1,-1,-1,-1,-1],"split_conditions":[7E0,2E0,3E0,5E0,3E0,4E0,1E0,3E0,3E0,3E0,5E0,1E0,2E0,3E0,1E1,-1.6931338E3,-8.5585187E2,-5.224012E2,1.08775E3,4.7054855E2,-1.3112581E2,-9.517457E2,-2.198153E2,9.7080774E2,3.8637454E2,-1.8549931E2,-1.5081516E3,1.8715922E3,4.449256E3,9.274396E2,4.947052E3],"split_indices":[0,1,1,0,6,7,6,2,3,8,0,8,5,3,0,0,0,0,0,0,0,0,0,0,0,0,0,0,0,0,0],"split_type":[0,0,0,0,0,0,0,0,0,0,0,0,0,0,0,0,0,0,0,0,0,0,0,0,0,0,0,0,0,0,0],"sum_hessian":[9.39E2,5.79E2,3.6E2,2.53E2,3.26E2,2.49E2,1.11E2,5.3E1,2E2,9.6E1,2.3E2,2.16E2,3.3E1,3.9E1,7.2E1,8E0,4.5E1,1.99E2,1E0,5.8E1,3.8E1,2.3E1,2.07E2,2.3E1,1.93E2,3.1E1,2E0,3.5E1,4E0,7.1E1,1E0],"tree_param":{"num_deleted":"0","num_feature":"10","num_nodes":"31","size_leaf_vector":"1"}},{"base_weights":[-4.4810703E2,-7.7554663E3,1.2274136E4,-1.4312715E4,-3.4970432E3,2.15011E4,3.660136E2,-2.2580146E4,-1.183112E4,2.4959762E4,-4.2629043E3,1.1864402E4,3.7068023E4,4.2436533E3,-1.7511898E4,-1.4519539E3,-9.182314E2,-7.1014923E2,-4.4126242E2,3.9871356E2,1.4104677E3,-5.18322E2,-9.211669E1,1.8257123E3,3.6882224E2,1.910899E3,-1.2294735E3,1.1407474E3,6.1054577E1,-9.5771625E2,1.2798803E2],"categories":[],"categories_nodes":[],"categories_segments":[],"categories_sizes":[],"default_left":[0,0,0,0,0,0,0,0,0,0,0,0,0,0,0,0,0,0,0,0,0,0,0,0,0,0,0,0,0,0,0],"id":35,"left_children":[1,3,5,7,9,11,13,15,17,19,21,23,25,27,29,-1,-1,-1,-1,-1,-1,-1,-1,-1,-1,-1,-1,-1,-1,-1,-1],"loss_changes":[9.045814E10,1.7206694E10,3.899805E10,4.718346E9,8.3009295E9,2.9562954E10,1.0888875E10,9.6423526E8,1.2221358E9,3.2700928E8,5.4029747E9,1.3559087E10,6.3284347E9,7.2132823E9,9.720842E8,0E0,0E0,0E0,0E0,0E0,0E0,0E0,0E0,0E0,0E0,0E0,0E0,0E0,0E0,0E0,0E0],"parents":[2147483647,0,0,1,1,2,2,3,3,4,4,5,5,6,6,7,7,8,8,9,9,10,10,11,11,12,12,13,13,14,14],"right_children":[2,4,6,8,10,12,14,16,18,20,22,24,26,28,30,-1,-1,-1,-1,-1,-1,-1,-1,-1,-1,-1,-1,-1,-1,-1,-1],"split_conditions":[1.652E3,1.146E3,3E0,5E0,1E0,2.094E3,2E0,8.64E2,2E0,1E0,2E0,7E0,5.642E3,7E0,2.392E3,-1.4519539E3,-9.182314E2,-7.1014923E2,-4.4126242E2,3.9871356E2,1.4104677E3,-5.18322E2,-9.211669E1,1.8257123E3,3.6882224E2,1.910899E3,-1.2294735E3,1.1407474E3,6.1054577E1,-9.5771625E2,1.2798803E2],"split_indices":[4,4,2,0,6,4,5,4,1,2,1,9,4,9,4,0,0,0,0,0,0,0,0,0,0,0,0,0,0,0,0],"split_type":[0,0,0,0,0,0,0,0,0,0,0,0,0,0,0,0,0,0,0,0,0,0,0,0,0,0,0,0,0,0,0],"sum_hessian":[9.71E2,6.17E2,3.54E2,2.42E2,3.75E2,1.99E2,1.55E2,5.4E1,1.88E2,9E0,3.66E2,1.24E2,7.5E1,1.28E2,2.7E1,1.9E1,3.5E1,1.03E2,8.5E1,2E0,7E0,1.03E2,2.63E2,1.8E1,1.06E2,7.4E1,1E0,1.7E1,1.11E2,2.5E1,2E0],"tree_param":{"num_deleted":"0","num_feature":"10","num_nodes":"31","size_leaf_vector":"1"}},{"base_weights":[8.796363E2,-3.369344E3,2.7594867E4,-1.1448822E4,1.4275194E3,1.9216803E4,6.708841E4,-1.2854418E3,-1.0283342E4,2.419316E4,-4.7266766E2,5.5788176E4,1.4871423E4,3.2117576E4,8.4777625E4,-3.427699E2,-6.530774E2,1.4180619E3,5.4374447E1,1.2307979E2,-3.7177524E2,3.1526965E3,-4.2173438E2,8.9081934E2,-1.0059172E3,2.850138E3,4.044406E1,2.4008074E3,5.317336E3],"categories":[],"categories_nodes":[],"categories_segments":[],"categories_sizes":[],"default_left":[0,0,0,0,0,0,0,0,0,0,0,0,0,0,0,0,0,0,0,0,0,0,0,0,0,0,0,0,0],"id":36,"left_children":[1,3,5,7,9,11,13,-1,15,17,19,21,23,25,27,-1,-1,-1,-1,-1,-1,-1,-1,-1,-1,-1,-1,-1,-1],"loss_changes":[1.0588661E11,3.1215047E10,4.1063326E10,4.7215575E9,2.1900478E10,1.617442E10,1.0886496E10,0E0,2.5675223E9,3.725101E9,9.579915E9,5.6647393E9,1.0353662E10,6.9659945E9,5.994406E9,0E0,0E0,0E0,0E0,0E0,0E0,0E0,0E0,0E0,0E0,0E0,0E0,0E0,0E0],"parents":[2147483647,0,0,1,1,2,2,3,3,4,4,5,5,6,6,8,8,9,9,10,10,11,11,12,12,13,13,14,14],"right_children":[2,4,6,8,10,12,14,-1,16,18,20,22,24,26,28,-1,-1,-1,-1,-1,-1,-1,-1,-1,-1,-1,-1,-1,-1],"split_conditions":[2.035E3,1.25E3,2.696E3,8.16E2,1E0,1E0,3E0,-1.2854418E3,2E0,3E0,2E0,3E0,2E0,3E0,1E0,-3.427699E2,-6.530774E2,1.4180619E3,5.4374447E1,1.2307979E2,-3.7177524E2,3.1526965E3,-4.2173438E2,8.9081934E2,-1.0059172E3,2.850138E3,4.044406E1,2.4008074E3,5.317336E3],"split_indices":[4,4,4,4,6,2,1,0,7,7,7,3,5,7,2,0,0,0,0,0,0,0,0,0,0,0,0,0,0],"split_type":[0,0,0,0,0,0,0,0,0,0,0,0,0,0,0,0,0,0,0,0,0,0,0,0,0,0,0,0,0],"sum_hessian":[9.31E2,8.04E2,1.27E2,2.99E2,5.05E2,1.06E2,2.1E1,2.1E1,2.78E2,3.8E1,4.67E2,1E1,9.6E1,8E0,1.3E1,1.26E2,1.52E2,3.2E1,6E0,3.29E2,1.38E2,9E0,1E0,8.9E1,7E0,4E0,4E0,6E0,7E0],"tree_param":{"num_deleted":"0","num_feature":"10","num_nodes":"29","size_leaf_vector":"1"}},{"base_weights":[-2.201331E2,-2.5845452E3,3.9711355E4,7.002961E3,-7.880611E3,1.8903957E4,5.5033566E4,9.685913E3,-1.3091654E4,-4.072277E3,-1.2136014E4,2.6939996E4,-1.7020994E4,3.1709422E4,7.624374E4,1.8311406E2,8.665825E2,-1.6227438E3,-3.42315E2,-2.9701376E2,2.6920947E2,-6.3017816E2,1.1170381E3,7.866363E2,2.5234087E3,1.8178125E2,-1.1547028E3,1.8761527E3,-2.9953333E2,5.440202E3,2.45416E3],"categories":[],"categories_nodes":[],"categories_segments":[],"categories_sizes":[],"default_left":[0,0,0,0,0,0,0,0,0,0,0,0,0,0,0,0,0,0,0,0,0,0,0,0,0,0,0,0,0,0,0],"id":37,"left_children":[1,3,5,7,9,11,13,15,17,19,21,23,25,27,29,-1,-1,-1,-1,-1,-1,-1,-1,-1,-1,-1,-1,-1,-1,-1,-1],"loss_changes":[8.9513165E10,4.5499757E10,1.5856861E10,1.7325015E10,9.301443E9,7.387209E9,1.2423643E10,1.2924068E10,4.373151E9,5.437371E9,4.666114E9,4.4797297E9,7.112059E8,3.73158E9,7.924867E9,0E0,0E0,0E0,0E0,0E0,0E0,0E0,0E0,0E0,0E0,0E0,0E0,0E0,0E0,0E0,0E0],"parents":[2147483647,0,0,1,1,2,2,3,3,4,4,5,5,6,6,7,7,8,8,9,9,10,10,11,11,12,12,13,13,14,14],"right_children":[2,4,6,8,10,12,14,16,18,20,22,24,26,28,30,-1,-1,-1,-1,-1,-1,-1,-1,-1,-1,-1,-1,-1,-1,-1,-1],"split_conditions":[2.392E3,3E0,3E0,4E0,3E0,1.2E1,2.696E3,1.688E3,2E0,1.784E3,3E0,2.728E3,7E0,3E0,1.1E1,1.8311406E2,8.665825E2,-1.6227438E3,-3.42315E2,-2.9701376E2,2.6920947E2,-6.3017816E2,1.1170381E3,7.866363E2,2.5234087E3,1.8178125E2,-1.1547028E3,1.8761527E3,-2.9953333E2,5.440202E3,2.45416E3],"split_indices":[4,2,1,7,7,9,4,4,2,4,3,4,0,3,9,0,0,0,0,0,0,0,0,0,0,0,0,0,0,0,0],"split_type":[0,0,0,0,0,0,0,0,0,0,0,0,0,0,0,0,0,0,0,0,0,0,0,0,0,0,0,0,0,0,0],"sum_hessian":[9.46E2,8.94E2,5.2E1,3.18E2,5.76E2,2.3E1,2.9E1,2.81E2,3.7E1,3.05E2,2.71E2,1.9E1,4E0,1.5E1,1.4E1,1.58E2,1.23E2,8E0,2.9E1,2.55E2,5E1,2.68E2,3E0,1.4E1,5E0,1E0,3E0,1.3E1,2E0,5E0,9E0],"tree_param":{"num_deleted":"0","num_feature":"10","num_nodes":"31","size_leaf_vector":"1"}},{"base_weights":[-4.600243E2,-5.305977E3,1.4988503E4,6.485359E2,-1.0570912E4,7.1401743E3,3.1124908E4,-1.1362133E4,3.5712502E3,-1.5046293E3,-9.39953E3,-1.0731911E4,1.0087088E4,2.731598E4,8.999989E4,-8.319819E2,-3.1061774E2,3.2489084E2,-3.8903534E2,-1.0228102E3,-4.1645728E2,-2.4383179E2,-1.1291134E3,2.324735E3,4.4352725E2,1.7182949E3,3.291896E2,7.4355664E2,5.5042886E3],"categories":[],"categories_nodes":[],"categories_segments":[],"categories_sizes":[],"default_left":[0,0,0,0,0,0,0,0,0,0,0,0,0,0,0,0,0,0,0,0,0,0,0,0,0,0,0,0,0],"id":38,"left_children":[1,3,5,7,9,11,13,15,17,-1,19,21,23,25,27,-1,-1,-1,-1,-1,-1,-1,-1,-1,-1,-1,-1,-1,-1],"loss_changes":[7.022601E10,2.2390841E10,2.814598E10,1.1835439E10,8.383865E9,8.113713E9,1.3911851E10,1.6903752E9,9.053788E9,0E0,4.0783442E9,1.4163904E9,5.389744E9,1.0004955E10,4.399012E9,0E0,0E0,0E0,0E0,0E0,0E0,0E0,0E0,0E0,0E0,0E0,0E0,0E0,0E0],"parents":[2147483647,0,0,1,1,2,2,3,3,4,4,5,5,6,6,7,7,8,8,10,10,11,11,12,12,13,13,14,14],"right_children":[2,4,6,8,10,12,14,16,18,-1,20,22,24,26,28,-1,-1,-1,-1,-1,-1,-1,-1,-1,-1,-1,-1,-1,-1],"split_conditions":[1.8E3,3E0,3E0,1.146E3,4E0,6E0,1.2E1,9.6E2,2E0,-1.5046293E3,1E0,2.217E3,6E0,2E0,6E0,-8.319819E2,-3.1061774E2,3.2489084E2,-3.8903534E2,-1.0228102E3,-4.1645728E2,-2.4383179E2,-1.1291134E3,2.324735E3,4.4352725E2,1.7182949E3,3.291896E2,7.4355664E2,5.5042886E3],"split_indices":[4,8,1,4,8,0,9,4,7,0,1,4,9,7,0,0,0,0,0,0,0,0,0,0,0,0,0,0,0],"split_type":[0,0,0,0,0,0,0,0,0,0,0,0,0,0,0,0,0,0,0,0,0,0,0,0,0,0,0,0,0],"sum_hessian":[9.36E2,7.13E2,2.23E2,3.35E2,3.78E2,1.51E2,7.2E1,6.5E1,2.7E2,2E1,3.58E2,2.1E1,1.3E2,6.9E1,3E0,3.1E1,3.4E1,2.15E2,5.5E1,3E1,3.28E2,1.5E1,6E0,3E0,1.27E2,5.1E1,1.8E1,1E0,2E0],"tree_param":{"num_deleted":"0","num_feature":"10","num_nodes":"29","size_leaf_vector":"1"}},{"base_weights":[5.893871E2,-6.3950165E2,8.973711E4,7.188969E3,-8.3595205E3,4.45705E4,1.4405627E5,2.4190796E3,1.704988E4,-2.2483588E4,-7.6316807E3,2.4994148E3,1.6614844E2,1.8354618E3,8.085786E3,3.3397003E2,-5.026656E2,6.3302655E2,1.430708E3,-5.330005E2,-1.2319274E3,-3.972667E2,9.9639355E2],"categories":[],"categories_nodes":[],"categories_segments":[],"categories_sizes":[],"default_left":[0,0,0,0,0,0,0,0,0,0,0,0,0,0,0,0,0,0,0,0,0,0,0],"id":39,"left_children":[1,3,5,7,9,11,13,15,17,19,21,-1,-1,-1,-1,-1,-1,-1,-1,-1,-1,-1,-1],"loss_changes":[9.66828E10,5.2699804E10,2.302029E10,2.032511E10,4.3413586E9,1.6216556E9,3.5419832E9,1.5636111E10,6.794842E9,2.724188E8,3.780227E9,0E0,0E0,0E0,0E0,0E0,0E0,0E0,0E0,0E0,0E0,0E0,0E0],"parents":[2147483647,0,0,1,1,2,2,3,3,4,4,5,5,6,6,7,7,8,8,9,9,10,10],"right_children":[2,4,6,8,10,12,14,16,18,20,22,-1,-1,-1,-1,-1,-1,-1,-1,-1,-1,-1,-1],"split_conditions":[2.81E3,3E0,9E0,1.824E3,8.16E2,2E0,3E0,3E0,2.329E3,2E0,2.601E3,2.4994148E3,1.6614844E2,1.8354618E3,8.085786E3,3.3397003E2,-5.026656E2,6.3302655E2,1.430708E3,-5.330005E2,-1.2319274E3,-3.972667E2,9.9639355E2],"split_indices":[4,6,0,4,4,5,3,7,4,7,4,0,0,0,0,0,0,0,0,0,0,0,0],"split_type":[0,0,0,0,0,0,0,0,0,0,0,0,0,0,0,0,0,0,0,0,0,0,0],"sum_hessian":[8.81E2,8.7E2,1.1E1,4.32E2,4.38E2,7E0,4E0,2.92E2,1.4E2,2E1,4.18E2,6E0,1E0,1E0,3E0,2.18E2,7.4E1,1.03E2,3.7E1,4E0,1.6E1,4.14E2,4E0],"tree_param":{"num_deleted":"0","num_feature":"10","num_nodes":"23","size_leaf_vector":"1"}},{"base_weights":[-2.728077E2,8.749383E3,-5.6456265E3,3.951119E3,2.0998496E4,-9.882781E3,-2.2826118E3,6.5366636E3,-1.0337539E4,1.899767E4,3.901272E3,-9.788556E2,-8.989628E3,4.5240756E2,-7.4207397E3,3.8768362E2,-1.9534583E2,-1.1524174E3,-2.260426E2,1.0618322E3,-9.063185E2,-4.604588E2,1.0815731E3,4.156274E2,-1.3219283E2,-3.9820398E2,1.349416E3],"categories":[],"categories_nodes":[],"categories_segments":[],"categories_sizes":[],"default_left":[0,0,0,0,0,0,0,0,0,0,0,0,0,0,0,0,0,0,0,0,0,0,0,0,0,0,0],"id":40,"left_children":[1,3,5,7,9,11,13,15,17,19,-1,-1,21,23,25,-1,-1,-1,-1,-1,-1,-1,-1,-1,-1,-1,-1],"loss_changes":[4.532467E10,2.0429324E10,8.327715E9,9.377452E9,9.699594E9,2.0665672E9,4.612701E9,2.7502182E9,2.779259E9,8.3644375E9,0E0,0E0,1.8059612E9,5.254447E9,2.3462584E9,0E0,0E0,0E0,0E0,0E0,0E0,0E0,0E0,0E0,0E0,0E0,0E0],"parents":[2147483647,0,0,1,1,2,2,3,3,4,4,5,5,6,6,7,7,8,8,9,9,12,12,13,13,14,14],"right_children":[2,4,6,8,10,12,14,16,18,20,-1,-1,22,24,26,-1,-1,-1,-1,-1,-1,-1,-1,-1,-1,-1,-1],"split_conditions":[3E0,3E0,2E0,5E0,1.2E1,2E0,4E0,3E0,2E0,1.1E1,3.901272E3,-9.788556E2,3E0,3E0,3E0,3.8768362E2,-1.9534583E2,-1.1524174E3,-2.260426E2,1.0618322E3,-9.063185E2,-4.604588E2,1.0815731E3,4.156274E2,-1.3219283E2,-3.9820398E2,1.349416E3],"split_indices":[2,1,1,7,9,6,7,8,1,9,0,0,3,6,3,0,0,0,0,0,0,0,0,0,0,0,0],"split_type":[0,0,0,0,0,0,0,0,0,0,0,0,0,0,0,0,0,0,0,0,0,0,0,0,0,0,0],"sum_hessian":[9.33E2,3.48E2,5.85E2,2.51E2,9.7E1,2.58E2,3.27E2,2.13E2,3.8E1,9.5E1,2E0,2E1,2.38E2,2.14E2,1.13E2,1.91E2,2.2E1,1.1E1,2.7E1,9E1,5E0,2.37E2,1E0,6E1,1.54E2,1.12E2,1E0],"tree_param":{"num_deleted":"0","num_feature":"10","num_nodes":"27","size_leaf_vector":"1"}},{"base_weights":[1.4642182E1,-4.6006484E3,1.366489E4,1.6305473E4,-5.7288833E3,9.516983E3,3.571668E4,2.0644334E4,-3.3888672E3,-1.0417573E3,-8.866752E3,1.47187705E4,-1.766794E3,5.050194E4,1.0664835E4,-2.225832E2,1.3538661E3,-5.120888E2,6.423052E1,-1.307925E3,-4.0121677E2,1.7014785E3,6.296349E2,8.59967E1,-1.3194441E3,1.725736E3,5.890629E3,1.6295282E3,-4.39508E3],"categories":[],"categories_nodes":[],"categories_segments":[],"categories_sizes":[],"default_left":[0,0,0,0,0,0,0,0,0,0,0,0,0,0,0,0,0,0,0,0,0,0,0,0,0,0,0,0,0],"id":41,"left_children":[1,3,5,7,9,11,13,15,-1,17,19,21,23,25,27,-1,-1,-1,-1,-1,-1,-1,-1,-1,-1,-1,-1,-1,-1],"loss_changes":[5.8841735E10,1.6557149E10,2.124671E10,1.4532872E10,9.741892E9,1.1765166E10,1.3166133E10,5.771018E9,0E0,5.7276575E9,5.5731384E9,5.1961733E9,5.5398205E9,2.0684276E10,3.528188E10,0E0,0E0,0E0,0E0,0E0,0E0,0E0,0E0,0E0,0E0,0E0,0E0,0E0,0E0],"parents":[2147483647,0,0,1,1,2,2,3,3,4,4,5,5,6,6,7,7,9,9,10,10,11,11,12,12,13,13,14,14],"right_children":[2,4,6,8,10,12,14,16,-1,18,20,22,24,26,28,-1,-1,-1,-1,-1,-1,-1,-1,-1,-1,-1,-1,-1,-1],"split_conditions":[1.8E3,1E0,2.601E3,1.795E3,3E0,3E0,1.1E1,1.301E3,-3.3888672E3,2E0,2E0,1E0,2.329E3,3.493E3,1E1,-2.225832E2,1.3538661E3,-5.120888E2,6.423052E1,-1.307925E3,-4.0121677E2,1.7014785E3,6.296349E2,8.59967E1,-1.3194441E3,1.725736E3,5.890629E3,1.6295282E3,-4.39508E3],"split_indices":[4,8,4,4,6,8,9,4,0,1,8,2,4,4,0,0,0,0,0,0,0,0,0,0,0,0,0,0,0],"split_type":[0,0,0,0,0,0,0,0,0,0,0,0,0,0,0,0,0,0,0,0,0,0,0,0,0,0,0,0,0],"sum_hessian":[9.32E2,6.97E2,2.35E2,3.5E1,6.62E2,1.99E2,3.6E1,3.4E1,1E0,2.66E2,3.96E2,1.36E2,6.3E1,2.2E1,1.4E1,7E0,2.7E1,5.3E1,2.13E2,1.7E1,3.79E2,1.2E1,1.24E2,5.6E1,7E0,1.9E1,3E0,1.2E1,2E0],"tree_param":{"num_deleted":"0","num_feature":"10","num_nodes":"29","size_leaf_vector":"1"}},{"base_weights":[-6.3550076E1,-3.3183018E3,2.2859348E4,-1.0808967E4,5.36202E2,1.6729053E4,6.3430082E4,-1.9444582E4,-9.886085E3,-3.8836694E3,6.0045015E3,2.007759E4,-1.3916388E3,7.35793E4,1.7124922E4,-1.3995005E3,-7.0458075E2,-4.6630417E2,-1.8010477E3,-4.662552E2,-9.0655594E1,1.8302151E3,2.2013878E2,5.679945E2,1.5018445E3,-8.98666E2,6.006435E2,1.7805803E3,5.280586E3,1.0188089E3,1.8427892E2],"categories":[],"categories_nodes":[],"categories_segments":[],"categories_sizes":[],"default_left":[0,0,0,0,0,0,0,0,0,0,0,0,0,0,0,0,0,0,0,0,0,0,0,0,0,0,0,0,0,0,0],"id":42,"left_children":[1,3,5,7,9,11,13,15,17,19,21,23,25,27,29,-1,-1,-1,-1,-1,-1,-1,-1,-1,-1,-1,-1,-1,-1,-1,-1],"loss_changes":[7.02077E10,2.3796982E10,2.8038013E10,2.0392735E9,1.3195523E10,6.277755E9,5.7893765E9,7.949046E8,3.396135E9,3.385667E9,1.1797888E10,7.2123146E9,3.9944893E9,1.0833359E10,9.968102E7,0E0,0E0,0E0,0E0,0E0,0E0,0E0,0E0,0E0,0E0,0E0,0E0,0E0,0E0,0E0,0E0],"parents":[2147483647,0,0,1,1,2,2,3,3,4,4,5,5,6,6,7,7,8,8,9,9,10,10,11,11,12,12,13,13,14,14],"right_children":[2,4,6,8,10,12,14,16,18,20,22,24,26,28,30,-1,-1,-1,-1,-1,-1,-1,-1,-1,-1,-1,-1,-1,-1,-1,-1],"split_conditions":[3E0,2E0,2.696E3,2E0,1.573E3,2E0,3E0,4E0,2.329E3,1.11E3,6E0,1.912E3,2.329E3,1E0,3.493E3,-1.3995005E3,-7.0458075E2,-4.6630417E2,-1.8010477E3,-4.662552E2,-9.0655594E1,1.8302151E3,2.2013878E2,5.679945E2,1.5018445E3,-8.98666E2,6.006435E2,1.7805803E3,5.280586E3,1.0188089E3,1.8427892E2],"split_indices":[1,1,4,6,4,7,2,8,4,4,9,4,4,2,4,0,0,0,0,0,0,0,0,0,0,0,0,0,0,0,0],"split_type":[0,0,0,0,0,0,0,0,0,0,0,0,0,0,0,0,0,0,0,0,0,0,0,0,0,0,0,0,0,0,0],"sum_hessian":[9.39E2,8.23E2,1.16E2,2.79E2,5.44E2,1.02E2,1.4E1,2.5E1,2.54E2,3.01E2,2.43E2,8.6E1,1.6E1,1.1E1,3E0,8E0,1.7E1,2.5E2,4E0,8.2E1,2.19E2,1.1E1,2.32E2,4.7E1,3.9E1,7E0,9E0,6E0,5E0,2E0,1E0],"tree_param":{"num_deleted":"0","num_feature":"10","num_nodes":"31","size_leaf_vector":"1"}},{"base_weights":[-1.0359578E3,-3.6064094E3,1.3783954E4,-9.652075E3,-3.0288364E2,1.5021549E4,-4.73275E4,-1.4196951E4,-7.205571E3,5.507371E2,-1.3758292E4,-1.4701371E4,1.7477695E4,-5.2194683E3,1.6699055E3,-1.5389219E3,-6.4872614E2,-4.057622E2,-7.7402145E1,-8.661087E1,3.831778E2,-1.5900386E3,-4.5327393E2,-1.1813392E3,-4.2004962E2,7.94434E2,3.1183867E3],"categories":[],"categories_nodes":[],"categories_segments":[],"categories_sizes":[],"default_left":[0,0,0,0,0,0,0,0,0,0,0,0,0,0,0,0,0,0,0,0,0,0,0,0,0,0,0],"id":43,"left_children":[1,3,5,7,9,11,13,15,17,19,21,23,25,-1,-1,-1,-1,-1,-1,-1,-1,-1,-1,-1,-1,-1,-1],"loss_changes":[3.581985E10,1.599466E10,1.1223669E10,3.044397E9,5.968716E9,1.0258471E10,1.7305469E10,1.5870935E9,9.446861E8,7.953775E9,2.3364803E9,4.2007987E8,8.068088E9,0E0,0E0,0E0,0E0,0E0,0E0,0E0,0E0,0E0,0E0,0E0,0E0,0E0,0E0],"parents":[2147483647,0,0,1,1,2,2,3,3,4,4,5,5,6,6,7,7,8,8,9,9,10,10,11,11,12,12],"right_children":[2,4,6,8,10,12,14,16,18,20,22,24,26,-1,-1,-1,-1,-1,-1,-1,-1,-1,-1,-1,-1,-1,-1],"split_conditions":[8E0,2E0,3.493E3,1.034E3,2E0,1.416E3,1E0,4E0,1.74E3,1.75E3,5E0,1.277E3,3.228E3,-5.2194683E3,1.6699055E3,-1.5389219E3,-6.4872614E2,-4.057622E2,-7.7402145E1,-8.661087E1,3.831778E2,-1.5900386E3,-4.5327393E2,-1.1813392E3,-4.2004962E2,7.94434E2,3.1183867E3],"split_indices":[0,1,4,4,5,4,2,0,4,4,0,4,4,0,0,0,0,0,0,0,0,0,0,0,0,0,0],"split_type":[0,0,0,0,0,0,0,0,0,0,0,0,0,0,0,0,0,0,0,0,0,0,0,0,0,0,0],"sum_hessian":[9.38E2,8E2,1.38E2,2.82E2,5.18E2,1.36E2,2E0,9.7E1,1.85E2,4.88E2,3E1,1E1,1.26E2,1E0,1E0,5E0,9.2E1,1.59E2,2.6E1,3.7E2,1.18E2,5E0,2.5E1,3E0,7E0,1.23E2,3E0],"tree_param":{"num_deleted":"0","num_feature":"10","num_nodes":"27","size_leaf_vector":"1"}},{"base_weights":[7.9650354E2,2.5663777E4,-1.4651105E3,2.0360766E4,7.5027625E4,2.3768716E3,-7.991754E3,3.577712E4,1.254958E4,2.078722E3,6.893669E3,6.019214E3,-3.6084536E3,-8.357928E3,1.6132996E3,1.5192871E3,3.8596868E3,1.5756908E3,4.8057788E2,2.5819226E2,1.9794232E3,-1.3014775E2,-1.1226318E3,-4.3941455E2,9.7398724E2],"categories":[],"categories_nodes":[],"categories_segments":[],"categories_sizes":[],"default_left":[0,0,0,0,0,0,0,0,0,0,0,0,0,0,0,0,0,0,0,0,0,0,0,0,0],"id":44,"left_children":[1,3,5,7,9,11,13,15,17,-1,-1,19,21,23,-1,-1,-1,-1,-1,-1,-1,-1,-1,-1,-1],"loss_changes":[5.12724E10,1.836743E10,2.0981901E10,7.980411E9,8.984723E9,1.1510638E10,4.8394875E9,2.790144E9,2.371537E9,0E0,0E0,9.213787E9,3.7311183E9,3.8611272E9,0E0,0E0,0E0,0E0,0E0,0E0,0E0,0E0,0E0,0E0,0E0],"parents":[2147483647,0,0,1,1,2,2,3,3,4,4,5,5,6,6,7,7,8,8,11,11,12,12,13,13],"right_children":[2,4,6,8,10,12,14,16,18,-1,-1,20,22,24,-1,-1,-1,-1,-1,-1,-1,-1,-1,-1,-1],"split_conditions":[1E0,1E1,4E0,1E0,1E0,3E0,3E0,1.2E1,2E0,2.078722E3,6.893669E3,3E0,2E0,1.2E1,1.6132996E3,1.5192871E3,3.8596868E3,1.5756908E3,4.8057788E2,2.5819226E2,1.9794232E3,-1.3014775E2,-1.1226318E3,-4.3941455E2,9.7398724E2],"split_indices":[8,0,7,2,2,8,3,9,3,0,0,3,5,9,0,0,0,0,0,0,0,0,0,0,0],"split_type":[0,0,0,0,0,0,0,0,0,0,0,0,0,0,0,0,0,0,0,0,0,0,0,0,0],"sum_hessian":[9.1E2,7.5E1,8.35E2,6.9E1,6E0,5.26E2,3.09E2,2.2E1,4.7E1,5E0,1E0,3.27E2,1.99E2,3.07E2,2E0,2.1E1,1E0,5E0,4.2E1,3.2E2,7E0,1.9E2,9E0,3.03E2,4E0],"tree_param":{"num_deleted":"0","num_feature":"10","num_nodes":"25","size_leaf_vector":"1"}},{"base_weights":[-1.07142876E2,-2.8229563E3,2.1025492E4,1.00474585E3,-8.650308E3,3.1245277E4,4.3105767E3,1.5937046E4,-6.3805115E2,-1.2858658E3,-7.7385845E3,3.921339E4,1.6927758E4,-8.112369E2,1.8352908E4,2.9889975E1,1.0180812E3,9.626515E2,-6.398536E1,-4.3639346E2,-2.2687008E1,1.67362E3,6.7213276E3,1.2275643E3,-2.3580945E3,5.504131E2,-1.3366506E3,1.5102797E3,-4.970344E2],"categories":[],"categories_nodes":[],"categories_segments":[],"categories_sizes":[],"default_left":[0,0,0,0,0,0,0,0,0,0,0,0,0,0,0,0,0,0,0,0,0,0,0,0,0,0,0,0,0],"id":45,"left_children":[1,3,5,7,9,11,13,15,17,-1,19,21,23,25,27,-1,-1,-1,-1,-1,-1,-1,-1,-1,-1,-1,-1,-1,-1],"loss_changes":[5.2917658E10,1.8232175E10,1.7801708E10,1.2128353E10,4.8425513E9,6.7516457E9,2.9636987E9,3.3134408E9,5.71704E9,0E0,2.222936E9,1.7911763E10,1.3372615E10,9.792138E9,3.9891702E9,0E0,0E0,0E0,0E0,0E0,0E0,0E0,0E0,0E0,0E0,0E0,0E0,0E0,0E0],"parents":[2147483647,0,0,1,1,2,2,3,3,4,4,5,5,6,6,7,7,8,8,10,10,11,11,12,12,13,13,14,14],"right_children":[2,4,6,8,10,12,14,16,18,-1,20,22,24,26,28,-1,-1,-1,-1,-1,-1,-1,-1,-1,-1,-1,-1,-1,-1],"split_conditions":[2.094E3,2E0,3E0,1E0,4E0,2E0,2.601E3,1.564E3,1E0,-1.2858658E3,1.787E3,3.112E3,3.493E3,2.372E3,1.2E1,2.9889975E1,1.0180812E3,9.626515E2,-6.398536E1,-4.3639346E2,-2.2687008E1,1.67362E3,6.7213276E3,1.2275643E3,-2.3580945E3,5.504131E2,-1.3366506E3,1.5102797E3,-4.970344E2],"split_indices":[4,7,2,8,0,7,4,4,6,0,4,4,4,4,9,0,0,0,0,0,0,0,0,0,0,0,0,0,0],"split_type":[0,0,0,0,0,0,0,0,0,0,0,0,0,0,0,0,0,0,0,0,0,0,0,0,0,0,0,0,0],"sum_hessian":[9.2E2,8.16E2,1.04E2,4.93E2,3.23E2,6.4E1,4E1,4.8E1,4.45E2,1.5E1,3.08E2,4E1,2.4E1,3E1,1E1,1.1E1,3.7E1,1.3E1,4.32E2,2.71E2,3.7E1,3.9E1,1E0,2.2E1,2E0,2.1E1,9E0,7E0,3E0],"tree_param":{"num_deleted":"0","num_feature":"10","num_nodes":"29","size_leaf_vector":"1"}},{"base_weights":[-9.669476E2,-3.149889E3,1.2916609E4,-8.372687E3,-5.7074725E2,1.0779859E4,7.699509E4,-1.5010853E4,-6.7279575E3,1.687812E3,-4.5629185E3,1.2504663E4,-1.2900165E3,6.536668E2,4.697228E3,-8.328466E2,4.658918E2,-6.294007E2,-2.8473572E2,1.5522722E2,-2.9280344E2,-9.721904E2,-1.6220648E2,8.079528E2,-1.8843993E2],"categories":[],"categories_nodes":[],"categories_segments":[],"categories_sizes":[],"default_left":[0,0,0,0,0,0,0,0,0,0,0,0,0,0,0,0,0,0,0,0,0,0,0,0,0],"id":46,"left_children":[1,3,5,7,9,11,13,15,17,19,21,23,-1,-1,-1,-1,-1,-1,-1,-1,-1,-1,-1,-1,-1],"loss_changes":[2.8771713E10,1.1040893E10,1.6832645E10,2.8577812E9,4.966807E9,8.272424E9,3.1055913E9,2.2776934E9,1.2543293E9,3.7802365E9,3.8422474E9,7.2567276E9,0E0,0E0,0E0,0E0,0E0,0E0,0E0,0E0,0E0,0E0,0E0,0E0,0E0],"parents":[2147483647,0,0,1,1,2,2,3,3,4,4,5,5,6,6,7,7,8,8,9,9,10,10,11,11],"right_children":[2,4,6,8,10,12,14,16,18,20,22,24,-1,-1,-1,-1,-1,-1,-1,-1,-1,-1,-1,-1,-1],"split_conditions":[3E0,2E0,1.2E1,1E0,3E0,2E0,6E0,9E0,4E0,4E0,4E0,2E0,-1.2900165E3,6.536668E2,4.697228E3,-8.328466E2,4.658918E2,-6.294007E2,-2.8473572E2,1.5522722E2,-2.9280344E2,-9.721904E2,-1.6220648E2,8.079528E2,-1.8843993E2],"split_indices":[1,1,9,1,8,5,0,9,8,7,8,7,0,0,0,0,0,0,0,0,0,0,0,0,0],"split_type":[0,0,0,0,0,0,0,0,0,0,0,0,0,0,0,0,0,0,0,0,0,0,0,0,0],"sum_hessian":[9.47E2,8.19E2,1.28E2,2.7E2,5.49E2,1.25E2,3E0,5.2E1,2.18E2,3.51E2,1.98E2,1.2E2,5E0,1E0,2E0,4.9E1,3E0,3.1E1,1.87E2,2.96E2,5.5E1,1.5E1,1.83E2,9.8E1,2.2E1],"tree_param":{"num_deleted":"0","num_feature":"10","num_nodes":"25","size_leaf_vector":"1"}},{"base_weights":[-1.1214263E3,3.353062E3,-6.1526772E3,1.642856E3,2.2250396E4,-5.0024053E3,-1.6138343E4,-7.3976426E3,3.2504827E3,3.1736207E4,-6.505105E3,-4.0778154E3,-1.6562635E4,-1.7555791E4,9.557859E3,-6.0621674E2,-1.6112975E2,2.591909E2,-2.0018991E2,1.1031115E3,2.492267E3,1.01893195E3,-4.2493984E3,-2.6616312E2,1.5533473E2,-9.4036865E2,4.58044E2,-5.672087E2,-1.0081662E3,1.0293047E2,6.13909E2],"categories":[],"categories_nodes":[],"categories_segments":[],"categories_sizes":[],"default_left":[0,0,0,0,0,0,0,0,0,0,0,0,0,0,0,0,0,0,0,0,0,0,0,0,0,0,0,0,0,0,0],"id":47,"left_children":[1,3,5,7,9,11,13,15,17,19,21,23,25,27,29,-1,-1,-1,-1,-1,-1,-1,-1,-1,-1,-1,-1,-1,-1,-1,-1],"loss_changes":[2.1047093E10,1.5961023E10,4.9732106E9,6.6369004E9,1.1389985E10,4.1650944E9,1.8068326E9,1.3225856E9,5.448412E9,4.3311104E9,2.4940984E10,3.309374E9,1.846826E9,4.6773555E8,3.592512E7,0E0,0E0,0E0,0E0,0E0,0E0,0E0,0E0,0E0,0E0,0E0,0E0,0E0,0E0,0E0,0E0],"parents":[2147483647,0,0,1,1,2,2,3,3,4,4,5,5,6,6,7,7,8,8,9,9,10,10,11,11,12,12,13,13,14,14],"right_children":[2,4,6,8,10,12,14,16,18,20,22,24,26,28,30,-1,-1,-1,-1,-1,-1,-1,-1,-1,-1,-1,-1,-1,-1,-1,-1],"split_conditions":[3E0,2.392E3,6E0,1.146E3,1.1E1,2E0,1E1,9.6E2,2E0,2.696E3,3.228E3,1.75E3,2.392E3,8.69E2,2E0,-6.0621674E2,-1.6112975E2,2.591909E2,-2.0018991E2,1.1031115E3,2.492267E3,1.01893195E3,-4.2493984E3,-2.6616312E2,1.5533473E2,-9.4036865E2,4.58044E2,-5.672087E2,-1.0081662E3,1.0293047E2,6.13909E2],"split_indices":[8,4,7,4,9,5,9,4,7,4,4,4,4,4,2,0,0,0,0,0,0,0,0,0,0,0,0,0,0,0,0],"split_type":[0,0,0,0,0,0,0,0,0,0,0,0,0,0,0,0,0,0,0,0,0,0,0,0,0,0,0,0,0,0,0],"sum_hessian":[9.33E2,4.94E2,4.39E2,4.54E2,4E1,3.95E2,4.4E1,6.8E1,3.86E2,3E1,1E1,3.67E2,2.8E1,4.2E1,2E0,3.1E1,3.7E1,3.05E2,8.1E1,2.1E1,9E0,8E0,2E0,3.13E2,5.4E1,2.6E1,2E0,1.4E1,2.8E1,1E0,1E0],"tree_param":{"num_deleted":"0","num_feature":"10","num_nodes":"31","size_leaf_vector":"1"}},{"base_weights":[-2.9819043E2,-5.943711E3,5.773596E3,-1.8111455E4,-5.130167E3,9.86152E3,-2.747427E3,-1.3692701E3,-1.563141E4,-4.4495894E3,-1.4008771E4,1.3322807E4,-9.307285E2,2.8714883E2,-1.4591844E4,-1.0138309E3,-4.2611417E2,-6.715185E1,-3.01839E2,-1.8220161E2,-8.3825684E2,5.278645E2,1.6913402E3,8.718743E1,-4.971051E3,4.7887408E2,-1.03145256E2,-8.291462E2,4.427758E2],"categories":[],"categories_nodes":[],"categories_segments":[],"categories_sizes":[],"default_left":[0,0,0,0,0,0,0,0,0,0,0,0,0,0,0,0,0,0,0,0,0,0,0,0,0,0,0,0,0],"id":48,"left_children":[1,3,5,7,9,11,13,-1,15,17,19,21,23,25,27,-1,-1,-1,-1,-1,-1,-1,-1,-1,-1,-1,-1,-1,-1],"loss_changes":[3.2084617E10,4.708098E9,1.5736909E10,2.6192282E8,2.6930831E9,1.1405695E10,5.2877783E9,0E0,6.8580454E8,2.0874368E9,8.531159E8,1.2741538E10,1.9929117E10,2.5960256E9,1.5474171E9,0E0,0E0,0E0,0E0,0E0,0E0,0E0,0E0,0E0,0E0,0E0,0E0,0E0,0E0],"parents":[2147483647,0,0,1,1,2,2,3,3,4,4,5,5,6,6,8,8,9,9,10,10,11,11,12,12,13,13,14,14],"right_children":[2,4,6,8,10,12,14,-1,16,18,20,22,24,26,28,-1,-1,-1,-1,-1,-1,-1,-1,-1,-1,-1,-1,-1,-1],"split_conditions":[1.484E3,8.16E2,3E0,2E0,6E0,3E0,2E0,-1.3692701E3,7.64E2,3E0,8.69E2,2.344E3,3.493E3,7E0,2.392E3,-1.0138309E3,-4.2611417E2,-6.715185E1,-3.01839E2,-1.8220161E2,-8.3825684E2,5.278645E2,1.6913402E3,8.718743E1,-4.971051E3,4.7887408E2,-1.03145256E2,-8.291462E2,4.427758E2],"split_indices":[4,4,6,8,7,7,5,0,4,6,4,4,4,9,4,0,0,0,0,0,0,0,0,0,0,0,0,0,0],"split_type":[0,0,0,0,0,0,0,0,0,0,0,0,0,0,0,0,0,0,0,0,0,0,0,0,0,0,0,0,0],"sum_hessian":[9.34E2,4.84E2,4.5E2,2.9E1,4.55E2,3.04E2,1.46E2,4E0,2.5E1,4.24E2,3.1E1,2.3E2,7.4E1,1.17E2,2.9E1,1.4E1,1.1E1,1.44E2,2.8E2,7E0,2.4E1,2.04E2,2.6E1,7.3E1,1E0,2.3E1,9.4E1,2.7E1,2E0],"tree_param":{"num_deleted":"0","num_feature":"10","num_nodes":"29","size_leaf_vector":"1"}},{"base_weights":[-7.145039E1,2.4649818E4,-1.9708237E3,1.6939443E4,4.4698094E4,1.1192415E3,-7.8963306E3,1.9664193E4,-6.319422E3,5.022824E4,-1.2328602E3,-2.646643E3,7.058578E3,-1.0706925E3,-7.157176E3,4.8049933E2,1.5875728E3,6.619625E2,-6.439503E2,1.8276995E3,4.276553E3,-6.571815E2,-7.231036E1,2.6032397E3,2.7871185E2,-3.7199136E2,1.094598E3],"categories":[],"categories_nodes":[],"categories_segments":[],"categories_sizes":[],"default_left":[0,0,0,0,0,0,0,0,0,0,0,0,0,0,0,0,0,0,0,0,0,0,0,0,0,0,0],"id":49,"left_children":[1,3,5,7,9,11,13,15,17,19,-1,21,23,-1,25,-1,-1,-1,-1,-1,-1,-1,-1,-1,-1,-1,-1],"loss_changes":[4.4092297E10,9.599676E9,1.5975336E10,3.2929946E9,8.142295E9,1.2857257E10,2.8342067E9,5.1636204E9,9.4028896E8,5.0800763E9,0E0,4.4165294E9,1.4607201E10,0E0,2.5029407E9,0E0,0E0,0E0,0E0,0E0,0E0,0E0,0E0,0E0,0E0,0E0,0E0],"parents":[2147483647,0,0,1,1,2,2,3,3,4,4,5,5,6,6,7,7,8,8,9,9,11,11,12,12,14,14],"right_children":[2,4,6,8,10,12,14,16,18,20,-1,22,24,-1,26,-1,-1,-1,-1,-1,-1,-1,-1,-1,-1,-1,-1],"split_conditions":[1E0,2.392E3,4E0,1E1,5.642E3,1.652E3,4E0,1.829E3,2.019E3,1.2E1,-1.2328602E3,9.6E2,6E0,-1.0706925E3,3E0,4.8049933E2,1.5875728E3,6.619625E2,-6.439503E2,1.8276995E3,4.276553E3,-6.571815E2,-7.231036E1,2.6032397E3,2.7871185E2,-3.7199136E2,1.094598E3],"split_indices":[6,4,7,9,4,4,0,4,4,9,0,4,9,0,3,0,0,0,0,0,0,0,0,0,0,0,0],"split_type":[0,0,0,0,0,0,0,0,0,0,0,0,0,0,0,0,0,0,0,0,0,0,0,0,0,0,0],"sum_hessian":[9.37E2,6.6E1,8.71E2,4.9E1,1.7E1,5.73E2,2.98E2,4.4E1,5E0,1.6E1,1E0,3.51E2,2.22E2,1.4E1,2.84E2,2.5E1,1.9E1,1E0,4E0,1.3E1,3E0,3.5E1,3.16E2,6E0,2.16E2,2.82E2,2E0],"tree_param":{"num_deleted":"0","num_feature":"10","num_nodes":"27","size_leaf_vector":"1"}},{"base_weights":[3.410797E2,-1.8149528E3,1.742021E4,-5.0056865E3,2.3523308E3,1.2588374E4,4.140736E4,-1.7494707E4,-4.3489375E3,6.0484844E3,-5.4107515E3,1.039229E4,3.651559E4,6.318008E4,-2.3483191E4,-3.2749615E2,-1.0936841E3,-3.718293E2,-8.640778E1,1.0479606E3,2.4170706E2,-3.590074E2,7.031428E2,7.270519E2,1.8956953E2,2.40129E3,2.5800208E2,1.9470647E3,6.5497803E3,2.106071E3,-4.0630037E3],"categories":[],"categories_nodes":[],"categories_segments":[],"categories_sizes":[],"default_left":[0,0,0,0,0,0,0,0,0,0,0,0,0,0,0,0,0,0,0,0,0,0,0,0,0,0,0,0,0,0,0],"id":50,"left_children":[1,3,5,7,9,11,13,15,17,19,21,23,25,27,29,-1,-1,-1,-1,-1,-1,-1,-1,-1,-1,-1,-1,-1,-1,-1,-1],"loss_changes":[3.4166686E10,1.0968249E10,1.1532558E10,3.75432E9,1.0305015E10,4.2445834E9,2.5502015E10,9.590482E8,3.588113E9,4.298618E9,4.0979295E9,2.1904773E9,2.2785475E9,1.6267817E10,2.2374937E10,0E0,0E0,0E0,0E0,0E0,0E0,0E0,0E0,0E0,0E0,0E0,0E0,0E0,0E0,0E0,0E0],"parents":[2147483647,0,0,1,1,2,2,3,3,4,4,5,5,6,6,7,7,8,8,9,9,10,10,11,11,12,12,13,13,14,14],"right_children":[2,4,6,8,10,12,14,16,18,20,22,24,26,28,30,-1,-1,-1,-1,-1,-1,-1,-1,-1,-1,-1,-1,-1,-1,-1,-1],"split_conditions":[2.108E3,1.464E3,9E0,2E0,8E0,3.112E3,1.1E1,1E0,1.113E3,6E0,9E0,2E0,3E0,2.81E3,1E1,-3.2749615E2,-1.0936841E3,-3.718293E2,-8.640778E1,1.0479606E3,2.4170706E2,-3.590074E2,7.031428E2,7.270519E2,1.8956953E2,2.40129E3,2.5800208E2,1.9470647E3,6.5497803E3,2.106071E3,-4.0630037E3],"split_indices":[4,4,0,8,9,4,9,8,4,9,0,7,8,4,0,0,0,0,0,0,0,0,0,0,0,0,0,0,0,0,0],"split_type":[0,0,0,0,0,0,0,0,0,0,0,0,0,0,0,0,0,0,0,0,0,0,0,0,0,0,0,0,0,0,0],"sum_hessian":[9.26E2,8.23E2,1.03E2,4.66E2,3.57E2,8.7E1,1.6E1,2.2E1,4.44E2,2.42E2,1.15E2,8.1E1,6E0,1.2E1,4E0,7E0,1.5E1,2.03E2,2.41E2,1.7E1,2.25E2,1.06E2,9E0,4.9E1,3.2E1,4E0,2E0,1E1,2E0,2E0,2E0],"tree_param":{"num_deleted":"0","num_feature":"10","num_nodes":"31","size_leaf_vector":"1"}},{"base_weights":[3.5907907E2,-3.3641373E2,6.437806E4,-2.9749097E3,8.084316E3,-1.0891328E4,8.455682E4,5.091757E2,-6.2115303E3,6.0009873E3,2.4848123E4,-1.1004637E3,2.8361407E2,9.381945E2,1.202798E5,-2.7308905E2,1.3610774E2,-8.096999E2,-2.600294E2,4.2648273E2,-6.290944E2,1.7173984E3,-1.5648885E2,6.6872954E3,1.6603837E3],"categories":[],"categories_nodes":[],"categories_segments":[],"categories_sizes":[],"default_left":[0,0,0,0,0,0,0,0,0,0,0,0,0,0,0,0,0,0,0,0,0,0,0,0,0],"id":51,"left_children":[1,3,5,7,9,11,13,15,17,19,21,-1,-1,-1,23,-1,-1,-1,-1,-1,-1,-1,-1,-1,-1],"loss_changes":[4.1429668E10,2.0486885E10,1.6109367E10,7.91938E9,7.5342807E9,6.773028E8,1.6545645E10,4.494279E9,3.589161E9,9.36433E9,6.486357E9,0E0,0E0,0E0,1.4212219E9,0E0,0E0,0E0,0E0,0E0,0E0,0E0,0E0,0E0,0E0],"parents":[2147483647,0,0,1,1,2,2,3,3,4,4,5,5,6,6,7,7,8,8,9,9,10,10,14,14],"right_children":[2,4,6,8,10,12,14,16,18,20,22,-1,-1,-1,24,-1,-1,-1,-1,-1,-1,-1,-1,-1,-1],"split_conditions":[1E1,1.8E3,3E0,3E0,2.62E3,3E0,1E1,1.25E3,1E0,1E1,3E0,-1.1004637E3,2.8361407E2,9.381945E2,1E0,-2.7308905E2,1.3610774E2,-8.096999E2,-2.600294E2,4.2648273E2,-6.290944E2,1.7173984E3,-1.5648885E2,6.6872954E3,1.6603837E3],"split_indices":[0,4,1,8,4,3,9,4,1,9,8,0,0,0,8,0,0,0,0,0,0,0,0,0,0],"split_type":[0,0,0,0,0,0,0,0,0,0,0,0,0,0,0,0,0,0,0,0,0,0,0,0,0],"sum_hessian":[9.29E2,9.2E2,9E0,7.01E2,2.19E2,2E0,7E0,3.38E2,3.63E2,1.96E2,2.3E1,1E0,1E0,3E0,4E0,9.1E1,2.47E2,3.2E1,3.31E2,1.73E2,2.3E1,1.7E1,6E0,3E0,1E0],"tree_param":{"num_deleted":"0","num_feature":"10","num_nodes":"25","size_leaf_vector":"1"}},{"base_weights":[6.34801E2,-2.5127434E3,1.0333575E4,4.05291E2,-6.6870156E3,7.5022036E3,3.2369307E4,8.291336E2,-3.4939473E4,-5.910948E3,-1.9753244E4,1.1823901E4,-7.0517664E2,-2.3929688E3,4.075999E4,6.93791E2,-2.0290022E1,-4.6773654E2,-3.431961E3,-7.6492163E2,-2.5222258E2,-4.3158408E2,-1.6409651E3,6.812091E2,-9.2292865E2,-2.624896E2,2.264252E2,6.712047E2,-6.8287616E2,6.594006E2,3.0169988E3],"categories":[],"categories_nodes":[],"categories_segments":[],"categories_sizes":[],"default_left":[0,0,0,0,0,0,0,0,0,0,0,0,0,0,0,0,0,0,0,0,0,0,0,0,0,0,0,0,0,0,0],"id":52,"left_children":[1,3,5,7,9,11,13,15,17,19,21,23,25,27,29,-1,-1,-1,-1,-1,-1,-1,-1,-1,-1,-1,-1,-1,-1,-1,-1],"loss_changes":[2.8782703E10,8.675348E9,1.4169557E10,6.3208284E9,2.8543386E9,7.31512E9,7.681196E9,6.7081385E9,3.6688957E9,2.1841418E9,2.0417536E9,7.611269E9,1.7362982E9,1.252373E9,1.0541273E10,0E0,0E0,0E0,0E0,0E0,0E0,0E0,0E0,0E0,0E0,0E0,0E0,0E0,0E0,0E0,0E0],"parents":[2147483647,0,0,1,1,2,2,3,3,4,4,5,5,6,6,7,7,8,8,9,9,10,10,11,11,12,12,13,13,14,14],"right_children":[2,4,6,8,10,12,14,16,18,20,22,24,26,28,30,-1,-1,-1,-1,-1,-1,-1,-1,-1,-1,-1,-1,-1,-1,-1,-1],"split_conditions":[1.8E3,2E0,2.696E3,1.795E3,1.683E3,3E0,1E1,1E0,7E0,2E0,6E0,1E1,9E0,2.81E3,2E0,6.93791E2,-2.0290022E1,-4.6773654E2,-3.431961E3,-7.6492163E2,-2.5222258E2,-4.3158408E2,-1.6409651E3,6.812091E2,-9.2292865E2,-2.624896E2,2.264252E2,6.712047E2,-6.8287616E2,6.594006E2,3.0169988E3],"split_indices":[4,7,4,4,4,7,9,8,0,6,0,9,9,4,2,0,0,0,0,0,0,0,0,0,0,0,0,0,0,0,0],"split_type":[0,0,0,0,0,0,0,0,0,0,0,0,0,0,0,0,0,0,0,0,0,0,0,0,0,0,0,0,0,0,0],"sum_hessian":[9.41E2,7.11E2,2.3E2,4.19E2,2.92E2,2.05E2,2.5E1,4.15E2,4E0,2.77E2,1.5E1,1.34E2,7.1E1,5E0,2E1,3.5E1,3.8E2,3E0,1E0,2.2E1,2.55E2,9E0,6E0,1.27E2,7E0,3.8E1,3.3E1,2E0,3E0,9E0,1.1E1],"tree_param":{"num_deleted":"0","num_feature":"10","num_nodes":"31","size_leaf_vector":"1"}},{"base_weights":[3.324309E2,2.1965996E4,-1.2917195E3,1.755777E4,4.4455473E4,-3.4113376E3,5.8765444E3,2.1573473E4,2.6155564E3,7.501435E3,7.990923E4,-3.162699E3,-4.395682E4,4.6502607E3,3.1111805E4,6.0158704E2,1.6210983E3,-3.455957E1,1.0574133E3,3.5946055E3,-4.0426638E3,2.0060957E3,5.976462E3,1.3874681E3,-1.719254E2,-3.3461619E3,-6.9968024E2,3.168776E2,-5.4344556E2,2.2268748E3,1.5976602E2],"categories":[],"categories_nodes":[],"categories_segments":[],"categories_sizes":[],"default_left":[0,0,0,0,0,0,0,0,0,0,0,0,0,0,0,0,0,0,0,0,0,0,0,0,0,0,0,0,0,0,0],"id":53,"left_children":[1,3,5,7,9,11,13,15,17,19,21,23,25,27,29,-1,-1,-1,-1,-1,-1,-1,-1,-1,-1,-1,-1,-1,-1,-1,-1],"loss_changes":[3.2705006E10,5.663482E9,1.3178035E10,3.30377E9,1.2502159E10,6.60528E9,5.9825485E9,4.1644974E9,8.1129645E8,3.994803E10,3.086127E9,5.7736136E9,1.8160932E9,5.0440996E9,3.2308705E9,0E0,0E0,0E0,0E0,0E0,0E0,0E0,0E0,0E0,0E0,0E0,0E0,0E0,0E0,0E0,0E0],"parents":[2147483647,0,0,1,1,2,2,3,3,4,4,5,5,6,6,7,7,8,8,9,9,10,10,11,11,12,12,13,13,14,14],"right_children":[2,4,6,8,10,12,14,16,18,20,22,24,26,28,30,-1,-1,-1,-1,-1,-1,-1,-1,-1,-1,-1,-1,-1,-1,-1,-1],"split_conditions":[1E0,2.696E3,1.8E3,3E0,1E0,1.795E3,3.112E3,1.804E3,1E1,1E1,3E0,1E0,1E0,2E0,3E0,6.0158704E2,1.6210983E3,-3.455957E1,1.0574133E3,3.5946055E3,-4.0426638E3,2.0060957E3,5.976462E3,1.3874681E3,-1.719254E2,-3.3461619E3,-6.9968024E2,3.168776E2,-5.4344556E2,2.2268748E3,1.5976602E2],"split_indices":[6,4,4,7,2,4,4,4,0,0,3,2,8,5,8,0,0,0,0,0,0,0,0,0,0,0,0,0,0,0,0],"split_type":[0,0,0,0,0,0,0,0,0,0,0,0,0,0,0,0,0,0,0,0,0,0,0,0,0,0,0,0,0,0,0],"sum_hessian":[9.29E2,6.4E1,8.65E2,5.5E1,9E0,6.68E2,1.97E2,4.3E1,1.2E1,5E0,4E0,6.65E2,3E0,1.89E2,8E0,2.4E1,1.9E1,1.1E1,1E0,3E0,2E0,3E0,1E0,5E0,6.6E2,1E0,2E0,1.71E2,1.8E1,5E0,3E0],"tree_param":{"num_deleted":"0","num_feature":"10","num_nodes":"31","size_leaf_vector":"1"}},{"base_weights":[5.1024478E2,2.500608E4,-1.272374E3,1.738237E4,5.498233E3,1.8899705E3,-5.9849727E3,1.2369469E4,3.0081445E4,5.628677E3,-2.652248E3,-9.69325E2,-5.3230825E3,7.0124347E2,-1.4703196E3,1.7361266E3,-9.883707E2,2.6144006E2,2.9798337E3,-1.7457999E2,5.97494E2,-1.2034588E2,-3.425193E2],"categories":[],"categories_nodes":[],"categories_segments":[],"categories_sizes":[],"default_left":[0,0,0,0,0,0,0,0,0,0,0,0,0,0,0,0,0,0,0,0,0,0,0],"id":54,"left_children":[1,3,5,7,-1,9,11,13,15,17,19,-1,21,-1,-1,-1,-1,-1,-1,-1,-1,-1,-1],"loss_changes":[4.0554553E10,3.8893634E10,1.2917189E10,3.3838019E9,0E0,8.828598E9,2.983682E9,3.4552765E9,4.388018E9,5.8388183E9,2.9219597E9,0E0,1.4666506E9,0E0,0E0,0E0,0E0,0E0,0E0,0E0,0E0,0E0,0E0],"parents":[2147483647,0,0,1,1,2,2,3,3,5,5,6,6,7,7,8,8,9,9,10,10,12,12],"right_children":[2,4,6,8,-1,10,12,14,16,18,20,-1,22,-1,-1,-1,-1,-1,-1,-1,-1,-1,-1],"split_conditions":[1E0,3E0,2E0,2.172E3,5.498233E3,3E0,4E0,1E1,5.642E3,1E1,2E3,-9.69325E2,3E0,7.0124347E2,-1.4703196E3,1.7361266E3,-9.883707E2,2.6144006E2,2.9798337E3,-1.7457999E2,5.97494E2,-1.2034588E2,-3.425193E2],"split_indices":[6,3,7,4,0,6,0,9,4,0,4,0,8,0,0,0,0,0,0,0,0,0,0],"split_type":[0,0,0,0,0,0,0,0,0,0,0,0,0,0,0,0,0,0,0,0,0,0,0],"sum_hessian":[9.27E2,6.2E1,8.65E2,5.8E1,4E0,5.18E2,3.47E2,4.3E1,1.5E1,2.84E2,2.34E2,1.5E1,3.32E2,4.2E1,1E0,1.4E1,1E0,2.83E2,1E0,2.22E2,1.2E1,1.15E2,2.17E2],"tree_param":{"num_deleted":"0","num_feature":"10","num_nodes":"23","size_leaf_vector":"1"}},{"base_weights":[-4.253256E2,3.7223625E3,-4.8571665E3,1.3689693E4,2.3799675E3,-1.693169E4,-4.1388525E3,1.7056121E4,-3.8381328E3,4.0717078E3,-1.635009E3,-1.7281145E4,-2.1361914E2,-1.2323997E4,-3.2609976E3,7.335935E2,1.9807465E3,9.003144E2,-5.0109478E3,1.7158545E3,1.8767804E2,-5.3498724E2,2.362872E1,-1.1062366E3,-7.2187317E2,-7.728407E2,2.550327E2,-1.2366376E2,-7.536124E2],"categories":[],"categories_nodes":[],"categories_segments":[],"categories_sizes":[],"default_left":[0,0,0,